weights
"[[-0.06575239268939091, -0.06581927867504885, -0.0659217176211042, -0.06591517155924549, -0.06571831323804019, -0.0658173425562689, -0.06582226268492734, -0.06570671756957731, -0.06572986515229366, -0.06577432773250304, -0.06590508976015146, -0.0658400409636352, -0.06583767759408456, -0.06598891298350117, -0.06581970267865443, -0.06589313030768994, -0.06578642731605351, -0.06577736868377808, -0.06582698797759003, -0.06571475670736683, -0.06586589833041569, -0.06591861076693063, -0.06574063540702806, -0.0656992236930679, -0.06583692928926578, -0.06588453824202918, -0.06568545473678437, -0.06579829423922691, -0.06573318728860945, -0.06581855782229111, -0.06590133998984297, -0.06587384275062606, -0.06568592885587794, -0.06573752140613424, -0.0677854195215188, -0.06962614727257437, -0.06821353429029779, -0.067419518193142, -0.06924279855480327, -0.06831684100100698, -0.0689339769816633, -0.0688293298755847, -0.06892071241692753, -0.06780832280051712, -0.06667048867416432, -0.06702437107167396, -0.06733692855388555, -0.06642405869809977, -0.06561924007111043, -0.06616112794113212, -0.06631188832711103, -0.06592820025047268, -0.065846273029763, -0.06571804368149355, -0.06573511819690374, -0.06592428799831417, -0.06586978748019144, -0.06581671313796293, -0.0657837729725176, -0.0657043023522925, -0.06579312288192428, -0.0658477253389085, -0.06797765489144024, -0.07202561892128394, -0.07134266886815845, -0.06885656214010794, -0.07314624192305802, -0.0764141665028765, -0.07943847672438238, -0.08374656682187835, -0.08376702961300457, -0.08209815724859901, -0.07965126551922802, -0.0745102549948927, -0.07015987697679449, -0.06733612834258068, -0.0658092397475946, -0.06528447936723615, -0.06555197228899781, -0.06605431242340669, -0.0660231242839054, -0.06586987295793768, -0.06584503200642518, -0.06589474309332492, -0.06567809848863838, -0.0657200779471268, -0.06589743769912292, -0.06566586032453814, -0.0654587387393653, -0.06561518922874178, -0.06754447128401263, -0.06781411883594653, -0.060683555329089076, -0.05615717591181485, -0.04941584917703683, -0.04346173694653435, -0.04440278586320874, -0.04655279300025665, -0.03587125239441321, -0.030130357008530246, -0.02614761933578292, -0.021800707605175343, -0.025043523673940915, -0.030488828316465565, -0.03998358425365652, -0.04857285932792279, -0.056857628779044954, -0.06177726292129796, -0.06410993539956324, -0.06572272002777356, -0.0658366824057769, -0.06580639606773898, -0.06591087186077281, -0.06573672792974815, -0.06596358817734775, -0.06597119028234685, -0.06484922198168513, -0.05982060494616229, -0.05768731952739162, -0.04053421923778749, -0.016195909256145277, 0.01608207169386676, 0.04294572702122352, 0.06389518006432694, 0.08524547630385901, 0.11758230615529086, 0.16908490714615568, 0.2240796157056224, 0.23823307219389786, 0.20259650550121555, 0.1481886638133412, 0.08631287635174248, 0.044005608319544406, 0.002204469738444537, -0.019689051732289648, -0.04131551989567394, -0.052166271021469104, -0.061771113424008345, -0.0650136438009349, -0.06572874889556792, -0.06581756402748913, -0.065782312513423, -0.06558504871916764, -0.06483341198982129, -0.060515487662854854, -0.05595808327174356, -0.02722306824418396, 0.02502758723406983, 0.07829861772244111, 0.15704550759457317, 0.23277742128833287, 0.3094349446363509, 0.39680826060056956, 0.5116285028454399, 0.6367303764114494, 0.7552111463664859, 0.8320298269547447, 0.8074659694385959, 0.6708806314123459, 0.5168346232516828, 0.3682305327872421, 0.2268371018411523, 0.1348618723330809, 0.06872463873958101, -0.0062573180345937155, -0.04599759400778522, -0.06145717943371075, -0.06567038836386312, -0.06574130835492221, -0.06588250985549914, -0.06796038772652839, -0.06858072600471922, -0.05722725191662468, -0.053570860259092724, -0.049773888646473925, -0.010165809012714105, 0.021380956117827768, 0.058786325206234925, 0.09784974228747055, 0.12029224490085948, 0.17290213798815637, 0.21325156476326312, 0.239709168023747, 0.330712374072239, 0.3999819984204617, 0.4772741767693297, 0.5396903375589936, 0.5158870417365145, 0.4417877189269236, 0.34064541635855633, 0.2877984227970842, 0.20492681637731297, 0.07993949372588324, -0.008459731068310944, -0.050935865799410986, -0.06410410409859645, -0.06571338004604245, -0.06599638367118764, -0.07556655142862027, -0.09011536842572195, -0.09180370703659889, -0.1228593969973059, -0.1828813812537426, -0.20560319874585486, -0.24857101831886833, -0.2649039033732949, -0.3123431729094165, -0.31976573805524583, -0.35331716982807415, -0.3250414709320853, -0.2476138009861703, -0.13278729200009673, -0.04878210712674595, 0.09862436916497705, 0.22604074652479425, 0.25808328659250374, 0.25047520118938793, 0.27068200501281325, 0.27117832598660485, 0.23599327800182193, 0.13898333547646946, 0.03246960903206214, -0.042069574965561136, -0.06390797418451381, -0.0653806787274152, -0.07265154680696913, -0.1056072151726748, -0.15598310399695095, -0.18663321192106752, -0.23043346890751448, -0.2958188470058532, -0.3772591774603139, -0.4193656413465336, -0.4027729501593693, -0.45180183096896254, -0.4993439147954623, -0.5532199397917743, -0.530623433569177, -0.5455251629497786, -0.4281821778522239, -0.25727312769396, -0.09996618360421748, 0.1003269891898762, 0.191701746634618, 0.21273244976937192, 0.21334857684542613, 0.20024779079352584, 0.20390732628216818, 0.1662117552612058, 0.052577745055981825, -0.03617123142383057, -0.06265077507658219, -0.0666409431674325, -0.0779157287130509, -0.12513308737196638, -0.21222047009121517, -0.2638154506985525, -0.3201595364026698, -0.3021009324934433, -0.3043570984572819, -0.3304526230633102, -0.33420058946993797, -0.36017697936970267, -0.461605223846645, -0.5225630982431407, -0.563794692386624, -0.6790368137506005, -0.5981548775326688, -0.4627400642495056, -0.27872332293299656, -0.007065850840348187, 0.09632687203985432, 0.1212102211800997, 0.12307012758455202, 0.14454599206280114, 0.18113591149712596, 0.13308961745448503, 0.028568279300938804, -0.04279619577674685, -0.06607831626142628, -0.06674828362482858, -0.07901578913973946, -0.13695033281945207, -0.22334439916187082, -0.28997630255492585, -0.35064985948826183, -0.2887321866501321, -0.22645463187267645, -0.1913565327187373, -0.18091987078581362, -0.26480858433462684, -0.29281131466834787, -0.28337692356783223, -0.48022141950879726, -0.5810550186738191, -0.5506755300789058, -0.5367251642387227, -0.3879451501728273, -0.18978222640313422, -0.0755691327205465, -0.07180895857985513, -0.07078352193112757, 0.009208318044436878, 0.10778041162965656, 0.07622779386170335, -0.006593353115598055, -0.05192120292699719, -0.06510884734964927, -0.06637624761771134, -0.08398328047530651, -0.1514121638971063, -0.21948597988623178, -0.2919226699131386, -0.27253468893755045, -0.1765216765025499, -0.11950211712207116, -0.06365614162168551, -0.08275451885770707, -0.08900124943537964, -0.02760355769093006, 0.062296900189129804, -0.08065545780659097, -0.1960697736622649, -0.3038950844153604, -0.39040026090314833, -0.4009742524571538, -0.3453554038844817, -0.19432041890108714, -0.23286113874664133, -0.19113033366401116, -0.07124520864116007, 0.0590688603996534, 0.03398979374269511, -0.034436425052655, -0.05525715277287089, -0.06517652091315086, -0.06605209916602318, -0.08293431889212059, -0.13376860771921634, -0.20419978445461962, -0.26747417532935513, -0.1894349920137495, -0.015094341438652197, 0.047515440942890064, 0.05597818853266406, 0.12347520613036661, 0.2866048251439853, 0.5211234193874678, 0.7325644788359814, 0.6105714196013802, 0.38451552896372054, 0.023215207254451503, -0.2817556279471988, -0.39150107015203617, -0.3206118275977043, -0.21663002888363636, -0.262481182159925, -0.16818574172231915, -0.03062267083577236, 0.059675260574020256, 0.015528295215468394, -0.062189641967021356, -0.067482758527933, -0.06767682547399918, -0.06584736161694561, -0.07325413032364285, -0.10629222459111502, -0.15761003451351632, -0.19242248936744025, -0.06051263882480425, 0.14422138559063175, 0.25443331977051276, 0.2737793930410211, 0.36957864325261064, 0.5998522668795687, 0.9893947479828576, 1.1838341730678361, 1.00496791361519, 0.6351187495638575, 0.10252187696152375, -0.22521454038266464, -0.26375901722169537, -0.22700649023667654, -0.24520728652260654, -0.25383356800273993, -0.15894881602176963, -0.03336174920546554, 0.03256852618798001, -0.011754593185433334, -0.07640436899501682, -0.06875756115123001, -0.0672488325005157, -0.06563186670771141, -0.06900869788306922, -0.08451694126203753, -0.109283821180076, -0.09152661351027591, 0.07852346362128862, 0.2916858237251762, 0.4169527631491301, 0.4449627929670695, 0.5219436585027424, 0.7522397189886266, 1.0744198079403164, 1.1435725336490623, 0.9461548718482428, 0.5067258392783771, -0.013953477025357463, -0.2375507358355841, -0.27735505410381345, -0.34127322317110914, -0.3650698240570305, -0.31848944177004723, -0.2125337548491749, -0.11176987948601978, -0.017946556641299353, -0.01833827383401737, -0.08184835709962941, -0.07030073180809242, -0.0660387395277416, -0.06579714157915172, -0.06550843971351893, -0.07060418955846352, -0.07447124649436408, -0.02688640932679629, 0.1896854461898589, 0.33884467703560023, 0.45512116946090075, 0.5022116395509804, 0.5398879476078342, 0.6377803143448962, 0.8205756072700336, 0.8392881193317474, 0.678626251678325, 0.2903452021354108, -0.11897490715411192, -0.28868071028057, -0.41078937499126017, -0.40457707107115376, -0.36780698772266907, -0.3273907462670491, -0.24490203057452153, -0.12011467372847728, -0.012285533979572586, -0.03280878847483028, -0.07338357077310616, -0.07027904889537775, -0.06616754261276174, -0.0659577758995281, -0.06501370709431976, -0.06362015663981545, -0.05563180567760239, 0.00016625235369909796, 0.21871270457939643, 0.35704411976905526, 0.38055386415120185, 0.37426870492599806, 0.38054498980539075, 0.43050539830809537, 0.5123154773954333, 0.4853433066951687, 0.30704411568591217, 0.00508452387569584, -0.25991900170591764, -0.28999534361513407, -0.27968161973357447, -0.22559702798104636, -0.19763877761083473, -0.12421624687914462, -0.07773520781529507, 0.0007408403533584887, 0.03084258940914426, -0.015697644967608584, -0.0684013718475842, -0.07308330729216536, -0.06623614383041752, -0.0657975245009368, -0.0657684152433347, -0.06024932137719475, -0.04574711011824104, 0.04561015266147735, 0.24811280058432772, 0.39766174609022686, 0.4055420317481696, 0.3426215768493427, 0.2745027007888329, 0.2898155501194826, 0.2511809577380981, 0.14175298203524483, -0.14105716979256142, -0.34613421006043643, -0.34644515110908447, -0.12728215112508895, -0.08452605722150491, -0.04998799464531301, 0.04644722334580123, 0.10453690666352224, 0.12897419528859608, 0.10768638826870144, 0.058630439258477, -0.02335203732838625, -0.073384583595184, -0.07214573173505871, -0.06570353876472566, -0.06677857026030636, -0.06594647280209166, -0.0626455432125972, -0.03951066220359102, 0.08230479588762121, 0.29634495604527145, 0.45811273830362664, 0.4826993044381259, 0.4409074263110831, 0.36580841892815336, 0.27992828351950827, 0.11047986397682232, -0.12116788634827198, -0.4207172358271132, -0.46138281436420875, -0.23865286248167128, 0.033559105131503855, 0.06031994906161072, 0.14629525969141297, 0.26386055472356235, 0.2959562305165197, 0.264208950299286, 0.18313426875333258, 0.08656623320576069, -0.01522728105656661, -0.0680917558787713, -0.06948446722571895, -0.0661508733608341, -0.06575443682070693, -0.06791861165300932, -0.05999317670780279, -0.0282583941851471, 0.0926802036554, 0.30909809106107106, 0.48670627430067304, 0.5579506431055282, 0.534490400421057, 0.44709823385934994, 0.276193463588158, 0.04377021665440277, -0.22788104014186866, -0.3835454404452859, -0.333458357436803, -0.07265007908367627, 0.11901312074357699, 0.22569704112037617, 0.3762927894603705, 0.4344914077519837, 0.4325377687701234, 0.368733810381823, 0.22397631258154313, 0.07324073040967201, -0.03474710352170256, -0.06677253803544098, -0.06611694441875669, -0.0657454752273136, -0.0658751174098902, -0.06429046410885507, -0.05279933423331836, -0.017623176139662834, 0.08482183342634428, 0.28088315749843695, 0.4867061769624958, 0.5954877746825946, 0.5786284680715177, 0.49065722472194095, 0.3168809328895579, 0.11038045797222394, -0.1104073261472512, -0.17684981831534324, -0.12428346925248411, 0.05336459668866086, 0.19388644662096904, 0.35285885071378886, 0.5108079737755429, 0.5450899448748573, 0.48015942446103405, 0.3489465462403291, 0.19338403310593227, 0.04490444582640408, -0.047509676282507005, -0.06736832061113365, -0.06539412052440303, -0.06579312815303819, -0.06584901677168016, -0.06504143739427769, -0.052539157352854846, -0.018840934165440172, 0.0535606310432846, 0.20665331146783836, 0.3856862824040825, 0.5065547958036243, 0.4865102014402955, 0.4001985113305508, 0.3189849303139221, 0.20181095032011753, 0.1429798599584623, 0.1350025679162087, 0.13885934701772926, 0.17570075515865277, 0.22917745698773917, 0.4168803626494373, 0.5384306049660388, 0.5438345813309652, 0.42583894983131276, 0.2702969254692348, 0.13228931572788033, 0.010913590307855839, -0.05441048273770571, -0.06682324123358317, -0.06489602735617929, -0.06588448400702816, -0.06591644527005179, -0.06564621043154058, -0.05374311283941314, -0.0322336778491386, 0.0043460332542600184, 0.0763390938350191, 0.200865205665494, 0.261110958039838, 0.26391856344011777, 0.27336479253165696, 0.28011868335826284, 0.35983628370296555, 0.4309182114766435, 0.44997434187088764, 0.3243068603973577, 0.23725556975863868, 0.2667138042930548, 0.3824389528315827, 0.4489663562408091, 0.4287231155457559, 0.3291076958511655, 0.19361948518920444, 0.06063206942311036, -0.01867411264052753, -0.05896572874218965, -0.06470708192157988, -0.06563639660267702, -0.06570160320156966, -0.06574744559021646, -0.06572630610789558, -0.05824901245508464, -0.04473830524511056, -0.054535710790695725, -0.05770620613312703, -0.048805721760657894, -0.044641565785552076, 0.05792045831255237, 0.09020606886444091, 0.1583936757588151, 0.3287149787687194, 0.44469705062446535, 0.4180044520983915, 0.2702947616312446, 0.1843393213945152, 0.1670089365705399, 0.19586099370458343, 0.26391230286886797, 0.26831268954229814, 0.187705523107294, 0.08886823360981237, 0.00451167393281446, -0.029302400285834303, -0.061042317716131736, -0.0635970570311092, -0.06587368723289778, -0.06583136251108503, -0.06579196209175565, -0.0656829929491597, -0.06175790147408999, -0.06409532817945941, -0.09627271675735834, -0.15841788973272639, -0.22222467332584053, -0.26671427308169837, -0.23975001106828225, -0.17114206423737646, -0.14098276042003294, -0.04276905541529496, -0.012478223553331828, -0.06664843981085837, -0.0958448459336924, -0.1230096179077464, -0.10568341108438598, -0.10279638058848271, -0.006090193544679279, 0.03323739737143497, 0.022856886431898846, -0.011790953705626689, -0.03397347985812801, -0.04026463015507228, -0.06045554455378034, -0.06366780632970663, -0.0656837843430799, -0.0658528323797946, -0.06580546860333521, -0.06591074728691045, -0.06490531127920394, -0.0710437939195805, -0.09456169363413076, -0.14574417224576702, -0.2213081135202738, -0.33334774415108004, -0.43222487333981746, -0.4766542412021974, -0.4813820063667664, -0.506126817305137, -0.5433974459151335, -0.5569769377543394, -0.5482842456147246, -0.5138296269801027, -0.4765399669639618, -0.39053135407975453, -0.24881844788567095, -0.13392693779297676, -0.06335388950937247, -0.06064884664479449, -0.06003553093484151, -0.05793918112960941, -0.06584489121382846, -0.06573182445029839, -0.06570944775468952, -0.06590062061821621, -0.06582634072645115, -0.065780175017408, -0.06581181388748576, -0.06587130696585712, -0.07104528457567001, -0.08562934324656284, -0.1135117310378893, -0.15473341257446327, -0.19618968865553757, -0.23050377249853915, -0.2320488909458955, -0.24277786416296007, -0.27414957642146565, -0.34632510257293947, -0.3764340847216583, -0.3635705573226179, -0.32099317455705995, -0.25470386665843214, -0.1855487425155383, -0.1084491481510126, -0.059469922869539324, -0.06596016706876275, -0.07551631508092392, -0.06639062523844906, -0.06597613405595369, -0.06583576566797357, -0.06579865855018861, -0.06572423064301798, -0.06591244936721434, -0.06571446603508331, -0.06586981698879425, -0.06572182713207646, -0.06614831453048776, -0.06695179897930316, -0.06890884264923998, -0.07214746504338256, -0.07605153622751366, -0.07837328276054902, -0.09012837081384606, -0.08506815099746531, -0.09886833963094079, -0.1227176505273824, -0.1363953858130717, -0.1231687103951107, -0.12295172650180865, -0.11940830906720254, -0.10939117793304735, -0.0851116375248173, -0.06572800957008505, -0.0688943495426463, -0.07390447943429153, -0.06742640116910394, -0.06575573952407864, -0.06581659825891818, -0.0657494346602986, -0.0658339232384856], [0.02194323084063569, 0.021844573251985043, 0.021706909396450196, 0.021743959176824316, 0.021712805241515542, 0.02192519859956122, 0.02176188362189162, 0.02179341319251205, 0.021849075297208045, 0.021938425590398793, 0.021914349184011025, 0.021808255878676953, 0.02183361179433598, 0.021928051102896196, 0.02184688287960597, 0.021715924181043313, 0.021722775168634113, 0.021952316185685456, 0.02187299833765715, 0.021788638686270224, 0.021797994596252448, 0.021754692776308922, 0.021870580977997205, 0.021721121640592866, 0.021730574438182604, 0.021941459623253553, 0.021838556834176827, 0.021884076129906466, 0.02187923971598347, 0.021872204004036982, 0.021731037496505363, 0.021795132622820332, 0.02183916285537833, 0.02171317938603539, 0.021729841872239114, 0.021815165731078858, 0.021761431164716745, 0.02183955077691267, 0.021862375182080146, 0.02200100119904572, 0.022026587896806383, 0.021823904335935788, 0.0219680558671067, 0.021796983008625686, 0.02202718184524906, 0.021824474056645934, 0.021774148958692643, 0.021892635807281905, 0.02192942340451141, 0.021869343714273636, 0.021731232125933156, 0.021719336027621963, 0.021911096517568857, 0.021757195328248508, 0.0218478091655463, 0.02181622196809941, 0.021805621788651277, 0.021850554325792654, 0.02179081359095984, 0.021756097075563682, 0.02175112707469161, 0.021766932773575214, 0.021755497449948688, 0.02196942012016887, 0.021857128779204916, 0.022027928575342446, 0.02215553674276613, 0.02247728036549916, 0.022593792706364593, 0.02309773891104923, 0.023506166582875597, 0.023836723365521145, 0.0239259649398937, 0.023749606037929936, 0.02329301936974198, 0.022708118576946157, 0.022194302856028227, 0.02209401579133319, 0.021978376019247344, 0.021849838961772915, 0.02193529359088306, 0.021844463106480187, 0.02170654890836259, 0.021802780195855208, 0.021941779504623563, 0.021957608255549665, 0.021794378359411476, 0.021908636514428984, 0.021783158041771902, 0.021920707295586633, 0.021953042337858268, 0.022055779801444932, 0.022321456205735914, 0.022893271348814064, 0.023658339464772644, 0.024489179509823905, 0.025338398218123944, 0.026549031679344786, 0.028049604866891415, 0.028708512149450065, 0.028434228213880957, 0.027522218578650965, 0.02621418172037163, 0.024592751107765112, 0.023113297065704995, 0.022327477613298157, 0.02194946912688813, 0.02189624208776627, 0.021755229326893354, 0.021910415279301126, 0.02193651097630668, 0.02174158498732992, 0.021862558694628737, 0.021941948064692976, 0.02184477623874884, 0.02192334705535414, 0.02194158435113916, 0.021885505103279513, 0.022264353664810294, 0.022778765008204468, 0.023677170683024218, 0.0251966517299776, 0.02703072677147622, 0.029374685939131284, 0.032773941984095945, 0.03717842109280353, 0.040943180267711134, 0.04183303290823175, 0.04056365682319078, 0.03852105745514582, 0.03505402134025688, 0.030729918299559147, 0.026363665728365078, 0.02331534376734246, 0.021704101879083396, 0.0213165786834085, 0.02160309380365903, 0.021795171203355158, 0.02175986607556754, 0.021928044819855563, 0.02193549039627785, 0.021710792964272484, 0.021898349911356755, 0.021902256597583655, 0.022026517700402672, 0.022282753747139023, 0.02268784185807576, 0.023859181285945788, 0.025368603720304063, 0.027169298566479726, 0.029722845220084445, 0.03305509839519993, 0.03784338873716769, 0.04444513839085294, 0.049915900107777716, 0.05187285318279767, 0.049476732751415696, 0.045712369946675324, 0.04012923949339004, 0.03318456462221462, 0.026788599575544067, 0.021753984216299323, 0.019569913927520385, 0.019473080258650022, 0.02058160176768295, 0.021389536467965518, 0.021765852947692396, 0.021911150941132756, 0.021893843260548218, 0.021826442979621094, 0.021721767685714446, 0.021801650540932777, 0.02203671129038483, 0.02224345165947598, 0.023112519433156314, 0.02423383499420383, 0.025295795822521273, 0.026010019950677678, 0.026911640734338098, 0.028044151435813656, 0.03102134075238888, 0.03580183885355603, 0.04076125787004149, 0.04218025752393567, 0.040375735483770755, 0.03700404855532511, 0.032396604711113726, 0.026446368427070596, 0.02130249968762801, 0.017591005988521168, 0.016694560979289657, 0.017432976470309332, 0.019329049074477442, 0.02095455488348127, 0.02167738764356961, 0.021940076791253097, 0.021852428577602275, 0.02185834393949529, 0.021811745842623603, 0.021792890327879098, 0.021589118007171296, 0.021500430177756637, 0.021399595737604235, 0.020968967451401897, 0.019835121792155692, 0.017333965731470943, 0.014447558745897551, 0.012010382387978717, 0.011884422589691338, 0.015851994360439613, 0.021988154149777582, 0.02510405617471398, 0.024063713178722707, 0.02058913089375921, 0.016359445334409868, 0.012685073491186322, 0.010736776692062487, 0.01126123169829198, 0.013233523917746626, 0.015862458056815073, 0.018612790076178765, 0.02050759044123763, 0.02159326969236205, 0.021820227055286467, 0.02182770990750189, 0.021719155558589012, 0.021547197961662882, 0.021364008185785148, 0.020766199719572716, 0.01978168679014465, 0.01804084494157335, 0.01507929158770715, 0.010271483105631012, 0.004535075539557429, -0.0017339378683139913, -0.0066725387983071266, -0.00612840348873824, 0.002164010711255546, 0.013827740162217812, 0.0214494682096156, 0.019993155654220537, 0.01321854586148652, 0.006287285934046908, 0.001819055714267847, 0.002367436105987771, 0.006052673872906459, 0.010826332647672552, 0.015298738408498344, 0.01867879728791575, 0.02048748563841337, 0.021509551168713902, 0.021826912319223266, 0.021817048490861923, 0.02179175535106618, 0.02160106711998455, 0.020929853515354164, 0.01970488794111972, 0.017793767911116254, 0.014689271634822207, 0.009131758012752672, 0.0017535304524157887, -0.006681986593892109, -0.01351413336929577, -0.016177739153100907, -0.010480863971909544, 0.0049650166741054035, 0.02357068259042279, 0.034039684201667336, 0.028959661088282494, 0.015401876893019714, 0.0033263176359316113, -0.00265613154160059, -0.0011227990588387113, 0.004159320564963449, 0.009960686648108575, 0.015371719598291134, 0.019425854008424906, 0.021028470558777927, 0.021825011023155684, 0.021905474085486255, 0.02175742307273704, 0.021844173793219724, 0.021558727218215983, 0.02071753135490239, 0.019384310852095844, 0.016496604405579363, 0.012161653676490658, 0.005139328561426168, -0.004210502024181082, -0.012763222002227726, -0.016824546427971893, -0.014010387091150323, -0.00209406443085315, 0.018902763251556775, 0.042850222928195805, 0.05287313335017509, 0.03956002624547649, 0.018008745732287893, 0.0019053836131386003, -0.003656303869789497, -0.000699328853229397, 0.0047427129137641594, 0.010273643874426593, 0.015857919522567945, 0.019931095283021606, 0.021535965893263325, 0.021673179064367176, 0.02194466919677533, 0.021834784262908028, 0.021726204244827293, 0.021602929265426188, 0.02092690029928959, 0.019618466040602855, 0.01634870056819657, 0.010714459710689172, 0.00196677374005505, -0.00800068558442695, -0.014747305832227916, -0.014302644253987442, -0.005514138756998461, 0.010544868684512463, 0.03568466658523976, 0.06196768078551652, 0.0662578529768614, 0.04320974747451839, 0.015303474773929453, -0.00010439795349181607, -0.002183933538380027, 0.0018327223660342072, 0.0066058822068159094, 0.011316971180539346, 0.015910303573301896, 0.020108223821548008, 0.021845224071273636, 0.02187276817309532, 0.02179430624890033, 0.021721791333013916, 0.021829378829926693, 0.021506389600443793, 0.021078124951782174, 0.019741760578460877, 0.015796912294168384, 0.009028432518844654, -0.0008526616216044547, -0.01029419915072662, -0.014483697839387247, -0.009221015161283218, 0.0036114771734820283, 0.020649308315741043, 0.049271502869989665, 0.0742561116375484, 0.06973246436748506, 0.03837296091485636, 0.008485182712377554, -0.001483658223424457, 0.0005266088139667918, 0.005673722949548845, 0.009608913716520664, 0.012312697991629972, 0.015973151321179598, 0.02007287884559172, 0.02184080595259181, 0.021919687689186527, 0.021797408406490037, 0.021842075701212688, 0.021869789410469666, 0.021842202507377412, 0.02137158049417496, 0.01989965352199046, 0.014965435678536528, 0.007115768329950158, -0.0029789070254287488, -0.010578291228926706, -0.012088456091447625, -0.0042536927323898336, 0.009094174368026666, 0.02635202825431237, 0.058663752006714955, 0.0770442479097432, 0.06471526638406097, 0.027185898580327796, 0.0014669699423619559, -0.0015402374629864875, 0.003940090313196449, 0.008668688929951164, 0.011121790077261953, 0.013186422613674927, 0.016049736157850224, 0.0200699944270249, 0.021963365546233845, 0.021842540956622858, 0.02185195277150585, 0.021882877995985147, 0.02181597693274158, 0.021692457609798314, 0.021459431169543183, 0.019670740327113374, 0.014087118010354255, 0.005739724576114977, -0.0028336420172777577, -0.008612810225230793, -0.0075335834155895245, -1.4342655769519054e-05, 0.011119773084624938, 0.029640494995630817, 0.06254245775514108, 0.07317121151314793, 0.05451528945524121, 0.013814905061045548, -0.0039081935598970505, -0.0010882078221585657, 0.005904182557506531, 0.010415265294748939, 0.011906910049602551, 0.013693895428182798, 0.016325392369495664, 0.020094388792774732, 0.021808010294083857, 0.021978929536785385, 0.021883821317315283, 0.021785856747324018, 0.021858265660575135, 0.021903883009541124, 0.021532276594683084, 0.01968473031802973, 0.01365069779680768, 0.006401037561483337, 7.205477077840192e-05, -0.0031051547679375215, -0.0008649881693104037, 0.005266714203394555, 0.015082838135785042, 0.03665722676309514, 0.06462851953001703, 0.0683646034674137, 0.04100716817648335, 0.003042793842971913, -0.006813948692835024, 4.5619195648809326e-05, 0.007741684608293873, 0.011860238741784898, 0.013528169492980921, 0.015122920712236452, 0.0175254547412186, 0.02047525268758723, 0.022043519049810428, 0.02199148442759998, 0.021807599249152175, 0.02184113386589802, 0.021781306766162974, 0.02191458898997853, 0.02174953945072684, 0.02023940139108641, 0.014400001124563244, 0.00906417202004568, 0.005646064431660353, 0.005572290194453425, 0.009140915464672862, 0.014797866021211277, 0.026600681042112488, 0.04763676010616612, 0.06688280433992111, 0.06120694447966885, 0.02719263896881388, -0.002492175723233195, -0.005466228761311012, 0.003597186055557517, 0.011297324536612552, 0.014939289816045408, 0.016618917276176218, 0.01762450144027417, 0.019320475464842897, 0.021431548479977885, 0.02228927556050288, 0.021933867236931942, 0.02174942135480975, 0.021872290373870146, 0.021730859336264556, 0.02196297415028839, 0.022090814823254413, 0.020697350959365406, 0.01638442948207518, 0.012845868653274237, 0.012024103846478808, 0.01490416498447337, 0.02064716295976619, 0.02951208423688348, 0.04263016505190209, 0.058490545593186755, 0.06687756968986532, 0.050831678745897925, 0.01816624941772296, -0.0016610355798763504, -7.93653700000019e-05, 0.00925139062086126, 0.016495780743218013, 0.019281404987040555, 0.020148169243353168, 0.020594901635880444, 0.02164162842347331, 0.022359258177637203, 0.022603881248489263, 0.022029138753597806, 0.021787308620071045, 0.021891993063096634, 0.021845014624523616, 0.021816483128830735, 0.022577164988845076, 0.021954486390041796, 0.018579314154245418, 0.01628938776506632, 0.016753346531535932, 0.021459169804054063, 0.030154113048263834, 0.0422382526654392, 0.05431895801509521, 0.06234493117422412, 0.06045344504989647, 0.04006816961625334, 0.015274554865560933, 0.004059153178436647, 0.007748714598993813, 0.01565164486102678, 0.020887885835594637, 0.022636790641285744, 0.023164227253932534, 0.022925286917828063, 0.023270025449999655, 0.023092174210996335, 0.022519632234008706, 0.021820583515523746, 0.021986237940847364, 0.021774228294305014, 0.021778924844960062, 0.021973292094311432, 0.02283617284933981, 0.023078017210049196, 0.020716959326973424, 0.01888333129918655, 0.019650806384520624, 0.025391098708074634, 0.03584859988133946, 0.0486374161852583, 0.057624436996675236, 0.05805089002457862, 0.05019614388263079, 0.03203773914345351, 0.016485393414620908, 0.0110822226347571, 0.01354375496763671, 0.019367927914789508, 0.02295458929286215, 0.024468707116185054, 0.024693957784276275, 0.02440542743099989, 0.023920970294984245, 0.023317761208117228, 0.022470630470111743, 0.02201530458505234, 0.021894701385990357, 0.021831957203090526, 0.02176195127586934, 0.021906771077710132, 0.023087341684909165, 0.023871784917431933, 0.022758012830148975, 0.021628382778105675, 0.022406688375380634, 0.027373115853526805, 0.03678463680021789, 0.047133459225456587, 0.05164560272369313, 0.04789868925944826, 0.03913548011506103, 0.027370527972823477, 0.018913493000606962, 0.015200351902636532, 0.016004993086054783, 0.02027127876390203, 0.0229663725042653, 0.024216881089986708, 0.024752720016679757, 0.02424169440785056, 0.023754241756287427, 0.02316493245301779, 0.0220817773353527, 0.02184677045294004, 0.021871952409384214, 0.021907962591050285, 0.021879382210678464, 0.02191055946939022, 0.02285844539949304, 0.02384123574494147, 0.02430355697807793, 0.024307925588361427, 0.02480683404542017, 0.028358812543693126, 0.03444021025845083, 0.039994148602971104, 0.039642126792447545, 0.03490112543278751, 0.02901730491693497, 0.02378365335086417, 0.019274312820342202, 0.01604617613562516, 0.01588111281781619, 0.01841831715995434, 0.021159473903333812, 0.022770444766108, 0.02361029154826275, 0.023618737517968075, 0.0231892720786483, 0.022567357728237068, 0.02209677471299173, 0.021978792213604027, 0.02195268821323133, 0.021855172839334237, 0.021743520609429846, 0.021957036994200704, 0.022328749496487475, 0.023136926146423622, 0.02409035004346835, 0.025165308448114102, 0.0264593597156587, 0.02907185832402381, 0.03148330111467062, 0.03155343782948207, 0.027155688309772094, 0.02235421687293567, 0.01960197841128899, 0.018914950787916694, 0.017289303532419975, 0.015251623434966086, 0.014712684312976362, 0.01701083022240098, 0.019151120301241595, 0.021197580787905217, 0.022406237012993963, 0.02266804112879049, 0.022307501382908244, 0.022214743898384483, 0.021818594674642044, 0.021881341072040626, 0.021896950866518147, 0.021939723312765242, 0.021894555689528826, 0.02197209384031122, 0.022016374816062226, 0.022345815260912706, 0.02305901332692735, 0.023905389708080874, 0.02505080099403719, 0.026523846299151627, 0.02731946454048119, 0.02448757698804161, 0.01927675924299947, 0.01501938162262626, 0.015027348132071969, 0.016728925767462505, 0.016578124097294474, 0.014958274253733469, 0.014277266439610296, 0.01595863828549311, 0.01803847521308855, 0.0195713779016311, 0.021040935862612516, 0.021725173555338494, 0.021980215802665234, 0.021803307371679785, 0.02183616019820228, 0.021740116780845427, 0.02183649720971776, 0.02178760506884068, 0.02187736499111074, 0.02172638860519938, 0.021755068846884315, 0.021971350850119656, 0.021905866666944128, 0.021782192820587274, 0.02101629251134274, 0.019511438741246202, 0.017541261374734524, 0.014086652513226891, 0.010674720305081537, 0.00857391358474499, 0.009180182949203647, 0.011023145561115938, 0.012235521848912473, 0.013210571219325552, 0.01418035855461051, 0.016200202097937863, 0.017936577360248902, 0.019467748005113507, 0.020619580185557682, 0.021439241821217897, 0.021633172867832777, 0.02176762000861406, 0.021924421537648717, 0.0218142820156089, 0.02182585240319584, 0.021881659245657402, 0.021851918755514118, 0.02172499067263801, 0.02188448293775803, 0.021746777126152434, 0.021566266478782764, 0.020784273864794003, 0.019525346472513288, 0.01737853121401918, 0.014652026115699868, 0.011948393530994155, 0.010108718198899394, 0.00945947907842266, 0.009957221351161685, 0.011830297692360452, 0.013717621922150234, 0.015034399648173385, 0.016472640936572525, 0.018025908038366813, 0.019347931015483256, 0.02046854867032394, 0.021230076064396388, 0.021596532760511933, 0.021670094080162735, 0.021835312088193858, 0.021912364207966786, 0.021913238625140264, 0.021747209130530708, 0.021802430060615312, 0.02175342558443639, 0.021929978107780662, 0.021826079859558947, 0.021822916177350632, 0.021802454069262147, 0.021406695215876438, 0.020833233915541892, 0.01978706010348252, 0.018817571700927436, 0.017680872464467746, 0.016869048080269775, 0.016665938155402644, 0.016927053853138023, 0.017556355520502654, 0.018517301218117968, 0.019289925304386044, 0.020019176389935323, 0.02057149752940643, 0.021083667132203388, 0.021430412859063042, 0.02162868662233401, 0.02176136664611373, 0.021734213608019186, 0.021771748999306922, 0.02181823468035768, 0.021809916067247522, 0.021929413531499027, 0.02176638344961667, 0.02182866563480856, 0.021752508989753117, 0.021875899935029506, 0.021733301041602388, 0.021800379255817178, 0.021929599373663865, 0.02184443342968068, 0.021614737537223594, 0.021602099618770066, 0.02164776107919121, 0.021427483054292616, 0.02124365180644167, 0.021236495000397027, 0.02125236255204952, 0.02136386805633234, 0.021408254631329726, 0.021545670633502975, 0.02179218709902117, 0.021678636431495715, 0.021766050306562906, 0.02177344593843868, 0.02183876661268489, 0.021726214836221853, 0.021933795961572824, 0.02179986175209357, 0.02183722946519928, 0.021810978147668542], [0.011411564623291253, 0.011174867620353723, 0.01129818692999634, 0.011264528894041533, 0.011419252581608271, 0.01121641542529246, 0.011251126901435536, 0.01120711246873386, 0.01116603963603671, 0.011269802328154643, 0.011234438234218892, 0.011222372416268408, 0.011283805654691371, 0.011256466480656048, 0.011210278536042619, 0.011271996304089257, 0.01134777121695483, 0.011380145821406574, 0.011310060596340288, 0.01125944224124247, 0.011261300298318134, 0.011200840353044706, 0.01125254646567365, 0.011370457853970178, 0.01139047454887008, 0.011359624464888451, 0.01138039429857367, 0.011397075098353774, 0.011346062204816635, 0.01126615636530347, 0.011208314501006072, 0.011340483992982332, 0.011365562010582229, 0.011318761996542099, 0.011384770182396156, 0.011303679178378398, 0.011324381169842848, 0.01125637540569365, 0.011477795807510703, 0.011522195771336436, 0.011395928642288642, 0.011478716412062988, 0.011170957780404134, 0.011234488878417069, 0.01140780349645229, 0.011498520201826661, 0.011518383487600809, 0.011502409155013726, 0.011446738372157426, 0.011361645407232914, 0.011392878128260522, 0.011227612117308473, 0.011235848716082313, 0.01126301285453842, 0.01130607935498384, 0.011274128046523483, 0.011376412247696475, 0.011335844705713248, 0.011279155373902701, 0.01120592080546853, 0.011401409487386651, 0.011168929536750976, 0.011285837028143496, 0.011073101462313911, 0.011003801473959351, 0.010913818040200666, 0.010861407788434576, 0.010604876067056642, 0.010474574343537019, 0.010434821903595784, 0.010751913216334034, 0.011138137997449608, 0.012399934516964332, 0.014200926435986763, 0.015019998586802256, 0.014813179169194996, 0.013619171515697099, 0.012779625626761921, 0.01198538557689224, 0.01156519887475677, 0.011418820358909077, 0.011402559971435258, 0.011347974278407552, 0.011168644091677232, 0.011306657897445825, 0.011250724746120147, 0.01127271124346337, 0.011267898865590958, 0.011254580493399162, 0.011054840430592062, 0.010885399116912556, 0.010646121000057183, 0.009508323359887367, 0.0077979567368564005, 0.005896210651857833, 0.003428260903648333, 0.0006575253916814768, -0.002397500982841617, -0.0021014153273448554, 7.191589028736667e-05, 0.005067749639868561, 0.010942095576069354, 0.016054704500101456, 0.01709295884810251, 0.015389864507333558, 0.013936677692712313, 0.012868125110819436, 0.012426601754626131, 0.011851457505525548, 0.011478684360685873, 0.011255912611682307, 0.011336646596067724, 0.011168345126592297, 0.011213961942979696, 0.011167326530402014, 0.011362665113720269, 0.010996016403223768, 0.010286383201620073, 0.00903264248856811, 0.006857871390185325, 0.0024645258193550347, -0.004357640889568474, -0.01398459975236926, -0.026007568216162423, -0.041636260827104546, -0.05566840186265375, -0.05752507986834622, -0.04626161112082222, -0.031398196065709476, -0.019021088605710442, -0.010879523172055575, -0.008314430412702422, -0.003873148907549179, 0.004215220090780063, 0.010330683266429136, 0.012923954278600614, 0.012610380515321599, 0.011653856468622947, 0.011271621125108584, 0.011278622116458576, 0.011356964364444019, 0.011177498178858216, 0.01131485953805744, 0.011174454714563013, 0.010080322851152705, 0.007835604709579643, 0.003974638357319692, -0.002072945847791305, -0.011448211051121999, -0.02323310807920707, -0.03788371905913889, -0.05664213730227958, -0.08005139510809813, -0.10250413570999063, -0.10818824164969712, -0.09420565847552552, -0.0720870754379466, -0.054554316580822444, -0.04320882236688287, -0.034349963422594255, -0.022289076850958954, -0.004735508183338065, 0.008360897522572434, 0.013837599708801303, 0.013484096477708913, 0.012090762444360829, 0.011307464053469286, 0.011335096692838349, 0.011301147148704482, 0.011400566428191122, 0.011301750852920624, 0.010596889621162122, 0.008771422657932883, 0.005832498811672979, 0.0009263456351754048, -0.007154533979532545, -0.015402825050981292, -0.02201062985614624, -0.02878136459702958, -0.03905260477118963, -0.05053190544699566, -0.0640869019182702, -0.06554516787143101, -0.05038374776150459, -0.031689385791427216, -0.021950748792568597, -0.022710509910783643, -0.0206382164626233, -0.010964603526630654, 0.004875672886683876, 0.015892688940966963, 0.016850083992104675, 0.013694570779749992, 0.011464908301650378, 0.011144072997358114, 0.01128830492623759, 0.011326520461236727, 0.01132549614510074, 0.011643336326146338, 0.011194381634697518, 0.00903991162980077, 0.007669200886676921, 0.005319898131230692, 0.003773510406375562, 0.008297221044138173, 0.017863727559753673, 0.027633061213626946, 0.037138335025746504, 0.04052945717159449, 0.034708440482583196, 0.03226894141124374, 0.03880358525712505, 0.047678691143292616, 0.044812107607640636, 0.03687536561328197, 0.029473143441646414, 0.028494074946456775, 0.030466824222097476, 0.029580466566852693, 0.023256517925811862, 0.014455797250602287, 0.01128311940412653, 0.010973974450791636, 0.011409169048006236, 0.011390536081447859, 0.01138948513084661, 0.01235095215198125, 0.012560264375552502, 0.011765569022696125, 0.013716360368238591, 0.017283459619302506, 0.029643615061888846, 0.05065086645523624, 0.07548300829945792, 0.10249857237371983, 0.1275561279656224, 0.13400415694562193, 0.11266818740142076, 0.08151364957537219, 0.06586563422183692, 0.07253653622150993, 0.07424695591544567, 0.07317711240071904, 0.0701042432859063, 0.0683650764686613, 0.0602145322908755, 0.047364283937919305, 0.03138021250773055, 0.016267320666412365, 0.010891447984270494, 0.010855659621441333, 0.011224500869552819, 0.011385868076832747, 0.01155523727025534, 0.012941164552943432, 0.014053160956573751, 0.015328121458642924, 0.02068414389804839, 0.032470008946877224, 0.056832437637716865, 0.09042378522842728, 0.1268701653448893, 0.16094242331281347, 0.18533381071267008, 0.17688277749348902, 0.1219062523244845, 0.04852085531628317, 0.013656097921338055, 0.03386143004578427, 0.06381327835070198, 0.079350765955871, 0.08693293596844363, 0.08900733771896147, 0.08258561057564089, 0.06455014635261154, 0.04034027074610457, 0.018454497941504538, 0.010819699831543385, 0.010903955294230694, 0.011368589219489777, 0.011194074601454794, 0.011454874757100988, 0.01282154001518893, 0.014274297994671455, 0.017461767529884032, 0.027196061574901488, 0.0476778660699455, 0.08013965670792976, 0.11998740714857452, 0.1585001854915392, 0.18654819793321287, 0.19474913837353316, 0.15697083542777623, 0.06434430275459947, -0.04363796596556121, -0.07685186878953788, -0.016397378869122178, 0.046273647963675134, 0.07500753146818526, 0.08730352452544535, 0.09523436329630085, 0.09386213639850405, 0.07768432152537602, 0.04943853828508659, 0.021595203843836817, 0.01089738162047747, 0.01092775575214678, 0.01115024030276271, 0.011426703997399375, 0.011614369454600834, 0.012549969009961689, 0.014040217208735743, 0.018076981386175018, 0.03294741503900859, 0.06180943638247865, 0.10190133185821078, 0.1440421917277116, 0.1755206657291834, 0.1864432363894796, 0.16556568432794694, 0.09725487641264602, -0.022669250326476063, -0.14547015254847462, -0.1497692657875943, -0.04020679829578058, 0.044678252488399496, 0.07339496014427632, 0.08101790214487252, 0.09301456677727937, 0.09899775635134493, 0.08768270807070214, 0.05879296565924919, 0.024810949064004613, 0.01073738992183125, 0.01112155591147752, 0.011154452459913698, 0.011380771253162971, 0.011332733788971925, 0.011991594703697655, 0.013499984060187297, 0.01892042756441714, 0.03999738373310054, 0.07648681172962607, 0.12132466514504708, 0.1588695859541697, 0.17812268985069935, 0.16609016435312296, 0.11708949550885557, 0.032532376938198194, -0.10438378630370396, -0.21796242386334103, -0.1720800213436122, -0.030353144953327537, 0.05735330331901694, 0.07226142148367123, 0.0740894692957662, 0.0887409992658689, 0.1012033903408306, 0.0937939506158598, 0.06593512957311656, 0.02915617331296044, 0.011217785789489615, 0.011230090814462293, 0.011162313003792425, 0.01133133781393112, 0.011348537142964826, 0.011774899379818037, 0.012941554062550698, 0.020213997176633646, 0.04939128422422754, 0.09115436302614607, 0.13643627045533602, 0.16665707392076165, 0.17371333202033207, 0.14330935727116054, 0.07772405337350363, -0.01324708745863927, -0.1593409079656831, -0.23177377817027173, -0.147599942512189, 0.005702023585446136, 0.07519186666976904, 0.06930306065148722, 0.06951366474049116, 0.08869624857583376, 0.10377355279545354, 0.09548405441958124, 0.06864106675365735, 0.03216461584830999, 0.011520236043974386, 0.010945703833284658, 0.011130295828666344, 0.011222722607220641, 0.011424131999121595, 0.011369627389991359, 0.012338405812403141, 0.021731941286115466, 0.05784938310817626, 0.10228394005366528, 0.1436203553641055, 0.16669386545687817, 0.16289543283114244, 0.12543126598478338, 0.06324515716898656, -0.026694195830588716, -0.16668611669606406, -0.2006503740245862, -0.09916637375569438, 0.05303720610852808, 0.09313547279710042, 0.07186428739894653, 0.07108999979126294, 0.09060047636356945, 0.10181072263695141, 0.09280232259311372, 0.06699112916254411, 0.03195176547480091, 0.0114976028469685, 0.010828367856677144, 0.011408982173881371, 0.01132781831408431, 0.011225146787990406, 0.011317164166734638, 0.01149160111043373, 0.021964589578472984, 0.061345395645792715, 0.10170739043281184, 0.13465392645948596, 0.15020155329006346, 0.1428030919781869, 0.1105573818431156, 0.054799835447139136, -0.034911532806722344, -0.15290854930931408, -0.1603031869071661, -0.042077479579914964, 0.08913417906716029, 0.1026246671818296, 0.07482927233034443, 0.07043087639451451, 0.08432438103859348, 0.09086160336504981, 0.08067768608936221, 0.05758805613031377, 0.027622060206204307, 0.01065843984034258, 0.010674265148584893, 0.011177662011103272, 0.011357297493560974, 0.01135754579414417, 0.01077295979499205, 0.009611949713732639, 0.01948719181416147, 0.05601097004820054, 0.08796003673363402, 0.10946018187048026, 0.11661561890790668, 0.10589416487297616, 0.07810644813041183, 0.025444571615312626, -0.05578568712361629, -0.14133508945732506, -0.12162983606162864, 0.0037604948066927214, 0.09841385278056117, 0.09573190346777741, 0.06865815223462544, 0.06153829765090659, 0.06691010864325377, 0.06796766309039445, 0.05899014337472051, 0.040723554938736785, 0.01971917901388546, 0.009243321177697043, 0.01055915778625323, 0.011315192294349227, 0.011353373307033761, 0.0112753694046875, 0.010792260637931407, 0.0066831438157127715, 0.01345222670890907, 0.04273768149518599, 0.06491388529876113, 0.07744174051716944, 0.07748871179851928, 0.06289360856247911, 0.02953920846333183, -0.01867092040668433, -0.08120443294613842, -0.12631406900374373, -0.0791505507410015, 0.028619956022334993, 0.08943241472707407, 0.07956689437337658, 0.05613914184013628, 0.043346264844817746, 0.04238501853212265, 0.0402726253712573, 0.0337671654491941, 0.022327269271778423, 0.011477304673192494, 0.007820435911527278, 0.010588948081365908, 0.011313458843810971, 0.011352681033748431, 0.011364468705254678, 0.010313083972411667, 0.0030713615991933042, 0.004470782084708297, 0.023007588162459222, 0.040378226248642034, 0.04890527367182642, 0.04355665423448803, 0.02272783744852689, -0.011822067204361571, -0.05130294508426998, -0.08522006096555138, -0.08886836281805488, -0.034500515343725294, 0.041321113031735954, 0.07606085695224572, 0.06595171595576038, 0.04027878756258704, 0.02370907722245034, 0.017443335799880066, 0.01487290733388511, 0.0113383917312561, 0.007088216887498664, 0.005511068249652721, 0.007922033367086521, 0.010967221725577146, 0.011063274716963395, 0.011408839996599073, 0.011176345330360726, 0.009797813650963886, 0.00033897386819685177, -0.004581863936320359, 0.004114509481198131, 0.015377425236125878, 0.020109200370868927, 0.01162147739702526, -0.0075111227506442545, -0.030685759455736657, -0.05115943896827113, -0.05041262039251823, -0.03152571033866557, 0.011389997942049791, 0.051521781160993915, 0.06774078615035371, 0.05547538980621228, 0.02879111449115611, 0.007670159529705766, 0.000520771448233756, -0.0019708342065518974, -0.0030191926358878757, -0.0009097193294265137, 0.003947107430729821, 0.00862135273490265, 0.010827523689521359, 0.011320408089752524, 0.011400170111219033, 0.011313900987842993, 0.009703385440460215, -0.0008118722464055047, -0.01119174842894104, -0.011371355290268148, -0.008790271642157366, -0.009593882034705698, -0.018956505350900498, -0.028664521246603618, -0.03231466387983715, -0.02212823517532804, 0.0046756737084688565, 0.02806829009028325, 0.04362138807973669, 0.05580935160332806, 0.056972226478525394, 0.043256851522849346, 0.01642965636648834, -0.0001374764630590144, -0.006043097822527488, -0.007108159663370668, -0.005176090168106987, 4.462532765103027e-05, 0.006085802840626016, 0.009808380078055361, 0.01109016932087175, 0.011168159904996668, 0.011322550416776975, 0.011261693666310253, 0.009796519761495948, 0.0016837556068389858, -0.010484218040333311, -0.019307782969635978, -0.02715828583968927, -0.03389428930322513, -0.04129479860639286, -0.039714556444175965, -0.02443152171012423, 0.009318555506310184, 0.04391495142932418, 0.054462542452414574, 0.04644565135088352, 0.03982781697067019, 0.03500434647142163, 0.025691772807028477, 0.011162984670678012, 0.0009971749989673038, -0.002874639765066789, -0.0035321767332277335, -0.0003150917119264178, 0.004019501926117651, 0.008760917494509142, 0.010492221304406095, 0.011333905072133823, 0.011185433835932224, 0.011285001949345686, 0.011256011423431396, 0.010386974781814343, 0.005747033089347745, -0.004001525334733006, -0.016754709464185686, -0.02933020891643801, -0.04050904548522036, -0.04710538574972119, -0.04240041297757578, -0.020123928250842055, 0.015341275122009342, 0.04363654401769667, 0.04507653666598715, 0.023796326387388846, 0.010191724653701727, 0.009026701841150777, 0.012379727982305936, 0.010526309366835714, 0.007105427485633906, 0.00374869212335323, 0.004278648192111687, 0.0060637598302639905, 0.008036452921381014, 0.010200981810437987, 0.010994711767166342, 0.011383739838833484, 0.011333754711840203, 0.011401877790134731, 0.011267564357338512, 0.010846069119239384, 0.009193562766804688, 0.004251469541284815, -0.004461077034890905, -0.014493946525229546, -0.022914255911149466, -0.028451642827868703, -0.024127333993019633, -0.005702036381493975, 0.017586917859250217, 0.030995205801717628, 0.02476138912673548, 0.007041345454384096, -0.0014827316494494412, 0.006025736569447775, 0.017018775568030723, 0.020204607867499107, 0.017167853618777363, 0.01361388832705824, 0.011293902491269183, 0.010904126327516053, 0.01124097683912537, 0.011223028129052416, 0.011029671516022369, 0.011167073374218546, 0.011356376660983688, 0.011269189302498062, 0.011305718770300151, 0.011219012765096948, 0.010828964718275809, 0.010455955439871037, 0.008372127279781915, 0.0071841053993153235, 0.0092303083655001, 0.012284235590481626, 0.019513230477144455, 0.031949653155041585, 0.04166225652085569, 0.04785152863532084, 0.04602919563367059, 0.038147278270397496, 0.03615498849689827, 0.03632880382375489, 0.03553922201043612, 0.03070802528129589, 0.02471364602745723, 0.019315876728796186, 0.015041313126889356, 0.012760536487971758, 0.012033161086946612, 0.011286096639103477, 0.01107708292379049, 0.011323446748943308, 0.011219642105069401, 0.011332873019686692, 0.011378500817685289, 0.011170753998048554, 0.011320333093990716, 0.011769838842960765, 0.01299740202719276, 0.016384194295719124, 0.022929470962283382, 0.03262525603088467, 0.044015838255490825, 0.05479994961654585, 0.06094890655178694, 0.06333050845859173, 0.06162499149069548, 0.05580133233211673, 0.049759922055462175, 0.04150983652880223, 0.033178956258870934, 0.026358828026232003, 0.020694284727396314, 0.01661353021431094, 0.014144756949238902, 0.012457497317075229, 0.011719647340376973, 0.011243415175985953, 0.01138569272902575, 0.011242971745648764, 0.01120826561806215, 0.011171981536186941, 0.01134784273490823, 0.011344881083320763, 0.011388811754782027, 0.011596453335098456, 0.012038027420749105, 0.013554911459155685, 0.01630633374563165, 0.02052418857028258, 0.024490365430758415, 0.028538123500142558, 0.03155463807580356, 0.03305410167524415, 0.03284283728986846, 0.030102703604783305, 0.025924824936755478, 0.02235773863071404, 0.01912377689320764, 0.016655026765988745, 0.014635859539706869, 0.012968604258627933, 0.012136084202548055, 0.011513517534948729, 0.01135422746150261, 0.0113336233287749, 0.011289436119683964, 0.011182453183504705, 0.011377215263416172, 0.01141580074724161, 0.011285413724939434, 0.011386178325190828, 0.011175868236521795, 0.01141081014073123, 0.011476342863157945, 0.011437229816885294, 0.011571607286664561, 0.011752878897108283, 0.011886628827663916, 0.01226042493920292, 0.012495858894304525, 0.012706769884204761, 0.013079704955173285, 0.013211109029651539, 0.012934043935525084, 0.01270524234758816, 0.012264932306322342, 0.012145637004362676, 0.011637116046369593, 0.011491976627335875, 0.011364431743675045, 0.011260671001319812, 0.011184955167849155, 0.011416293220847666, 0.011248265370320787, 0.011257031565258173, 0.011274124126431554], [0.030426189144481273, 0.030381761838912322, 0.030554352058426243, 0.030588069391063136, 0.030372567417797994, 0.030558351188960706, 0.0304281549773604, 0.03035723740892625, 0.030373877431049703, 0.030372761943351534, 0.030542072948215537, 0.03057363579951875, 0.03054660408485503, 0.030467074263565888, 0.030285948172669004, 0.030426550560820054, 0.030475896217809988, 0.0304683362275008, 0.030511021010739152, 0.03050879644512486, 0.030450790685653935, 0.03038353931817893, 0.030487174660998546, 0.030545177993407516, 0.03058120666868714, 0.030571628454470735, 0.030585267310282972, 0.030553343137298253, 0.030523359620272875, 0.030469717906910554, 0.03034588584083219, 0.030496029120822242, 0.03052825486437863, 0.03046161205015327, 0.030617876438011664, 0.030648032384751715, 0.030235818227774318, 0.030330546312746613, 0.031172654234023843, 0.03178936998014705, 0.031743030767786465, 0.03231879826737535, 0.03304589260124913, 0.03275986306542559, 0.029708510603024166, 0.03147094686282416, 0.03201423654765159, 0.031388608991483144, 0.03125604634696689, 0.03079503603242517, 0.03072629533753058, 0.030502725898230297, 0.030410908241839396, 0.03058861620707482, 0.030582025831381927, 0.03044632383180844, 0.0305607388142925, 0.03055179914771544, 0.030571245796610844, 0.030429111591999913, 0.03059992451868999, 0.03054152187278268, 0.030636122823795083, 0.03051945300398142, 0.027743175972845337, 0.02484241288350909, 0.02706781907365539, 0.03005724871471662, 0.03552468098995527, 0.043559036800505956, 0.055391553954147674, 0.07217584007059973, 0.07539906634426018, 0.07352926960329859, 0.06638188079752576, 0.05877669991409433, 0.04734447032292591, 0.03711936721812232, 0.03363234518998104, 0.031075488948906757, 0.029407368432998966, 0.029981568654094008, 0.03036969851738485, 0.030417312946203257, 0.030534059580306645, 0.030536848081941834, 0.03054340144936388, 0.030675886446066142, 0.03119726960432699, 0.030990499465104397, 0.02851129370726404, 0.020612699286462272, 0.00469555035226205, -0.01559619620661823, -0.02196510625313981, -0.016246440199501867, 0.015124360903363396, 0.04343400943014507, 0.09783689582643335, 0.13337766789261082, 0.13279410946797574, 0.14175998525775327, 0.13739001755053207, 0.10491988946243877, 0.08125303169387219, 0.06479894943083243, 0.057391514441761535, 0.039360714862495934, 0.0321170117646861, 0.030878159400991305, 0.030853163990453555, 0.030528581967115012, 0.03049679802754754, 0.03044340265641937, 0.03051989635787574, 0.03068799049930456, 0.032971753685728265, 0.034762876269677875, 0.030061960300169662, 0.014069691058078572, -0.008385452706834133, -0.01246447317170982, 0.027597614753624263, 0.051891741929043826, 0.06500529813535835, 0.07063134637617957, 0.10580664516883002, 0.15469599616830026, 0.18375094151229185, 0.16522614590332052, 0.1690926665498771, 0.1258702308908869, 0.08544423030728016, 0.11268103860653765, 0.10665115639639265, 0.0960195151821715, 0.070604328165945, 0.04231676455835467, 0.03199857098152036, 0.030371480160659603, 0.030497436593700397, 0.030375146650769368, 0.030592180816256073, 0.030928934646672752, 0.03481790290312074, 0.03718878587028987, 0.02219223741683995, 0.006781529791838687, -0.0015539415777803538, 0.028189895972999878, 0.09567089920572246, 0.1504690368226101, 0.1306265240309373, 0.07690371490951466, 0.013292555587878264, -0.015585996453929989, -0.04896470731809106, -0.08554881830356198, -0.044028962102234226, 0.008590015254347102, 0.07587174447249663, 0.10650873977093786, 0.17188475043715845, 0.20044669007879098, 0.16040932419434092, 0.08305590848678071, 0.04653016399843689, 0.030816451696521488, 0.030427316349060915, 0.030382549018435817, 0.0297326929277605, 0.027279793972968737, 0.03279288670885389, 0.028770641170478065, -0.00010423482465794632, -0.043138771774047444, -0.019675471513431048, 0.03247292888342652, 0.11120351571552971, 0.2075447080245941, 0.25585022128121576, 0.30950421342421663, 0.3475390803652038, 0.2890009239724296, 0.1904507577707087, 0.10287863574259176, 0.08613225100938973, 0.0600379752795007, 0.07341380545171375, 0.07331536975322728, 0.16171046810590892, 0.2856170371556772, 0.29961327077928546, 0.1719778997912557, 0.06944457467056518, 0.033667273300859, 0.030431717714930626, 0.03051875420975289, 0.0250344588343389, 0.015652994192762438, 0.010512378488342713, -0.026324097439529424, -0.09856193707438322, -0.13146423070336694, -0.11620845881180247, -0.09215922832085514, 0.011641691957913173, 0.14649335757634305, 0.29463702900777033, 0.40121724345967447, 0.5297279767064922, 0.5012132088030565, 0.35563507762366786, 0.1857912175883744, 0.03738924042558601, 0.009316388510122908, 0.02476504267676329, 0.03721506586729887, 0.11039281151763691, 0.3003155985047477, 0.3917691165526724, 0.2563965115221531, 0.08087200645042641, 0.034082589645512334, 0.030177544593663723, 0.02667771009333003, 0.012927088138327315, -0.012240798753477684, -0.035454577192014815, -0.09478624295450414, -0.1767378131765512, -0.23300262606294045, -0.1842368659582319, -0.17806968310223187, -0.08961198697312965, 0.04205295891054537, 0.12722312074962158, 0.16868938753294582, 0.1931411453521289, 0.14469361310986809, -0.010598574337297583, -0.15684904646901265, -0.2368583461348019, -0.25538866241414204, -0.1867505700050133, -0.10548745519919334, -0.020959715103224155, 0.19298698426313124, 0.38429506323764545, 0.27449383202964633, 0.08255748579521009, 0.03353002992608459, 0.030309817894713487, 0.02481032294052572, 0.005394602516415572, -0.027831899066313136, -0.07272456238273678, -0.14147994703852523, -0.1799234486040353, -0.18707155962345165, -0.152250245236965, -0.13140721866554597, -0.06186705631996731, 0.040295762765198896, -0.009832765618113344, -0.06749849509441264, -0.09484605589266926, -0.20555103054208504, -0.4745072614719229, -0.6231128804593877, -0.6542815378724889, -0.6277092994336227, -0.49973552318665165, -0.40144814036594895, -0.28286361931862514, -0.05136104655330616, 0.2151714154396602, 0.2070855081581291, 0.06568334485047182, 0.031490817181108195, 0.030259243177306987, 0.0236162731231845, 0.0011352840625070998, -0.026966444306512495, -0.07644207151873106, -0.14015032897308988, -0.1618392126682723, -0.11437726766493057, -0.02780023656565392, -0.0037268173899267657, 0.08930463996724539, 0.11910240856322983, 0.020430846331631593, 0.009498698475578668, 0.01805627949145975, -0.1832509566976666, -0.5228253473473419, -0.7443154830189106, -0.8327619728189143, -0.8159782091992605, -0.7521118164727365, -0.691465630320964, -0.5709011230733053, -0.3091228791747884, 0.001896509397411944, 0.11449552244066862, 0.05021603487834129, 0.030692445433522224, 0.03023831404078898, 0.021926036303026034, -0.0009869331856555458, -0.02357479245685619, -0.05763700575367994, -0.08786590227408661, -0.09848574857888326, -0.04273871073131174, 0.06872112762777971, 0.14295755913111888, 0.2005646650344015, 0.1815253268119639, 0.17641031825261833, 0.2845365998395701, 0.3758912391912473, 0.17796564868525863, -0.16601146224120392, -0.4077525396134201, -0.5115176948498743, -0.647196151474297, -0.7226839720017737, -0.7485859011792495, -0.6758978104848443, -0.4408091906544303, -0.1336744858939959, 0.0449590593376949, 0.037435399222855985, 0.030784108693952386, 0.030332858507417085, 0.023803392730728293, 0.005955049826510859, -0.015878778304136438, -0.03220816282837633, -0.056121286537557366, -0.06740164816685605, -0.0041325792791506435, 0.1291009924035423, 0.2328045795889805, 0.2736328471631234, 0.26704332697674893, 0.3245660899629823, 0.5133721512251366, 0.687843646583015, 0.43001222873065553, 0.08662628765162551, -0.023590262635316876, -0.05559491856014944, -0.2429271464077755, -0.43084937378320554, -0.5730360184399936, -0.6088379701908978, -0.4623984061976989, -0.19284333054335945, 0.009302483252973266, 0.027126582898444798, 0.029779676599607147, 0.03050206739455219, 0.027125651214572735, 0.01579328661534402, 0.0012977015994038862, -0.014353461425712243, -0.06535852037346072, -0.13491049097341296, -0.07465957812516019, 0.12433989688753892, 0.2669961861219261, 0.29657306790374655, 0.2977970606479672, 0.38945779141474574, 0.5610154137041099, 0.6401605442631626, 0.32770202186947417, 0.119380673033085, 0.1403328835772413, 0.2067375081039949, 0.07121904241805571, -0.16152344285100034, -0.37057252000097374, -0.4878135795197398, -0.42337293266703113, -0.19198908716122365, -0.006640204558178749, 0.019968136779361215, 0.027912057670337324, 0.030556566805756552, 0.029480153763421398, 0.02426687821570991, 0.01481893045153085, -0.022030187932766874, -0.16665113126102948, -0.30968410524622547, -0.30290634637433544, -0.06792675374650338, 0.17786845249750496, 0.24401983207667272, 0.2601590710001313, 0.3554605189261011, 0.43659686082979904, 0.3975321943219223, 0.137646710687064, 0.03723665599563959, 0.07306092426919182, 0.11345372926538654, 0.044003305390987194, -0.04897731720697129, -0.21666851019309435, -0.35423504092142527, -0.35163965006464104, -0.15505369439275987, -0.009965024982582643, 0.019062813176010548, 0.02993813575721773, 0.030413436522187663, 0.03130624919118709, 0.031759374228782125, 0.024625522587726458, -0.04013060423549439, -0.28150045758184433, -0.4958708339161235, -0.5665894191071265, -0.40189299736005385, -0.1573679412810163, -0.008616236574815264, 0.09784709937566596, 0.18244537594269916, 0.21235770934252762, 0.08890307970941627, -0.08703080961389137, -0.05485273751578512, -0.028905159858294154, -0.024593980762948445, -0.012084027684090351, -0.0029666152508365526, -0.08699783826272339, -0.18437927389571507, -0.21875978625487016, -0.11762783572272413, -0.01835886951222225, 0.012583014958024165, 0.027892316545359848, 0.030470684786379897, 0.031159287294724926, 0.03977519422184263, 0.04582589256065274, -0.03174713283308058, -0.3108446345559031, -0.5620335766363342, -0.6915230376133594, -0.7329540922964142, -0.6473404486601002, -0.5058190881365959, -0.33854847162459467, -0.24132174201252726, -0.17330175522429467, -0.19994236863056997, -0.2548977528457197, -0.14458825047713728, -0.09717540974547573, -0.041239764516585516, 0.009974973536642734, 0.060395240980012754, 0.033880278789135264, -0.0277252762356991, -0.10208936990353493, -0.09185834557243779, -0.0398821799772108, 0.005668899946871084, 0.026640874596030345, 0.030583270367699193, 0.031037390449221443, 0.04186245724499851, 0.0709206302237859, 0.012381158349772579, -0.20914616185225562, -0.36784857749221994, -0.5738441062270233, -0.7795365910685288, -0.9403581671067937, -0.9220513428286542, -0.8101336292469601, -0.6486533188781617, -0.510455004562486, -0.41583163335954554, -0.31055462278452445, -0.13593731579866566, -0.03005281806639159, 0.028106598044696382, 0.09720429254999341, 0.13967025828784274, 0.15639216348824836, 0.05044443860215526, -0.03032861708941326, -0.08930719435352823, -0.05913559847825021, 0.00889967394350621, 0.028374222805073256, 0.030334523846746092, 0.030880921104643563, 0.045516094071226046, 0.10601837322795626, 0.08582348721806576, -0.04714018795091685, -0.06838282108259264, -0.2650592347488433, -0.5440598679608863, -0.8124871121241938, -0.9298967427141824, -0.8409449015207302, -0.6943966649292447, -0.556133083068489, -0.3576679246141285, -0.21470735114165038, -0.03863983306209628, 0.07894514356375991, 0.11227051599130923, 0.15670193505171104, 0.22460450247656505, 0.19998950305996857, 0.07707562223501473, -0.041367943241242135, -0.09411709585812243, -0.048045737598419354, 0.017763330901912212, 0.028884437430498823, 0.030363860734126266, 0.029145497793993065, 0.050205104370268656, 0.12202405564464928, 0.13088332949180934, 0.1023252886554623, 0.1704403448809484, 0.08467148548531622, -0.08666598139192513, -0.35980864713703, -0.5073691605410431, -0.47373405276744335, -0.3969970640286677, -0.25182938716919856, -0.14503690566395755, -0.04864147698741369, 0.07880315586238337, 0.14045711929319563, 0.1848796455058135, 0.2129548254233658, 0.24329699831478985, 0.17668723896219038, 0.055631309285850396, -0.049794393562611686, -0.08236880410611566, -0.037760243918809826, 0.017454290360645892, 0.029436619475910933, 0.03036265639841817, 0.02943215270612788, 0.04497867820331368, 0.11107173801637982, 0.12244687579291734, 0.14044542008776773, 0.23751957966835383, 0.28996900550048205, 0.2951477639602669, 0.17297699480724618, 0.03258029518078715, 0.022929531526139572, 0.007430280962957155, 0.0802499586068631, 0.07269328033834148, 0.06532074397861017, 0.13375731542413136, 0.20363600431671003, 0.22170204753476808, 0.2218501412092368, 0.20354641519654157, 0.10128514259044197, 0.019607421740594242, -0.057496956272859105, -0.07307945109559019, -0.013806825784838826, 0.02191400517170277, 0.030618018895426743, 0.030517803477341336, 0.03074600018234727, 0.03985312807986705, 0.08015659497080709, 0.1024583748576767, 0.10608861593360683, 0.16261745225851376, 0.25283409754123637, 0.36674877139295603, 0.35518113342544266, 0.29847945442449253, 0.2065988497034394, 0.19119156013543023, 0.18681919160564273, 0.1366653505370237, 0.10571558738870991, 0.14794140682418666, 0.21489294456892638, 0.20896423623754076, 0.19338503444794422, 0.15707686226018444, 0.08229895321244936, -0.00899865947760796, -0.05208006112531496, -0.039161536559619445, 0.004653396158666732, 0.026022183184184117, 0.03056594823844786, 0.030503134229246304, 0.030459348217054864, 0.03718922674761321, 0.06027432197969715, 0.09539257363723447, 0.0734891969365806, 0.03143268483881949, 0.05480263978009158, 0.1452874176610784, 0.24476236742230295, 0.21723824325412158, 0.11458325637217447, 0.04473574286950744, 0.01142084666782384, -0.018100022695806843, -0.015386259035846207, 0.10065496929661273, 0.1786855865987582, 0.19537113764692438, 0.16655544756285456, 0.1188546347903951, 0.03772239914213162, -0.012402855590326861, -0.010971285806371722, 0.00046398477935062914, 0.022531859430292508, 0.030548925135687188, 0.030421885962973953, 0.030521185580374394, 0.030562566279442746, 0.03407183632597006, 0.04895668688620683, 0.08302209368107268, 0.09628431821120366, 0.07580167415314332, 0.04143898626607697, 0.061410677639702475, 0.08295033940250524, 0.07246609968484524, -0.013706781123302118, -0.07846008254226489, -0.11420427346553316, -0.15726209424261453, -0.11756122586727266, 0.017379940533273155, 0.08411913564261471, 0.09625077481630091, 0.09657284228669796, 0.07262788397438141, 0.030876238627386622, 0.009555015571274772, 0.019175998975350172, 0.025853971379272526, 0.029093314435286323, 0.03148436458586759, 0.030520704768389653, 0.03038879293346195, 0.030535514522235394, 0.03290802855825267, 0.03866760710030556, 0.04843824565603427, 0.0686803532812984, 0.08919218012242747, 0.10793155627054579, 0.09926084703716972, 0.1089842904734835, 0.09560574905201812, 0.041741565039555964, 0.00673998121864341, -0.049895711305247975, -0.12394738557696029, -0.13703303184937274, -0.07303851303480786, 0.02069951409894148, 0.051300654664548, 0.06451231920790737, 0.07315810949001081, 0.06046518894174679, 0.04305003011349215, 0.03899191022637692, 0.031051592962305988, 0.028143064742833575, 0.030236659744408943, 0.03045408627987794, 0.030496653633023937, 0.03039972309705142, 0.030832668569118038, 0.03139169571709985, 0.03067527435406641, 0.03589105418322496, 0.04430816781726428, 0.057776835821279515, 0.08342579181221295, 0.11653611518186203, 0.1501860027745893, 0.15501523538031725, 0.16260459638919625, 0.10092815759099336, 0.015927760411892648, -0.012566055301043936, 0.03587943214802609, 0.08314866303123594, 0.09546802690312742, 0.09375575191018518, 0.08800086316617528, 0.07269528579171042, 0.05179607949419058, 0.03866951936516777, 0.033186633318882636, 0.03047933766181464, 0.030165607504445018, 0.030388366808561773, 0.030437608398938075, 0.030481184972635918, 0.03051849154623216, 0.030458255987834623, 0.03165471276702395, 0.03193351399275319, 0.030407430360335108, 0.022206942808860743, 0.015785489831584867, 0.01733255577168095, 0.012377327399489211, 0.0160727197151488, 0.017155418776694943, -0.003133468928006507, -0.01510217806624409, -0.01869256819341462, 0.002226568158334365, 0.02272836140793903, 0.03423325720382305, 0.0476970059701742, 0.054743311225312306, 0.04275076018284638, 0.032677148698582584, 0.030789209111847876, 0.030518647468287356, 0.030480773950998553, 0.030507321176079752, 0.030547162159173732, 0.030433947224488826, 0.03036249283524254, 0.03052511719092999, 0.03058171347794566, 0.030470412681929133, 0.03007380974181257, 0.029578553950484417, 0.02890326756528336, 0.02739402343933283, 0.026442826027930015, 0.023683227544357525, 0.022669173900566802, 0.020402851279800974, 0.013604769441127968, 0.013360638760639493, 0.011515165311603924, 0.009439588868154204, 0.010995027768083598, 0.01628389770953501, 0.02398333094512535, 0.029786473380825795, 0.03017197744311985, 0.029993318965578858, 0.03029637208697028, 0.030565845268534245, 0.03056082590390198, 0.03037974120300986, 0.030460072344478013], [-0.04645884391619914, -0.046484912233637245, -0.0466199005701998, -0.04660265938879719, -0.04661106884331353, -0.04647681283071858, -0.046469316919316904, -0.04657929129536697, -0.04652548333839609, -0.04658229978583215, -0.046442011013370595, -0.0465570386198056, -0.04606789050758336, -0.04480013078215534, -0.04606826053484641, -0.04653147374803835, -0.04647769211172816, -0.04663710803623292, -0.04661274503117787, -0.04660877883290287, -0.046520437365262825, -0.046600824758822955, -0.04659733987697132, -0.0465129809548177, -0.0466071476317037, -0.04652108714938769, -0.04666660849209817, -0.04651154639603824, -0.046666204079954095, -0.04662582670713789, -0.046674581225246016, -0.046613178089342296, -0.04655601079913623, -0.046402557962530754, -0.04238197904358799, -0.03808310301335539, -0.03793445703121396, -0.036958470921648105, -0.030181729294527265, -0.02694250943449356, -0.023610184466732475, -0.030251394072952503, -0.034786808424828584, -0.033896440812337086, -0.0334651960868788, -0.03579692192667379, -0.03842636257517687, -0.039859397981366174, -0.04196453924310353, -0.04301029917560475, -0.044048149296535936, -0.045770732289948206, -0.046639111478346006, -0.04661122513680014, -0.046517962090764385, -0.04663784227662104, -0.04665254090595108, -0.04654973069317871, -0.046480040818825834, -0.04650317041744, -0.04571464773608371, -0.04608442180336977, -0.037629068759349196, -0.02041466270773638, -0.008816932898994111, 0.0082325245012116, 0.040352781713987866, 0.06322408111265183, 0.09481697107273532, 0.10555577755516447, 0.11349208436621525, 0.1166394928099075, 0.11028075130666139, 0.08625791897574522, 0.06612336457737099, 0.039394507170250115, 0.017971475312256905, -0.002693227133180065, -0.019358914879643526, -0.0361486461255608, -0.04268703291560149, -0.04606791919563897, -0.046627600177818536, -0.04648691832297654, -0.04658339154428106, -0.04659826948969701, -0.04641638824078214, -0.045565114567851894, -0.0445509778078245, -0.03743976687537219, -0.021856458937899118, 0.007695575124053818, 0.0433263112771026, 0.09783653768962389, 0.14892549905758218, 0.19696355093051313, 0.25021346349060825, 0.29288871628078356, 0.31556213341307926, 0.31118602318715494, 0.28316195472297995, 0.26597043295162537, 0.2402343518517262, 0.18489259079817622, 0.1337702875349205, 0.07469876351988336, 0.034779571464159866, -0.005589838757609038, -0.02722011327018199, -0.045029726148479624, -0.046281013268951766, -0.04643035960588817, -0.04666420364882457, -0.04653954252421145, -0.046551126768352526, -0.04621224797809017, -0.04295605284172205, -0.02440144403044742, 0.004792911620269832, 0.04991388080985759, 0.12063602656275113, 0.20962186677756303, 0.3018222056898395, 0.3419113650004785, 0.40373604889754133, 0.42468786874266834, 0.4276758576517264, 0.3444215969081347, 0.3127252580374867, 0.2701615548138904, 0.24927854043572373, 0.18267117268933095, 0.10910585045011263, 0.03943571404265246, -0.026846458298685764, -0.06283291327000406, -0.06043947847279115, -0.04933883688906813, -0.046070580350249545, -0.045848583385685864, -0.04648978604319239, -0.04647349596959214, -0.045807219432709254, -0.044628837589697865, -0.0335788591850116, -0.010330169441141531, 0.02684307794838702, 0.08385493325620545, 0.1543957770937651, 0.22863802154086432, 0.300294143016164, 0.3552995648622186, 0.4225278308153072, 0.4161274532257365, 0.4195533579443077, 0.37605101258258467, 0.31224125947332043, 0.2253147388616563, 0.15655664651912785, 0.11510702143752473, 0.014638808942093627, -0.09685174648251126, -0.17663941556907833, -0.17856600549773968, -0.10699120912193934, -0.05835480362731508, -0.04140358772672826, -0.04558876731444738, -0.04652385566788867, -0.046459004281487894, -0.046980017776068875, -0.04165060971469891, -0.02442463286993802, -0.009635313495781207, 0.014190723103381495, 0.04491612232335353, 0.10677591070780765, 0.15179656632990637, 0.1581655414352855, 0.21093307126329597, 0.3122600662056169, 0.3736501336944517, 0.4651741369995172, 0.45445653099665856, 0.25215523606720264, 0.01208744307229392, -0.10450292958079128, -0.15153228014815026, -0.19404448702077598, -0.30063064023758845, -0.3473719387762716, -0.2764442885456876, -0.1311778750304469, -0.059219620326293305, -0.04495719237613652, -0.04509073295601366, -0.04670145076179135, -0.045988339420670286, -0.049003725126387176, -0.049251800953442865, -0.02452212299139964, -0.03487599058674498, -0.043828236321241686, -0.033873391115854974, -0.004611319796790956, -0.05447943765224226, -0.07302328274758978, 0.01602016304783216, 0.15836199981576238, 0.30786904329315673, 0.47036962554768513, 0.4165615607305786, 0.05970791797893591, -0.30187169909672446, -0.4789920157027389, -0.4775506506264811, -0.40069056178348095, -0.3892341420182329, -0.38948489755467275, -0.2815007774188333, -0.09391056038501405, -0.04073722225761231, -0.04070697217330656, -0.045940492685794164, -0.04704307885867986, -0.04837318198832104, -0.06217774456363733, -0.06856321909153995, -0.043694289656843764, -0.057192475832681486, -0.06289418929530921, -0.0927623717961176, -0.08993259413347143, -0.12843597394464198, -0.12823605697397616, -0.06726542999609857, 0.032417274815413386, 0.14764656043383265, 0.2318469485989933, 0.11528661436407864, -0.27420547415298974, -0.6003411914878685, -0.6881349089731159, -0.6246138313701781, -0.526872890405818, -0.40087493045740225, -0.3396950266420559, -0.24202799829481653, -0.05756123513234977, -0.01832563601594803, -0.028902442585485962, -0.04350232950321103, -0.04687141367723941, -0.05054417750066848, -0.06821415825762898, -0.07782380354222086, -0.05657515480180021, -0.06732778865156325, -0.02365715789848566, -0.010094955431654527, -0.030588131680070626, -0.09308410283725094, -0.12407551490068225, -0.17289735762340425, -0.22012713587417987, -0.154553385115883, 0.03584031253339367, -0.09758878076881498, -0.5144682157560834, -0.7636520813210183, -0.7519859071428114, -0.6544428944765779, -0.5216251010618478, -0.3848248073576519, -0.282175036889272, -0.16033865116910356, -0.023984316976497857, -0.011421036168900308, -0.03254896870489164, -0.0466965750597754, -0.0469051430698131, -0.050838628062807145, -0.07017164778323987, -0.07285565147230688, -0.06401637148272293, -0.05847646237767657, -0.0072741546768961855, 0.028899570238788256, 0.010107366009438188, -0.11359174525473055, -0.19076393099634034, -0.35169598650996153, -0.37939641526206036, -0.1003959365218117, 0.1905621319493283, -0.007082826495894957, -0.4507225532654481, -0.6611141982071271, -0.5525114663213183, -0.4697332710219607, -0.40953004387777886, -0.2988370715334424, -0.22838303509483548, -0.10515523784263107, -0.009248079405564547, -0.011867634947298885, -0.0399838908689102, -0.046454811167417294, -0.04689003874609247, -0.05212939628015083, -0.06650559876659747, -0.07167867339350664, -0.06300216536359896, -0.049665393035869525, -0.054087881952754144, -0.03980105243946698, -0.05907108675930492, -0.16154721934145305, -0.36590446952577643, -0.4919502073963908, -0.23549614227511118, 0.2728677907927915, 0.6262198537904651, 0.34979870980194067, -0.15673609609958475, -0.31206170621288953, -0.1713352036213367, -0.14737071525578385, -0.19812368434131442, -0.1833707033307695, -0.1536192517089794, -0.08389216769844024, -0.0010200517628231444, -0.010752000731277194, -0.039718209988763735, -0.046265530133669915, -0.046669292299383845, -0.05042599498755975, -0.06161662908152685, -0.07108359945485763, -0.08003522514817062, -0.11110095712115793, -0.14740116152918753, -0.15222666133844412, -0.15963178681461435, -0.2426039857555667, -0.5029226484254145, -0.43259203370945626, 0.04749888939922891, 0.6635255671924264, 1.0342292985977317, 0.6685603507829021, 0.13194129677291022, 0.009394198894959745, 0.11144525912788089, 0.07006890078669394, -0.028633914123416832, -0.07557585811640809, -0.1479669183789324, -0.12666638390976662, -0.03901610504505918, -0.02634961053360983, -0.045011339314808455, -0.04661317091922499, -0.04663342822702287, -0.048405249097172136, -0.05477259807749258, -0.06037999800860034, -0.10886452192832582, -0.20786296433230958, -0.27097036058200774, -0.2870646673979784, -0.22599466990073416, -0.3505764742236675, -0.550813842726204, -0.2502586566325113, 0.34188720158949, 0.9529507520977388, 1.1905110012525317, 0.7734573926408417, 0.24214323677320085, 0.11438969285690694, 0.198397674481632, 0.09135848890641814, -0.04579194460541539, -0.1049894941971446, -0.17678734459301146, -0.15183582130082388, -0.06397963244840928, -0.03507138770158037, -0.04517114277057741, -0.04541034511073549, -0.046593546772230106, -0.04675069338802005, -0.04958632708277937, -0.05232183124777198, -0.14057496320865728, -0.3162518457976071, -0.4041082865852625, -0.4048407997141444, -0.33631973562772194, -0.37463782673423573, -0.38466152961953265, -0.004561034697400909, 0.4669696957448658, 0.9946396448979192, 1.1184542078574442, 0.6128627824873644, 0.12674964517010595, -0.030071167862443647, -0.0469371506560104, -0.19204636432631225, -0.20114006344599558, -0.16294080333188754, -0.20592759940776886, -0.20335144414871636, -0.09204552221526266, -0.03437120969667087, -0.0442354081460696, -0.04632498429029682, -0.046684820434358544, -0.045393099519269724, -0.045857957478581964, -0.04806981957419951, -0.14488354802055364, -0.3513804196633255, -0.4456311202918873, -0.4544953454886831, -0.3986294793606475, -0.33135930862823915, -0.20111264635770093, 0.1300489684203973, 0.5097645306847113, 0.9535858572295798, 0.8713405504962567, 0.3020399136186423, -0.1409717681250355, -0.3121912687848274, -0.36036432352961534, -0.3575476039568641, -0.21545678071439223, -0.11605693801355442, -0.16394390005515713, -0.16530120004997662, -0.07333439280115427, -0.021968338454318236, -0.04797671121140651, -0.04648295892208452, -0.04664028401216721, -0.04538746860362689, -0.039179287809837926, -0.023774818081240216, -0.10718589999245733, -0.3267699932831051, -0.4283349199067987, -0.44683088241970315, -0.4202203878012148, -0.2503678899354283, -0.04805370223888004, 0.2521705974910916, 0.49549393153672994, 0.6570385639988945, 0.3835891647878525, -0.12326196369965488, -0.34011290648067577, -0.39991288254132157, -0.3532242878407438, -0.19213777587845768, -0.053897349348014656, -0.0007858109895023655, -0.032298662806114216, -0.04405655839774946, -0.029682835811591653, -0.008432216886404312, -0.040511220488030374, -0.04614491289895272, -0.04651711953001888, -0.04635232538680325, -0.037170852594686395, 0.008570633023843017, -0.06006229648173797, -0.24009500413301588, -0.3094252995332498, -0.2916692904042668, -0.24570726175159582, -0.12179872089047945, 0.09973250083296077, 0.31408393089246467, 0.41399104731627656, 0.27338752761077456, -0.01879513346899748, -0.2561201569355487, -0.23773733854807094, -0.14619070128610964, -0.017620179697033767, 0.17973528213813655, 0.224592659159738, 0.19291098831384923, 0.12766913885768114, 0.07762701284601672, 0.007517199539958562, -0.01096016924431405, -0.04306731962445869, -0.047014154901227366, -0.04672426881462819, -0.04660816875783851, -0.03802849290264649, 0.038593346046470745, 0.015076950625901706, -0.09745388839946448, -0.1012235571060315, -0.03538337447464536, 0.04310403015005967, 0.157448349066926, 0.36307614722499076, 0.4920016401486556, 0.3965473084619091, 0.08857855387086229, -0.11855108072552974, -0.050483541234385844, 0.1532647486085918, 0.30787729275076475, 0.4350957460479395, 0.44119541398698175, 0.3939333544921518, 0.3257263815549891, 0.24744837475680873, 0.1456100633887178, 0.03194535620910496, -0.01611884384952024, -0.04598481228049703, -0.04659898544524509, -0.0465986988855911, -0.0479127181479316, -0.03322306848142103, 0.04893688449907964, 0.06747827809062194, 0.029104154256281246, 0.049953775624351694, 0.16968362822201433, 0.29103827238204605, 0.4044223245054269, 0.5120329534016335, 0.5315812132618084, 0.36522213011142834, 0.1433897983746193, 0.08106603177683877, 0.28440312888386027, 0.48240159837663416, 0.5696422119983694, 0.584014659413545, 0.5220116017106311, 0.45539261924648716, 0.36200413342142435, 0.2542228701289489, 0.12114993297920099, 0.011157994552893307, -0.03445003870075178, -0.04714380908475085, -0.046652624268641814, -0.046667927425651186, -0.047538426216310777, -0.030581529515830454, 0.05444888620309616, 0.10478725621185643, 0.09778069198210555, 0.15178678143638466, 0.2747606533210985, 0.36462157083473823, 0.413547335103922, 0.4029482757236158, 0.3625724023138153, 0.2874094279309021, 0.28579899114863394, 0.37588899259174197, 0.48391608849613227, 0.5752951719851076, 0.559785913093738, 0.5705401040106122, 0.4730032127166972, 0.3903775457892913, 0.26813812542445886, 0.16698770273146304, 0.07304091799885709, -0.010800715749174135, -0.04160292897093101, -0.04673304203034363, -0.046441260497681665, -0.04642259270732265, -0.04595004352165686, -0.031384485921583175, 0.03586521843119446, 0.0896553765307772, 0.13705322756533214, 0.1930994640376821, 0.2508107957806675, 0.2632669227629909, 0.22143867338058532, 0.14959712149700552, 0.09073308082859512, 0.18776353515388408, 0.3370262309416536, 0.39246836333972196, 0.35723305221163365, 0.3717369536198741, 0.3900111434031155, 0.3806956558836882, 0.31685491783828734, 0.23804365596467905, 0.15237271894455134, 0.088164563311801, 0.01781914579513962, -0.029770412291109914, -0.04359367842129377, -0.04742985557110803, -0.046624412488576884, -0.04652649790535147, -0.04645178100499781, -0.034593325994634716, 0.00905267694955562, 0.07657417613669516, 0.11246024229698393, 0.1478788348304561, 0.13160857100947715, 0.042343796899465644, -0.031301899206036564, -0.11121422541931632, -0.18791539970369772, -0.14978103349881677, -0.08202793381005712, -0.04555448623908943, -0.05506976129391435, 0.03834012880829291, 0.11889604868284338, 0.17192682760124847, 0.15543151561285484, 0.1364391089904876, 0.06797660321049144, 0.018332206966924957, -0.017685549131550453, -0.040418181566666586, -0.04499583840844479, -0.047085945900696397, -0.046621296941142316, -0.046433367425494525, -0.04659411200380221, -0.04001399003374233, -0.019752289611548745, 0.018372723253535103, 0.04881891840761204, 0.06635641764743522, 0.01461646382240645, -0.037125539853335617, -0.14798662533522253, -0.2685261318181826, -0.3053733247309535, -0.2552895138057476, -0.18948066439761685, -0.21827588701905853, -0.16132769012490533, -0.04619087356141166, 0.01372095971534151, 0.08543430663847702, 0.09907407982236253, 0.05876757808234363, 0.01615868728927314, -0.013620521516873532, -0.027125588692716966, -0.042016419844927794, -0.045356538075784956, -0.04629417454762274, -0.046423928886877956, -0.046567796097941615, -0.04656810209908139, -0.04293985256086981, -0.0415515162296463, -0.04492544329257261, -0.05748397622738126, -0.05981709607713574, -0.077920544871055, -0.09351257736818089, -0.11092043279285561, -0.11279760551281016, -0.09186952718517853, -0.07428135179984402, -0.079900778872486, -0.08561868755733516, -0.05359250053447942, 0.014019630086941145, 0.04589533763986752, 0.07915122404013307, 0.06582625122164357, 0.03461495604081387, 0.0027920058497235656, -0.023283558116238577, -0.03172080752650818, -0.03855688775017611, -0.04452170707483682, -0.04637772439725394, -0.04643040687282198, -0.046625942847761455, -0.046485115663567646, -0.0460713037140402, -0.048717734245552834, -0.06214756808927018, -0.08287174648046826, -0.11076795089977884, -0.14889963763074276, -0.16993341278925558, -0.167826751023381, -0.12669765394287774, -0.10057053105412174, -0.06372006542944741, -0.0810011637613332, -0.07804732071366947, -0.054920452557212666, 0.029533053718312507, 0.09092869255340022, 0.10527869919736531, 0.08622015898573983, 0.04988332048881968, 0.0040375816474866695, -0.030172912091301563, -0.04154623635577433, -0.04427634379529754, -0.04617529308338204, -0.04623638996541216, -0.04646519668865088, -0.04657272481164299, -0.046597997830807834, -0.046576983554219846, -0.04653353612770595, -0.049868151574610324, -0.05559810200203948, -0.0662830579071693, -0.07547868485973541, -0.07977275574229044, -0.07307284399368304, -0.06524666726144979, -0.056785160087828225, -0.052184077470988285, -0.06858595157143435, -0.07139158294533539, -0.06789127293762018, -0.031181025255929768, -0.007958822818005497, 6.844654429270604e-05, 2.3264960861271143e-06, -0.006257115132639265, -0.028572813685772514, -0.04307863356139928, -0.04570238703491551, -0.04630580865809656, -0.046493880873672906, -0.04665745199456139, -0.04659632681418179, -0.04665694702536, -0.04664983886660742, -0.04655101577270806, -0.04651250497649403, -0.046711804316210075, -0.047003667661418266, -0.04728605462457496, -0.04767898748649801, -0.048000803411176254, -0.04840284140159963, -0.05192234545703762, -0.05133978008763686, -0.05278096235552764, -0.05773430062850119, -0.057036569402379826, -0.05838651651865387, -0.05939962198038136, -0.05822197043092934, -0.05464652790174284, -0.04902826447033035, -0.04537614808419083, -0.04581570333963616, -0.04672259151876803, -0.04664743486206028, -0.046463770596057004, -0.04653946704119973, -0.04658980302059625, -0.04646957303782651], [0.02502251627139467, 0.02506096719299847, 0.025017749534224653, 0.02506768106750602, 0.024889536251320735, 0.024848949577956064, 0.02499460658813923, 0.024968949496898336, 0.02482327982733445, 0.024973442216014243, 0.0250452956007824, 0.024816865991582223, 0.024967955740192792, 0.02483108942729622, 0.02501317708275329, 0.02482843797163361, 0.024864790672588944, 0.02495422983754027, 0.02496110315728672, 0.024945588579004276, 0.02484529008223099, 0.024936966520047375, 0.02483704738180732, 0.02482811293181059, 0.024876277873726874, 0.024837718416192995, 0.024873240511132422, 0.024817245225108867, 0.025046722476691454, 0.02490513343478711, 0.024903500103165905, 0.025022740041058197, 0.024965350453444387, 0.024855298822678996, 0.02499119518053661, 0.025051551298827565, 0.024956685989550337, 0.024914402100366814, 0.024886074444022632, 0.0249403720846175, 0.024884476261124503, 0.024909209041765155, 0.02501770273598676, 0.024912246425037678, 0.024906741844054166, 0.02501156292087732, 0.024902368092658625, 0.02505100239718934, 0.02494183749508481, 0.02499369264943487, 0.025067416796780234, 0.02503415045197187, 0.02489564500097863, 0.025034234328477834, 0.02503800837724293, 0.02488372495178078, 0.025041842277417636, 0.02497947718790552, 0.024919347916958854, 0.024845292870160723, 0.02484590122501122, 0.024860050473553625, 0.02484849727494505, 0.02494794060673346, 0.024948113106241544, 0.024913994659349917, 0.024965408787934584, 0.02489431512489733, 0.024911812037088307, 0.024895069609231938, 0.025217178381680742, 0.025369824557879346, 0.02523953999563064, 0.025234811185949522, 0.0252629628385348, 0.0250829546937767, 0.025017497364427852, 0.025058544354933675, 0.02492312268072914, 0.02492854065025134, 0.024897138070849038, 0.025016374256585875, 0.025026847099406915, 0.024946714258751442, 0.024820676775155457, 0.024978326959972933, 0.024953348756845926, 0.02495537162211758, 0.024946041294702757, 0.02496075689864351, 0.02482070126252266, 0.02488086931281579, 0.024734410109369782, 0.024362700310216798, 0.024110072669904316, 0.023565547249483978, 0.023051647247340986, 0.022824712227303142, 0.02286819894184116, 0.022898981081082802, 0.023231670799355637, 0.02366767165348626, 0.02422334774585647, 0.024429126348350184, 0.024562460668320213, 0.02474720245184061, 0.024996576799321803, 0.024978209929041813, 0.024881918170559025, 0.025032878524526677, 0.024962099691669123, 0.025023856076049036, 0.024992079390762038, 0.02502415590152636, 0.02489086774898548, 0.024853576098941205, 0.02497395592992335, 0.024780344514629148, 0.024641314206819153, 0.02421593391934718, 0.023558103072968337, 0.022259118042607693, 0.02049513147508436, 0.01810282204332066, 0.015426749541467392, 0.012889165046542186, 0.010998309337233635, 0.00930256758894002, 0.008879381296785631, 0.011402234344399605, 0.015068758232365, 0.018617731129952665, 0.021268665179332538, 0.023161327180391354, 0.02409119858319472, 0.024750027199529314, 0.024696843111100025, 0.025022822499134668, 0.02491812615764035, 0.0250249206247895, 0.024868818058268554, 0.024986961897508344, 0.024855384985177066, 0.024851805808690522, 0.024872084684357167, 0.024642761539410318, 0.024118212522797652, 0.023177317848766307, 0.021316506854862628, 0.018538601344882815, 0.014361573394472525, 0.008804809019388234, 0.0029789138644247815, -0.002340023238829018, -0.0067999684377713565, -0.010202340896683463, -0.011340045593619176, -0.008024924860439157, -0.0014563079882207173, 0.006084579738620172, 0.012532596500401939, 0.01761882987960139, 0.021458538425337646, 0.02379703787772603, 0.024417082637995902, 0.024605405933560177, 0.024983333650595383, 0.024926423666243595, 0.024985210577392596, 0.02482944878374437, 0.02491654983260061, 0.024970337930185656, 0.024773368857647655, 0.02460492855436575, 0.02393977509782661, 0.02258380685345658, 0.019851982340522316, 0.015417989513943532, 0.008838275345272333, 0.001938471555499221, -0.003270131505671225, -0.006293974340071883, -0.0069876912914571985, -0.008356512155158367, -0.009388421885849681, -0.009338839250881591, -0.007552467187061198, -0.003493009378988103, 0.002313106135582377, 0.009405325398795775, 0.01602257404108792, 0.021019297984617415, 0.023520424965628936, 0.02415552074564028, 0.024798942195717016, 0.024996157614939264, 0.024818163536730633, 0.024964125351435804, 0.02506410530463345, 0.025317251741775296, 0.02539151528981886, 0.025674162917732828, 0.025530693852984124, 0.02455780571255819, 0.021788144038160664, 0.01696493297881543, 0.011802533964234405, 0.0073536284747302205, 0.00549861156088806, 0.007586115628475871, 0.011065899500854098, 0.013166623506684164, 0.012357335703518678, 0.00783095994176483, 0.0022048938960661083, -0.0015823489792770422, -0.0013314036764380203, 0.00361252782184229, 0.010811542289604268, 0.01764363827954023, 0.022232024782014397, 0.02370494752622953, 0.024701779221007285, 0.024992198202850948, 0.025070749080639103, 0.02512638020054793, 0.02524435868491975, 0.025734627472019322, 0.026701244584184682, 0.02775585223890162, 0.02831697593717343, 0.02763554222303692, 0.025367570156440974, 0.02241105478844092, 0.018573659939738134, 0.016388733436117645, 0.016755544700385556, 0.021059702341785922, 0.027267239240723266, 0.03230377693056566, 0.032578350862810655, 0.02700180441097835, 0.01666187148290089, 0.0049732738025177105, -0.002013887443597454, -0.0004379266526550037, 0.0059631440998184175, 0.014417305007858913, 0.020937279459821188, 0.023605965957345182, 0.024685053421316768, 0.024890936613026823, 0.024917551230979072, 0.024991305392608524, 0.025566807873263774, 0.026287796592319473, 0.02773662442888699, 0.029352894357871636, 0.029895046097062776, 0.028861660509053075, 0.026676922768307753, 0.02401948546968727, 0.021207961363277916, 0.018216254416878058, 0.01815335369197094, 0.022852134363504053, 0.033460332409398864, 0.0427283485538469, 0.04447631269548416, 0.039315546369206485, 0.028073217133052716, 0.011938537157216376, -0.0002448503376623562, -0.003466058385371594, 0.001375219985053569, 0.011416641562776277, 0.020261736960734827, 0.024147180608735722, 0.02473353251109924, 0.02493892570125544, 0.024960435488569993, 0.02507012650361518, 0.025447448041656037, 0.026591925248227576, 0.028107473909423936, 0.029260142174219864, 0.028249307146023216, 0.02630090734594551, 0.023618741854432083, 0.02030033211307411, 0.016859814748516777, 0.011556084583965995, 0.010713239974011263, 0.019629674962024075, 0.035823358192649084, 0.04855025033590287, 0.050729852045770935, 0.04717701816021552, 0.03704115970993519, 0.020119972103277557, 0.0028157886083303393, -0.005343042729945253, -0.003045091107143954, 0.007821390396722845, 0.019713480093488507, 0.024467929787343152, 0.024799573304781067, 0.024998789473710963, 0.02499997833636756, 0.025085794231443158, 0.0254691156878758, 0.026225546997277048, 0.02756532779913885, 0.027075145424099455, 0.02431806172169478, 0.02089656258836005, 0.018096518562117588, 0.01441539483330913, 0.0092179320775247, 0.003831254611829795, 0.005699207458196713, 0.020126641299879146, 0.04246586688739023, 0.054439566020351625, 0.054811340701904285, 0.05265306900687527, 0.04449201636497383, 0.02633268026817334, 0.005480710226716833, -0.006599030472460077, -0.006006608678770746, 0.005000081450758756, 0.018815079873417368, 0.024675683897899144, 0.024865944870525885, 0.02489043482603389, 0.024999416296782796, 0.02505111230444907, 0.025192983035701867, 0.025793259892396246, 0.02670985223529629, 0.024405042952265695, 0.019339058493041395, 0.015071378601504362, 0.012196919178153348, 0.009231159286428823, 0.0039690173106873275, 0.001341498963515152, 0.006757334904143672, 0.027827302829460367, 0.051808780645632456, 0.06043777746487636, 0.05988600521821085, 0.057061563484160166, 0.04837331871540577, 0.028782394003097025, 0.005489685024914193, -0.00803306055714461, -0.00769726129375939, 0.00322021238893464, 0.017811749060924493, 0.024679480970464334, 0.024866949209936654, 0.02502333264362598, 0.02502167530191428, 0.02507104743335339, 0.025081179563854986, 0.02550694093534686, 0.025629938873525417, 0.020892270369422487, 0.013971658451343372, 0.009328916179240485, 0.007626048672880455, 0.00626987690883039, 0.004582685222457194, 0.005910420018601626, 0.015842804396425256, 0.042019425299486234, 0.06177297786316375, 0.0673788449327483, 0.06374242831562028, 0.05948765344243675, 0.04873764337585286, 0.026803944819507042, 0.0035943894418965, -0.008815903831288573, -0.007320551379066269, 0.003091989308500857, 0.01719247479699578, 0.024628635817080986, 0.02480868265750584, 0.024970180733376382, 0.024954290804117863, 0.024883638961277113, 0.024975876008556303, 0.025393498003312608, 0.024417775588760637, 0.01644042179211351, 0.008319495631715386, 0.003546575010835735, 0.004140370232464709, 0.006938954457929426, 0.010774440221544177, 0.01720761704776527, 0.03140554110275791, 0.05684812294297334, 0.07051579645541886, 0.07302185901513145, 0.0651481158523636, 0.05916302277572691, 0.043977356007275745, 0.02065964408334674, 6.908176612111072e-05, -0.008871106499462612, -0.005662673125974516, 0.004414361343408422, 0.01752991344255715, 0.0246747537363207, 0.02498482142505898, 0.02488162315860323, 0.024993455417049396, 0.025018825008263076, 0.024960048110698525, 0.02526600345996055, 0.022729540431282082, 0.011519933637648982, 0.0023076165606567348, -0.002175456309467398, 0.0008228212462693602, 0.009126394907852789, 0.018725045800693917, 0.029460477261079764, 0.04591128893695522, 0.06670053161376113, 0.07635242984069564, 0.07499634442740175, 0.06435065462668187, 0.05418797378416174, 0.03420798774414054, 0.010877646761502768, -0.004274068196212549, -0.008547786470015622, -0.003286326734352922, 0.006563889964200328, 0.01840990150031667, 0.024533415610325595, 0.02485302911822208, 0.02487969412738036, 0.024941608861794005, 0.024986708232981436, 0.024959473213115983, 0.025127038487241744, 0.020739876508289054, 0.0067483821539580805, -0.004244416971159432, -0.009125393506120736, -0.004102624307268261, 0.008329340036028967, 0.022445165809843466, 0.035730086189982135, 0.052426136826044474, 0.06893965461717552, 0.07699965479259885, 0.07196672232114044, 0.059535730437573764, 0.04293941443905222, 0.020197719648717707, 0.00040489378448061445, -0.00878193550871021, -0.007910998041301659, -0.0005143908512144624, 0.009542400633501067, 0.019534564725988475, 0.024375159463803517, 0.024892003477894505, 0.02493083065963772, 0.024937034045485574, 0.024874613739355064, 0.024879965064998143, 0.02479237926199077, 0.01844409725365591, 0.0022047036177840875, -0.010543201824768894, -0.016090821244127716, -0.010667969826183803, 0.003220322290489541, 0.0198581872429807, 0.03540606686714894, 0.05089321596897059, 0.06642764784535739, 0.07266096324436859, 0.06439962145153579, 0.04775874890357872, 0.026230758495717415, 0.004525055320088389, -0.008659833470540125, -0.011338355837158658, -0.006467088751436923, 0.0024038042030927903, 0.012937869988713768, 0.020648956290401, 0.024378545178122955, 0.0247386625672408, 0.024826044230240506, 0.025026629538259224, 0.02483745889812076, 0.02483661335068071, 0.0244815950439523, 0.016838865625400934, -0.00022066274403807935, -0.015126747167622686, -0.022427969750127553, -0.01807154664021555, -0.004292184430700939, 0.01355025080228007, 0.030538213422078183, 0.04605808644623718, 0.06043732529108531, 0.06278392652343542, 0.05097605075175099, 0.030479055429798164, 0.008549939746914464, -0.007424743977206214, -0.013354498508265792, -0.010285601541485018, -0.002433298964992199, 0.0070362363689610305, 0.016024725809348366, 0.02168531168527575, 0.024323251329564036, 0.024892248746465444, 0.02487942861878601, 0.024900934035117183, 0.0249325828006191, 0.02500711252418812, 0.024223470229814092, 0.01643077921540054, -1.8669012778076893e-05, -0.01616706359290139, -0.02643668059747978, -0.02490104010533794, -0.013601750997958897, 0.004522658871063122, 0.02231820676097175, 0.03760452023565366, 0.048979449740743954, 0.047719394911863396, 0.03371035085668519, 0.013124566014271392, -0.004070976953830694, -0.012630009957512518, -0.011374830287618065, -0.004997309628421543, 0.003121778705075408, 0.012114109411645799, 0.01908118793649228, 0.02294884034709572, 0.024413469584047935, 0.02485249007600407, 0.025026431316538762, 0.02482926700507843, 0.02486071596260512, 0.0248032356289503, 0.02420792377508323, 0.017807558740843513, 0.0039903933553432375, -0.01320649427011866, -0.025877841439361508, -0.029793796884249834, -0.023322776301768086, -0.008119904545496475, 0.008779519551160466, 0.02346542963606945, 0.03222348875859529, 0.029302641601690133, 0.016163896817199003, 0.001029179031717851, -0.008779100536333101, -0.009457479081364508, -0.004447064655254836, 0.0025717223456519205, 0.01032444928043461, 0.017360538263179993, 0.021635323581167706, 0.0238084119061525, 0.024625796748321382, 0.0247404575361413, 0.024879945171458636, 0.025059042744811078, 0.024967621129324803, 0.02492523298305315, 0.02443095299633316, 0.02036637963650407, 0.010327635960573647, -0.00422020127782637, -0.018872807325243806, -0.027287474590266942, -0.027151834403054576, -0.018329337842085798, -0.00538605128499178, 0.0067222526047281085, 0.013702251762434456, 0.012462186785351013, 0.0050642440410983, -0.0018939105381335396, -0.003404653801361313, 5.260776625209945e-05, 0.005763654769784068, 0.011697257978578415, 0.017503100741669, 0.021218338197088914, 0.02316857842501448, 0.0243324568310706, 0.024663519457822424, 0.024927123981204426, 0.024939287549196228, 0.024897116293699714, 0.024911299207819624, 0.024978614259312644, 0.024743931037319887, 0.02306404983869323, 0.01743246870752713, 0.0076361161968949865, -0.004208548460598248, -0.013128895018374878, -0.017236467128599033, -0.014995335078519403, -0.008809422899546442, -0.0015215601127841064, 0.004014129158009524, 0.006833467350912424, 0.007100553404172513, 0.007830641770293053, 0.009720220730637113, 0.013138986784439165, 0.01734966864271441, 0.020764420761879652, 0.022624526314597403, 0.0236844262971242, 0.024250651427202098, 0.024704752250656794, 0.02495004083808018, 0.024874935807991744, 0.024951861542368205, 0.024968996103222358, 0.024911405153843876, 0.024888628319213933, 0.024849108380870205, 0.024598179889743128, 0.022968349199607198, 0.019526404595320918, 0.01428065652696292, 0.009152440988853766, 0.006190767381489821, 0.005477976321682283, 0.0063072633112063, 0.009339023350024681, 0.014436231285442249, 0.01953556150469062, 0.022454809821601352, 0.023683635905811903, 0.024762517729260466, 0.02549538648195142, 0.02605740025840793, 0.02592130374585962, 0.02532160269837974, 0.02493296951609143, 0.02485020997324699, 0.02504825620255286, 0.024980468832471566, 0.02491857680884832, 0.02505286296089308, 0.024835396209743173, 0.025000115696280103, 0.024818433548652794, 0.02494447133455592, 0.024798238472521293, 0.02503759973442376, 0.025202771061982394, 0.025487475674488894, 0.02605181737589032, 0.02742890497599714, 0.030091407390087407, 0.03167537717719534, 0.03273063035856428, 0.03407798691390183, 0.034706492614300685, 0.03428621909036389, 0.03345506508752551, 0.03200880435383683, 0.030241044893675687, 0.02860295158323085, 0.027266727313964966, 0.026033605393848577, 0.025288605423369616, 0.025182354716029046, 0.024963260572371908, 0.024930089262476002, 0.024954369109423544, 0.025020016207771344, 0.02501586020780357, 0.024953551204031064, 0.025013243178162097, 