weights
"[[4.764584308465873e-05, -1.9240142573319896e-05, -0.00012167908862852279, -0.00011513302676991775, 8.172529443528458e-05, -1.7304023793423543e-05, -2.2224152451812617e-05, 9.332096289822289e-05, 7.017338018163648e-05, 2.5710799972478332e-05, -0.00010505122767599943, -4.0002431159700005e-05, -3.3421989917547765e-05, -5.252626543132778e-05, 0.00012233726662017635, -8.682608455084685e-05, 1.3611216422040732e-05, 2.2669848697470797e-05, -2.6949445114497868e-05, 8.528182510853302e-05, -6.585979794015325e-05, -0.00011857223445501159, 5.9403125447392424e-05, 0.00010081483940768929, -3.68907567902343e-05, -8.44997095534985e-05, 0.00011458379569127079, 1.7442932486272118e-06, 6.685124386589959e-05, -1.851928981559635e-05, -0.00010130145736749476, -7.380421815035898e-05, 0.00011456947606351467, 0.00010240315821891802, -3.4560589915011473e-06, 0.00011417960252706339, -9.304084947638229e-05, -7.606712039890835e-05, 4.946310714535479e-05, -4.2067578600945634e-05, 0.00012194693858022752, -0.00010990252003380853, -6.271119529403506e-05, 4.477193415188246e-05, -8.531574473770451e-05, -6.452150172498173e-05, 5.793614497849467e-05, 4.6532748921653163e-07, 8.18341082835433e-05, -0.00010631424920734957, 7.368740980596121e-05, 8.737720526722813e-05, -4.6234497287535875e-05, 8.199485098193038e-05, 6.492033557158978e-05, -0.00012424946583853468, -6.97489477158881e-05, -1.6674605487443915e-05, 1.230253673233548e-05, 3.6755919090863843e-05, 0.00011728239981131952, 0.00010033227876080116, 4.7775222428272275e-05, 0.00011392706412747514, 0.0001252531243453626, -0.00011263997590471148, -6.285838851916453e-05, 3.1748749924732617e-06, -6.578801486048436e-05, 8.682032568168298e-05, -3.592383830155969e-05, 8.874343352622009e-05, -4.732731798380446e-05, 0.00011971239174063903, -9.505608807705763e-06, -8.5512052756807e-05, -0.00011199576343781373, 4.3868049362434287e-05, 0.00010906830862034494, 4.5473715929121064e-05, 3.754918328438554e-05, 1.1931767389462183e-05, -4.4993473949701365e-05, -9.470456084936159e-05, 0.0001219400438372394, 7.996058534858006e-05, -7.890332759153188e-05, -1.2167515666957046e-06, 4.894881450283619e-05, 2.8841667094996648e-05, -0.00011906849610329956, -0.00010416336922474127, -0.00011785360014236062, -2.9455750040590527e-05, -2.388372760185175e-05, -9.145846629294522e-05, -0.0001262119106721417, -0.00010618838463488316, 3.2519973520548633e-06, 0.0001038354056462449, -8.637056810867828e-05, -9.374079821651083e-06, -1.877276507553504e-05, 0.00011214234805321346, 1.3340903610421393e-05, 6.058894967392336e-05, -1.95561587657358e-06, 3.132334415011965e-05, -7.640726502624039e-05, -8.088794730316121e-05, -7.110998817500276e-05, -6.3575352634352236e-06, -0.00011083332829726761, 5.926196633355733e-05, -7.58806162565754e-05, -7.06213235689402e-05, -0.0001268187293788349, 0.00010241852975680909, -2.2844098508723348e-05, -7.249607573389596e-06, -4.643936964880815e-05, -3.0267429463651524e-05, -3.6393368095995845e-05, 3.791876637498639e-05, 9.246653170177455e-05, -6.505276302883487e-05, 4.7435553782098184e-05, -7.594293739199844e-05, 0.00011840367523137583, 0.00012038964046161918, -0.00011227285134841562, 5.9082818201955205e-05, -1.456869065858844e-05, -0.00012250734027505404, 0.00011163585322107228, 3.34124220253618e-05, -0.00012232270823792156, 8.922851097923872e-05, -9.015654973415546e-05, -6.638522509532839e-05, -1.752549501363701e-05, 1.7726019052532907e-05, 7.145905858206873e-06, 4.781353559324217e-05, 1.180449272747883e-05, -0.00011200254921124235, 7.347943585496771e-05, 7.39297017090168e-05, 8.273222070070277e-05, 6.210007877124714e-05, -3.830203108864038e-06, 6.306728729486456e-05, -0.00012583938011706525, -5.846600608751585e-05, -9.521929347500347e-05, 7.89485394488438e-06, -3.7665794323409246e-05, 0.00010080034215416936, -5.718106559547604e-05, -7.118647268104153e-05, 8.785801327449393e-05, -2.1067550862146788e-05, 0.00011349134343568931, -4.149720614800225e-06, 4.3865925842261914e-05, 1.706653017134435e-05, -0.00011740114365375977, -7.140853188728589e-05, 5.873017755321725e-05, -9.445999440180916e-05, -3.192873215664135e-05, 8.791859972415923e-05, -2.3353579823491112e-05, -1.117283984435316e-05, 0.0001080567687345875, -6.618832683857827e-05, 8.825041205432549e-05, -8.669131135131921e-05, 6.314737212201828e-05, -1.042958103512812e-05, -2.9848242785885498e-05, 9.367321597756691e-05, 7.217842100985773e-05, 9.876685746896192e-05, -0.00010564515486141827, 9.580638766259339e-05, 1.9665285864776168e-06, 5.027201515253597e-05, -9.370588188917627e-05, -0.00011121940976579288, 0.00010486952337298219, 0.00011990063067293434, 2.6035978263343457e-05, 8.83093692430649e-06, 2.6805122296404918e-05, -9.60347369029426e-05, 0.00010707656052498084, -5.139808484198304e-05, -0.00010816176549459093, 3.820016751127128e-05, -0.00011689964901997118, 4.053956917272677e-06, 2.7836616923379338e-05, -6.034138698786565e-05, 7.4245761549501e-05, 0.0001081691696543521, 0.00011850932662356096, 8.225442226564288e-05, -1.1748114580209458e-05, -7.933923400879758e-05, 0.00012149634454392299, 0.00010142918820116797, -0.00012536513483341118, -5.573591011541472e-05, 3.874276251664462e-05, 0.00011347478492937972, 8.459659946428515e-05, -7.093793799428473e-05, 5.238229545859369e-06, 7.742022340179163e-05, -7.262732505478641e-05, 3.1316049514168376e-05, 3.405587715321473e-05, -2.7903996432429644e-05, -2.303365104603678e-05, 6.320226397002174e-05, 8.446198184247286e-07, -0.0001038583215540869, -6.591339672179865e-05, -2.347512117218879e-05, 2.202304389304329e-05, -9.639748860953683e-05, 7.795331788288758e-05, 0.00011711759849244577, -7.776450423011642e-05, 3.2133737325982895e-05, -6.169556910283553e-05, -0.00011944933550441521, 4.9151683676955276e-05, -8.940816580413477e-05, -3.197752747009573e-05, -9.329837519853155e-05, 0.0001207977828417491, 3.7823447995711905e-06, -0.00010852314879241916, -6.160008915220548e-05, 0.0001232519073796708, -2.681074273944131e-05, -4.9543192723813596e-05, -1.7093806549019924e-05, -1.578425203005564e-05, 0.0001244743297311198, -0.00012611774759198587, 4.018342648221735e-05, 0.00011219853261864716, 1.2711168814080439e-05, 4.89524488695776e-05, 2.5043022016965925e-05, -2.9886453886329364e-05, -9.09631791069354e-05, -7.730694377745467e-05, 2.6442082659595425e-05, -2.4993248408296536e-05, 8.810699894895666e-07, -0.00010495719142306808, -5.375010941471858e-08, 5.086822286894158e-05, 0.00011326496344109535, -2.0583720061317642e-05, 1.3363397883132846e-05, 5.873839838987493e-05, -0.00011196743175015645, 2.8946407413023657e-05, -7.158077059555705e-05, 6.946081612452338e-05, 9.635940012196435e-05, 0.00011692071384519504, -9.154892495031369e-05, 5.776750491744182e-05, 8.90968869049107e-05, -1.9025039513079882e-05, 2.609638932689869e-05, -0.00012079290610241065, 6.554879863115179e-06, -0.0001124913515797335, 4.369298381355149e-05, -0.00010635388282035607, -6.61163533025376e-05, -5.0801642908463056e-05, 2.3707295626172483e-05, -2.508794012602842e-05, 1.9868986305524138e-05, 6.139809796104636e-05, 9.202517310176914e-05, -5.3901583906473165e-05, -1.2158855287459025e-05, -0.00010689595951258084, -4.205973623457581e-05, 0.00011959056426618529, -2.4189084039023616e-05, -2.3180579900647e-05, -2.2395333215864286e-05, -3.036636444027791e-05, 8.417658914136753e-05, -0.0001075332191101072, -1.070030941411641e-05, -0.00010090388177219098, 1.3930996545313584e-05, 8.714053671474706e-05, -2.7338243984630193e-05, -8.770944817538969e-05, -5.004398907890014e-05, -5.872542597221719e-05, 6.489274072671028e-05, -9.578880574980227e-05, 4.855221303801439e-05, 7.024551084041684e-05, -6.758716876692386e-06, -8.889909248533851e-05, 6.788502298165115e-05, 0.00010436301221723378, -2.3468848231433412e-05, -6.135659090505469e-05, 1.4228583456791177e-05, 0.00011603523227012365, 2.909522261433726e-05, 0.00011184776119556479, 9.789141447146715e-05, 0.00011424306513942815, -5.010413701665204e-05, 0.00010582979547255845, -8.563007057759648e-05, -6.093748059115377e-05, 7.95695729201262e-05, 0.00011636128484029601, 0.00011552673573346232, -3.0476370358771857e-05, 9.168701070417303e-06, -3.4293786318839636e-05, -2.5383037381061358e-05, 6.8705144245645664e-06, -3.156035360810561e-06, 3.799045029580369e-05, 0.0001171418589264512, 6.189403255659643e-05, 5.244412473821476e-05, 7.216559248861948e-06, 8.30265977507718e-05, 5.821440637318301e-05, -8.627113320106761e-05, 9.903954226419791e-05, -2.256288768997094e-05, -3.218011972280179e-05, 3.449185775069262e-05, 4.1472323879783445e-05, -9.261690490555736e-05, -0.00010831170505404045, -1.618758270866118e-05, -1.8911959883645674e-05, -6.18612975618575e-05, 0.00011663281796741229, -1.5871537836283523e-06, -3.4070681491276406e-05, 6.575762510112291e-05, -5.7012978066900564e-05, -4.1642760907620934e-05, -0.0001019576751855512, 5.255880174786681e-05, -1.6627491022403342e-05, 1.0886114919695756e-05, 7.9923286379076e-05, 0.00010783958757350886, -0.0001228117703965154, -4.8568781129824336e-05, 6.264359220495093e-05, -0.0001265303679731268, 3.621079609996995e-05, 6.760369862060505e-05, 4.3583784373687955e-05, 6.744504286691498e-05, -4.2445505320696024e-05, -1.659567930488361e-05, -5.890607714909186e-06, -1.022171628563579e-05, 3.026776774952861e-05, 2.8629363119381636e-05, 8.51562634091247e-05, 0.0001098682519699934, 8.511648049813641e-05, -0.00010498187998587345, 0.0001222819145431586, -7.506059345377216e-05, 0.00012716118242669033, -7.05994438030072e-05, 1.3728399724487325e-05, -0.00011812562041352611, -5.8606738094929266e-05, 6.6318873797676e-05, -0.00010036987381138234, -4.140764939678182e-06, -3.0065942861141522e-05, -3.841112006298929e-05, -7.544895902376916e-05, -9.895891485036132e-05, 5.447043626198617e-05, -8.779696569069509e-05, 0.00011931425495977659, -3.854591123334448e-05, 1.9013494927674164e-05, -8.605306489446239e-05, -2.7463682339850517e-05, 3.4938351855605114e-05, -6.401567788253109e-05, -0.0001250577971132546, -3.442999902460428e-05, -0.00012724040509909385, 9.58295290459085e-05, 0.00010560490066219478, 2.6442442315676797e-05, -9.483107494002919e-05, 1.640320033733239e-05, 4.622411364828534e-05, -7.009815245451209e-05, -2.177043316134847e-05, -1.4434873940252605e-05, 4.134588425260988e-05, 7.617779474794939e-05, -9.707779822989522e-05, 1.18224375334586e-05, -4.005405516552316e-05, -2.2651579015755837e-05, -7.156185597086388e-05, -0.00010756561869645174, -6.615833070075346e-05, -0.00012701924447342948, 7.329528084309797e-05, -5.4691930258951585e-05, 1.906171885556597e-05, 9.435666949827355e-05, 8.564056854254135e-05, -1.6298640755436823e-05, -0.00010445434349559564, 2.275143727835931e-05, 9.836990544256593e-05, 5.551730359784407e-06, -0.00010053732381142647, -1.7435679269108255e-05, 2.7488295668790244e-05, -3.0182131979831703e-06, 4.615492626596255e-05, -0.00010948571618762663, -5.45062073093723e-05, 0.00012303208477482924, 8.243412527168251e-07, 6.366875404586721e-06, 0.00011870606428489286, -9.484708320431923e-05, 5.497721677604852e-05, -6.797446831625491e-05, -0.00012522141728383342, 5.1931282643716965e-05, -5.896614926286871e-05, 2.106612747284709e-06, -2.689091958207031e-05, 5.388743222070917e-05, 8.062644612059115e-05, 0.00010648352450881784, -5.5663172832128036e-05, -3.624052432055822e-05, 0.00010558798245457123, 8.491140705233059e-05, -6.411697499762527e-05, -6.054254524089867e-07, -7.39353786173807e-05, 4.22762925092305e-05, -4.130061121946564e-06, 2.514031538719541e-06, 2.433406297263749e-05, 5.643230909219378e-05, -1.4230433545969452e-05, -1.163220605773555e-05, 7.882936681323381e-05, -8.521247499849304e-05, -0.00010914336690271468, 9.288297088786364e-05, -5.516040839852406e-05, -1.0617409623589653e-05, 0.00012375614736698717, 4.187276271300224e-05, 8.5204360714504e-05, -8.713835521176445e-05, 0.00012747113063546294, 4.730161487434528e-05, -4.547004867942708e-05, -6.971842065534708e-05, -0.00010005141064446297, -6.941736629704633e-05, -8.835228278807928e-06, -6.541809016059332e-05, 8.635173946696759e-05, 0.0001060016713602103, -0.00010189336569567575, -9.77197877250046e-05, 4.6552332109946604e-05, -3.820184237940439e-05, -0.00012745058452946013, 1.6939203844819037e-05, 3.766270469965315e-05, 1.3163872511817698e-05, 7.899722472994588e-05, 0.0001153822745472562, 5.964785472939219e-05, -1.4665528303879323e-05, -7.192501606708711e-05, 5.5431439827546466e-05, -0.00010163621203448979, -1.3816405910889842e-05, -1.6172738803017784e-05, 0.00011858570560983695, -9.311240577574672e-05, 1.313984642475935e-05, -7.307429188947856e-05, 2.823184795089132e-05, -2.3352810980493337e-05, -5.7607773929809825e-05, 0.00012235976024911366, 7.236861391137156e-06, 0.00012261740666970583, -8.1821022263837e-05, 0.00011011169589768643, 5.411485831050167e-05, -2.0666875578066432e-05, 4.971289163371057e-05, -0.00011744761498879612, -6.777505433779027e-05, 9.040822975934289e-05, 4.26445407415921e-05, -0.00012185205504456763, -1.702673146033978e-05, 7.544615580169629e-05, 0.0001236473824427802, -0.00012330236503713227, -0.00011607137634510401, -7.29303674996091e-05, -3.7604241319834735e-05, -0.00011473584095915427, -2.5160354126934746e-05, -0.00010056333260208127, 8.724144115417846e-05, -3.111626189111119e-05, 5.5029202174276294e-05, 6.380962896410565e-05, 7.499705319405886e-05, 6.588434796836896e-05, -0.00012362332917216002, -4.450230809236427e-05, -5.8987494313187655e-05, 0.00010096445004397486, -0.00010776338951847572, 0.0001119595366901265, -7.507887741445533e-05, 0.00011830687454479486, -2.809407927988573e-05, 2.2993114593634618e-05, -1.922767072925868e-05, -7.813086246452104e-05, -0.00010390560421406946, 7.413997258969069e-05, -4.889556001880915e-05, -0.0001160817198548674, 4.9023169086155635e-05, 4.570348784884558e-05, 5.5054450358691026e-05, 5.547024008846625e-05, 5.368701244556234e-05, -1.7552165315870907e-06, 8.550911301185837e-05, -9.205072699313669e-06, -2.8232306177958353e-05, 1.3283597414167832e-06, -1.7848698716525345e-05, 6.739629264669554e-05, 1.965963906039182e-05, -9.924933526185538e-05, -2.922917468543998e-05, 4.558475272915475e-05, 1.6545000031436847e-05, 1.9093452983101307e-05, -5.590711269987541e-05, -2.43413716015186e-05, -1.6618999499463916e-05, 0.00011390348756373954, 7.274004726413394e-05, -1.2789929411263475e-06, -8.168428787871324e-05, -8.750118784615951e-05, -2.191043259243512e-05, 1.0715519038441032e-06, -0.00010084055241661746, 0.00010739982195642508, 2.7854305835883516e-05, -0.00011126907410651436, 0.0001074867576717393, -8.702641679296948e-05, 0.00011892923482555325, -1.1770998857956946e-05, -4.619894731601504e-05, -6.179207707593254e-05, 8.298638763749104e-05, -9.68242958563316e-05, -0.00011218754959580227, 0.0001122165636278907, 5.7674714325025004e-05, 1.796018593996124e-05, -0.00011880466626406254, -8.946717151513761e-05, -0.0001231196247755774, 0.00011314298064417927, 1.755343717535925e-05, -0.0001254825897200973, 8.65366721780372e-05, 8.988639796755524e-05, -0.00010109546357711099, -6.563516261613722e-06, 9.283975318118461e-05, 0.00011817238905969683, 0.00010353136660784725, 5.8455971276062584e-05, 0.00010335478300531208, 9.356056193196964e-05, 6.994107702719742e-05, 1.5809482734859296e-05, 0.00010265479863866376, 8.004405771968078e-05, -9.765788853967581e-05, 9.307753175378768e-05, 1.335962857509235e-05, -1.2911084442829942e-05, -8.771522061345928e-06, -6.882256709557089e-05, 1.5520070857084337e-05, -0.0001273416376297997, -7.208728036741244e-05, 8.920766523070891e-05, 5.2592942259241966e-05, 7.373242457976721e-05, -4.6549572081886716e-05, 0.00011171873703424795, 0.00012354050142704707, -7.510241476721503e-05, 4.1108459579346354e-05, -5.761174866737294e-05, 7.72438994491798e-05, -0.00011165888205230462, 9.462383906416651e-07, -1.2735205745341773e-05, -5.216882977744318e-05, -5.0241702700342e-05, -7.444204489913308e-05, -8.392391544429986e-06, 8.455276153415613e-05, -0.00011099464409212873, -2.2271582896636436e-05, 2.3541149501404238e-05, -6.454368888786863e-05, -4.542352736222129e-05, 1.4124716815312092e-06, 9.386670894659507e-05, -3.027908139786595e-05, 4.90326869814514e-06, -8.605236913615367e-05, -3.132397860942166e-05, 8.076440719882011e-06, 0.00011704558331594894, -4.579518401954711e-05, 9.129441800121045e-05, -4.5432486066361065e-05, -5.01295024635215e-05, -4.6989618455621236e-05, -0.00011233642034164932, 8.112777942714496e-05, -2.3390004178511573e-08, 8.571700800985539e-05, -7.242632226261395e-06, 8.181707527322275e-05, -2.563369882924455e-05, -1.5140697233400453e-05, 2.1111621908119602e-05, -0.00010952087257245294, 9.095631819808424e-05, -1.893808833852743e-05, -3.909487460953664e-06, 8.297467475072573e-05, -2.185348000159615e-05, -5.6054286535457744e-05, -0.00012597014544335865, -0.00010322901996601278, 7.273870567511759e-05, 0.00010997630579936393, -5.279384731912001e-05, -5.430070859654295e-06, -0.0001107087544348885, 2.2122578257417606e-05, -9.145267712347131e-05, 6.537981161020973e-05, -9.033971664995575e-05, 7.493266801809125e-05, -2.1336727853603527e-05, 0.0001270155909165028, 0.00011183711917107308, -4.0928416854231457e-05, -0.00012459069688573765, -0.00011793095586545695, -4.0544397705386195e-06, 4.628356797689878e-05, -4.774875482717075e-05, -0.00010378753370585577, 4.083446553107006e-05, -5.766011240995797e-05, -8.719617293947391e-05, 2.188044772524914e-05, -5.2655222127897486e-05, -8.468652613837727e-05, -0.00012386239720135734, -9.134827999483113e-06, -4.842948486676914e-06, 5.404733904424662e-05, -0.00010058208574074356, -2.6302193975592153e-05, 1.9863515067499827e-05, -1.1775355010276625e-05, -2.3588743422647917e-05, -3.278206871927612e-05, -3.85385830012576e-05, 0.00012210336942088817, 1.0558246959822261e-05, -0.00011774538954867594, -9.802704103484536e-05, 4.1786813480470264e-05, 2.812484463225193e-05, 0.00012713364714282406, -0.00010147635833345292, -0.00010458911466268309, -1.8712778807717474e-05, -2.2447605462951114e-05, -9.564070261359035e-05, -8.005684874547648e-05, 8.753678270145674e-05, -1.3621499449692986e-05, -5.512345225471664e-05, -9.885638475189899e-05, 7.680413404003715e-05, -5.60120635815898e-05, 4.8986942734100455e-05, 1.379982286881594e-06, 7.580788945741737e-05, -0.00011241083473883533, 8.55724973920808e-05, -6.977845631868985e-05, 7.821140039896946e-05, -9.674455354779338e-05, 6.091199481747063e-05, 1.9767845427336825e-06, -1.0806968835988441e-05, -4.374553572121415e-05, 4.967599945684142e-05, 5.1864995607080496e-06, -2.870009239418149e-06, -6.578042151423565e-05, 0.0001071576318739717, -3.8733811147606884e-05, 5.710002092728854e-05, -0.00012171185719783188, 4.511624737135191e-05, 1.9426125769834275e-05, 9.857003328490679e-05, -0.00010597853498849352, -0.00012089897833926207, -9.563802359799729e-05, 5.8566051877930725e-05, 4.429900839699056e-05, -1.655972644270152e-05, 5.060387217700516e-05, -3.3884706010005195e-05], [0.000109702173402053, 1.1044584751436123e-05, -0.00012661927078340675, -8.956949040927415e-05, -0.0001207234257180436, 9.166993232760736e-05, -7.164504534200933e-05, -4.011547472158568e-05, 1.554662997442697e-05, 0.00010489692316517994, 8.082051677742402e-05, -2.5272788556688752e-05, -2.5661076667878816e-07, 9.436095501802499e-05, 1.395296372406242e-05, -0.00011757806679993947, -0.00011075349859950215, 0.00011878751845178579, 3.946967042352085e-05, -4.488998096340423e-05, -3.553407098119064e-05, -7.883589092469459e-05, 3.705231076357499e-05, -0.0001124070266407441, -0.00010295422905101407, 0.00010793095601992466, 5.02816694321292e-06, 5.054746267284453e-05, 4.571104874984365e-05, 3.867533680335653e-05, -0.0001024911707282461, -3.8396044413296774e-05, 5.479664167377571e-06, -0.00012092742565399648, -0.00011275161505646816, -3.943125850832837e-05, -9.732126226904628e-05, -2.3924876600279967e-05, -2.5671710699839523e-05, 9.246457128308648e-05, 0.00011988680948923265, -7.599253127280937e-05, 5.279715482799754e-05, -0.00012078568581679523, 0.00010314966442318719, -7.926577298920482e-05, -0.00010364363642694563, 3.514936253776568e-05, 7.999523877496651e-05, 2.9317263281720333e-05, -0.00010845771954852983, -0.00011883711768803198, 7.756785033527101e-05, -7.633333898512029e-05, 1.4280498312682698e-05, -1.7306699134220443e-05, -2.7906878582368926e-05, 1.702565855903318e-05, -4.348361707233331e-05, -7.741550749834915e-05, -8.534907766057556e-05, -6.902390237342462e-05, -9.583092852993616e-05, 8.433950232202109e-05, -0.00010072294150541001, -4.552712247199164e-05, -7.251724111524437e-05, 5.4605743093200684e-05, -0.00011825954448033687, 5.9020602733335045e-05, 5.969191455029053e-05, 3.0918242900349056e-05, 1.502605168434638e-05, 0.00011003251481224209, 0.00011729014809648754, -1.6318443569335947e-05, -9.083339870691249e-05, 5.201280595835184e-05, 6.36171624711805e-05, -1.3214186980519717e-05, 9.458304174983876e-05, 9.935577902792656e-06, -0.00012697975887101571, -3.074847137842946e-05, 0.0001082508373899375, 0.0001240795883159885, -4.3939194291809096e-05, 7.269601464828594e-05, -5.5009825823189103e-05, 4.536370630362726e-05, 1.9316194185037163e-05, -1.934748797581781e-05, -3.9196592476304734e-05, 1.6947073914945855e-05, 7.70711332770062e-05, 7.694462492903442e-05, -4.848709035312045e-05, -0.00012403425454359695, 0.00011825422730338123, -1.3692114104515355e-05, -0.00010805801033017372, -9.143183274157409e-05, 3.6968557886818044e-05, 1.8374471174868582e-05, -3.452649018263963e-05, -8.222139268463826e-05, -9.693160835596227e-05, 2.1872685952592725e-05, -8.238019659136544e-05, 7.550445296433224e-05, 0.00010317662154163988, -9.19436799036761e-05, 2.9030027395127384e-05, 0.00010826392534873023, -3.904394239339845e-07, 8.283091918495869e-05, 8.114032333223005e-05, -9.876616375378153e-05, 4.728854202396084e-05, 3.373345519001184e-05, 4.608530901018791e-05, 0.0001239987394792511, 0.0001237185233586321, 7.858160821984965e-05, 3.272036799230307e-05, -6.039854221072934e-05, 5.3637515791263434e-05, 4.8557155768190883e-05, -0.00012040821187213858, -0.0001106304810385636, -0.00010485363093846678, -5.33405872864944e-05, 3.082442465915268e-05, -3.464293765579635e-05, 4.831639024316023e-05, 6.0885324740559134e-05, 0.00011145058523604264, 3.941607124672132e-05, -6.174803175596046e-05, 9.440637495381304e-05, 0.00010196172904423661, -0.00012273570296110345, 4.9196340470482e-05, 3.8303726975111134e-05, 7.439119774260655e-05, 6.489123936851345e-05, -7.32604441920228e-05, 7.255621972531067e-05, 1.5947508009508407e-05, -6.91309743520612e-05, -2.270039718250214e-05, 0.0001191380719053626, -2.1772381365066308e-05, -0.00012589815965811645, 2.9145133463444956e-05, 6.761191606520381e-05, -4.616618592045205e-05, -6.723872400509864e-05, 0.0001189556911701144, -5.0218011613347185e-05, 0.0001062870748086622, -2.2847085383900918e-05, -4.1791665230089215e-05, -7.985167933562862e-05, 4.79555541491656e-05, -2.3074556833531595e-05, -9.932750465300642e-06, 7.791585063327388e-05, 6.0314593314597673e-05, -7.113387142192282e-06, -0.00011953367663322013, -9.457160992773844e-05, 2.4779352984555703e-05, -3.386759852173073e-05, 0.00012360897548548673, 8.98542291362502e-05, -7.319258849248266e-05, -0.00010613147562545332, 3.9177123966451234e-05, -5.972890675767738e-05, 0.00010535015670850754, -8.0224215024295e-05, -0.0001184324818906038, 1.4125596254099164e-05, 8.789101101881728e-05, 0.00010920594316359319, 0.00011080320850943985, -4.375840112943364e-05, 0.00012009979365680357, -5.778102016786762e-06, 0.00011623796318191925, -9.058684548659762e-05, -9.96643915726012e-05, 1.759747012193716e-05, 8.382213077919965e-06, 0.00011885791922896254, 2.024926711726709e-05, 3.6990923999951364e-05, 3.605885370148582e-05, 6.0585300067904074e-05, -9.668482912523521e-05, 6.735829842413025e-06, -1.5015767491687406e-05, -0.00012210262382796494, 9.67683000236152e-05, -3.051905398759548e-05, 3.708964396605598e-05, 0.0001039847355395288, 0.00010577023249920757, -8.551515356525894e-05, -1.5879128477102785e-05, -7.619038109441578e-05, 2.9579839839965668e-05, 7.644621802767153e-05, 0.0001063048884622743, -2.9852025120268368e-05, -5.8302273501723404e-05, 3.451907662014966e-05, -0.0001133525549476175, -1.4566574923289395e-05, -2.0650731004275958e-05, -3.225938293190627e-05, 2.5357525202179366e-05, -8.789518915453291e-07, 1.0774872831275424e-06, -6.66824850690722e-05, -5.818999256316902e-05, 2.7235012269113608e-05, -3.616504767136274e-05, 6.230990898452844e-05, -7.534281562464299e-05, 3.063826288469927e-05, -9.04623713437697e-05, 2.2826316965236987e-05, 4.943985976541038e-05, -0.00011166207270280653, -7.760829446672281e-05, -3.128555436426166e-05, -8.25398783496309e-05, 2.166968466812045e-05, 5.812927914555573e-05, -5.7248081826501085e-05, 4.3128316758099416e-05, -9.001159868881688e-05, 0.0001159678525563866, 0.00011092393483283093, 1.702767381583175e-05, 0.00010980624848105894, 7.4671535262856e-05, -9.613110996787348e-05, -0.00010200438921775198, -1.2719649357586377e-06, -1.1110005486399621e-05, 1.3279447992351357e-05, 0.00011062069012336146, -1.299862020931132e-05, -0.00012534158114355687, -2.7690693731744106e-05, 0.00010075206230726558, 4.722817993486343e-05, 8.019584571065015e-05, 8.240986779247302e-05, 6.643266882213307e-05, 5.6200711018702205e-05, -0.00011187743484959419, -2.9929885758289494e-05, 5.003559333473268e-05, 6.869905120137257e-05, 6.36951040702628e-05, 3.2299410517706787e-05, -3.6116334014081934e-05, -8.438309345442178e-05, -0.00011726404599294287, 3.3955757137043934e-05, 1.2316467891231053e-05, -5.754128526585649e-05, 0.00010076083349724208, -4.032149992392835e-05, 0.00010396297930934078, 8.377115769287724e-05, -6.97639730807238e-05, 8.013051718540859e-05, 0.00010054591342715388, -4.427692396818145e-05, 2.9773191994324103e-05, -0.00010165506632839208, -9.124936645485848e-05, 8.005197736281738e-05, -4.6113133975138665e-05, -0.00011946288509638017, 6.284616168225527e-05, -7.971955785533891e-05, 6.143948682193322e-05, -7.35453454654512e-05, -0.0001184149404231657, 2.3249865572877557e-05, -4.867649043149081e-05, 3.15121142535223e-05, -3.924491667349961e-06, -1.5606988945335473e-05, -8.799404070365607e-05, 2.3232259878232805e-05, -9.922437508671434e-05, 0.00010057978212457367, 2.352701242254343e-06, 2.1400126708702102e-05, -0.000103378876897786, 0.00011383597244986422, 5.3281730590561e-06, -4.8436268993512925e-05, 0.00010990524107105506, 4.542026196443572e-05, 0.00010355585693724403, 8.127700121141212e-05, -5.41651409032693e-05, -6.722307320820904e-05, -0.0001110182540008775, -5.332729326787758e-06, 4.677391581637841e-06, -0.0001120266633222928, -6.138897119591898e-05, 0.00010377566450145462, 3.1237105070816325e-05, 4.92080100367548e-05, -7.358959966650469e-05, 2.06702927949188e-05, 0.00010285603231314784, 0.00012471331527987123, -7.915299044917162e-05, -0.00011118528725839898, 7.435795125407859e-05, -5.315402281762988e-05, -5.382313590858306e-05, 6.054694461394856e-05, 6.6352235369924e-05, -4.003933382910536e-05, -0.00011023203766380137, 2.360510133647851e-05, -0.00011383102795496513, -8.80055037583306e-05, -1.6045235460255995e-05, -4.19556820661907e-05, 3.715566174433936e-05, -7.696909641329087e-05, -5.571340171768189e-06, -0.000110702453057406, -6.456595322865908e-05, -5.2624887198518566e-05, -0.00011960428889029563, 0.00010304985219805158, -9.636601816802492e-05, 5.739172028032119e-05, 5.030621724015363e-05, 0.00011351182327514512, 0.0001259777544109697, -4.2759600132534035e-05, -2.9381142674242692e-05, 0.00010566183410185492, 7.41824852044104e-06, 3.859628532808656e-05, 2.415457389159286e-07, -4.099235269295917e-05, 7.625469443931579e-05, -3.950665884635341e-05, 8.223021786885336e-06, 4.532643659449608e-05, 0.00010717433985599027, -3.0499418277889234e-05, 0.00011524420363756163, -6.445201209257686e-05, 0.00011402602371045565, -0.00012753434689222133, 0.00011319672996157502, 4.8862235168492814e-05, -5.563196520719999e-05, -8.07848269400811e-05, -6.98229368036885e-05, 9.836262483712405e-05, 2.7750574060747504e-06, 0.00010659749124595014, 0.00012329039306108134, 2.9136568975729037e-05, -9.942684396789315e-05, 6.857088521469303e-05, -7.71083097797403e-05, 2.2715789668302944e-06, 8.609666374534747e-05, -6.571405613428456e-05, 5.831520965985746e-05, 5.954061357636672e-05, -1.390438182270054e-05, 1.4250539489063497e-05, 5.021894193045608e-05, -1.6096477959316842e-05, -0.0001111087374498213, -7.0457589630303e-05, -2.7046663608070115e-05, 0.00010365411566295947, -6.445375474161815e-05, 0.00012448709545158493, -3.6563450258198e-06, -0.00010756735193404646, -9.796968299413881e-05, 9.026829845014514e-06, -4.8135266026823474e-05, 7.825981763261425e-05, -3.384867844278758e-06, 5.900750863591011e-06, -8.746429652237606e-05, -4.579082676670308e-05, -2.885835405680851e-05, -9.26989945691421e-06, 0.00011658367945330576, -8.944834203090742e-05, 6.815680550790075e-05, -8.016822172705656e-05, 2.1125412023437553e-05, -9.170441423298171e-05, 0.0001179103627285962, 4.942480336026925e-05, -4.732469394055182e-05, 2.3264167825790384e-05, 7.162796857197045e-05, -6.566995477872434e-05, -5.7517912449639634e-05, -2.092950925757244e-05, 2.6955661050228068e-05, 2.031520740639809e-05, -0.00010468827670362746, -3.920181365515812e-05, 6.298100887338536e-05, -4.4282179346627485e-06, -8.791569424879901e-05, 8.80235884578046e-05, 2.967924274032824e-05, -5.4310364953617816e-05, 5.1056552047789596e-05, 2.6660637923238307e-05, 3.961039771494593e-05, 5.5293252006484894e-05, 5.196155838108815e-05, -3.10152611734367e-05, 9.62499138399692e-05, 7.593568269027913e-05, -7.205757581382703e-05, 1.7087108666549203e-05, 0.0001042191367390999, -2.8194548981115824e-05, 7.937952645633975e-06, -5.45661817971366e-05, 6.0719689829812704e-05, -1.1441746495546378e-05, 9.958399978537635e-05, -6.620830186287023e-05, 1.693209753079372e-05, -5.8247256902811314e-05, -4.975083824749031e-05, -2.207344885003027e-05, -0.0001091131318598888, -8.996492445777042e-06, 0.00010855827563703436, -7.912934727873959e-05, -5.6561291338310264e-05, -7.664234334020561e-05, 7.064268260795782e-05, 9.202881441634982e-05, 6.791424476630937e-05, 5.9320931267842065e-05, -7.35785617516093e-05, 5.8584832982676434e-05, 8.388054650533192e-05, 1.3704764450089011e-05, -7.977178838540918e-05, -8.259383890739293e-06, 6.265777462667968e-06, -8.881991613728628e-05, 3.876170663652129e-05, -0.00011105925593529091, 9.799517791102624e-05, -4.841069629664299e-06, -0.0001258907648596445, 6.382570654091092e-05, -1.8625594633454996e-05, -9.609332352494042e-05, -2.3267435836748022e-05, -1.4974068385316006e-05, 0.00011261644814108396, -3.899690224058243e-05, 7.518342510538991e-05, -2.603843771764188e-05, -0.00011740157139829871, 8.272299986021718e-05, -5.069596246574829e-06, -0.00010135379061243692, -4.837584331470337e-05, 7.611775614132547e-05, -3.528765653626832e-05, -1.1412568578303331e-05, 1.966958848068608e-05, 8.723939842679451e-05, -0.00011062271689284047, 9.522471228295013e-05, 8.595041076097873e-05, -4.797168868544373e-05, 6.077091147161844e-05, 8.163950363812392e-06, -6.66110418985715e-05, 3.8704519852971624e-05, 5.224535973714381e-05, -0.00011854780020453324, -4.205205646208766e-05, -0.0001218246477562519, 2.6333403658541292e-05, -5.6770144855822094e-05, 0.0001235856051732813, -7.552597515043426e-06, -9.141006435982501e-05, -8.025998496821134e-05, -7.96619223223077e-05, -5.1961822197539325e-06, -0.00010191382545493829, 0.00010926901727845386, 4.019674782862773e-06, 0.00012447675869379826, -8.554167666735108e-05, 4.81408997167162e-05, -5.895183946636266e-05, -5.056510091245923e-05, -2.3372857990036114e-05, 2.169480990684182e-05, -9.471330913703624e-05, 0.00012373530183095412, -5.973049742586521e-05, -5.611122742863393e-05, 4.439074289137501e-05, -9.061119298752272e-05, 7.486610088936724e-05, -0.0001052507602416255, -1.4885361459789928e-05, -6.54750436385587e-05, 6.171461906148317e-05, 6.910288532317899e-05, -4.5076076221417795e-05, -8.38217519433956e-05, -0.00010314003074301437, 7.230573134723599e-05, 9.724334714278335e-05, 6.999656671953217e-05, 9.718443883869598e-05, -0.00011360336699417454, 5.140944808751119e-06, -3.963725853022601e-05, 8.361360934367289e-05, 8.646520256930318e-05, 8.773884552250382e-05, -0.00010048030966656923, 5.7684053238009716e-05, 7.768248609825561e-05, 0.00010314782649455148, 4.230872702589317e-05, -1.5714641430924007e-06, -7.219548890303802e-05, -7.425230409605473e-05, 3.727786010281932e-06, -4.39698755498217e-06, -0.0001168734972288974, 9.550417979922591e-05, 0.00010189518500562674, -1.961686032426347e-05, -3.139239199804917e-05, 0.00010577276680721994, 1.186839736860843e-05, 6.161329098073147e-05, -3.8115245037316925e-05, -6.465199994219932e-05, -8.844716942415693e-05, -0.00010724630457775895, -4.182935576190477e-05, 0.00011251106087293978, 0.00012204826928136528, -0.00010756666546938329, 4.459954385826761e-05, -0.0001218197229488466, -5.5952618458412896e-05, 0.00011155288780489452, -0.00012567027248638115, -4.373343459629814e-05, 3.6896299243922455e-05, 7.416285889583058e-05, 3.931964288538534e-05, -5.535885710009381e-05, -6.805207713350887e-06, -5.582111236239603e-05, 9.022760096729476e-05, 6.988891748522348e-05, 7.727232798769383e-06, -0.00010956531532378497, -4.1641646774268376e-05, 0.0001240472151584448, 7.010683007560769e-05, 0.00011004441058571517, -8.37931258728928e-05, -9.274389477779307e-05, -9.006938992604506e-05, 7.849786234651913e-06, -3.804540669811687e-05, -8.811459647526191e-05, 7.203381192876334e-05, -7.429066663085254e-05, -0.00011511439972229866, 5.4289917362458595e-05, 3.532932963657984e-05, -2.0000194608205234e-05, 5.636949636939207e-05, 0.00012376514530362313, 0.00011960387774628035, 2.138155679402955e-05, -9.024110236227755e-05, 4.8130597150736657e-05, -5.5791232530063924e-05, -7.603997169077574e-05, 2.902852008012289e-05, 9.468843755887086e-05, 1.6972056346475265e-05, 7.111333950475635e-05, 8.954602629402825e-05, -6.9531005685876e-05, -9.74404949669847e-05, 4.4308605323503646e-05, 8.916603530941017e-05, -2.352407512572468e-05, 4.181467071714747e-05, 1.2563320655313418e-05, 2.4122932438007395e-05, 7.897279936900277e-05, -9.672760183547505e-05, -6.963759328993877e-05, 3.993853706544513e-05, 6.0054760524853304e-05, -0.00012646788488781868, 7.772059756872448e-05, -9.852688290602299e-05, 4.373552454288734e-05, 6.423868519669102e-05, 0.00010619464553163273, 6.1027022295204633e-05, 0.00012022126964882555, 2.9505081605376322e-05, -4.357090979793204e-05, 2.7622096828209575e-05, -4.48481129684145e-05, 9.950667239898745e-05, 0.00012556943711902762, 9.248150466962832e-05, -3.579282331547721e-05, 2.198862566131889e-05, 3.808392905795285e-05, 0.00011913855084575247, 0.00011768181975369098, -2.6513279709641445e-06, 1.2830657659364036e-05, 3.562764897690801e-05, -1.9195691775052083e-05, 2.5985381371065678e-05, -0.00012128268454421804, -4.441402256770854e-05, 2.176120288041373e-05, 0.00012436662499471404, -3.208505657011506e-05, -6.426797213265152e-06, -0.00010076871009499829, 2.9685424841486856e-06, -4.592359839294439e-05, 4.383632387711159e-05, -0.00011207830420050107, -0.00010853496428611907, 8.997312106981808e-05, 1.2365065878493578e-05, 8.469604944676948e-05, 1.2724115907766331e-05, -3.118258102147275e-05, -0.00011533833804512287, -0.00011063175422948875, 2.063981075787738e-05, 6.317554473837271e-05, -7.206268388664771e-05, -0.00010987141453635517, -5.7498675007762844e-05, 6.433751888265636e-05, -3.0850268322174014e-05, 4.996227597952336e-05, -2.8270080415256084e-05, 4.40024261016972e-05, -2.9931011133024626e-05, 8.056281613781486e-05, -4.4077012099302725e-05, -4.1470241989425434e-05, 9.045577314160567e-05, -1.947034517688817e-05, -7.676264037783407e-06, 4.813057842377925e-05, 1.8390088280498998e-05, -0.00010868958238828877, 5.8736455608377057e-05, -9.586960393064654e-06, 0.00010172577468197636, -6.516629405893441e-05, -7.096939711700377e-05, -7.947398248892125e-05, -0.00011269127543179236, 7.066254226226535e-05, -8.894670915425497e-06, -6.173144539559349e-05, -7.398803480916969e-05, 0.00010441725465623814, 0.00011211395106158932, 3.318887036589781e-06, -6.469284095173737e-06, -9.361866285123927e-05, -0.00012469981245991334, 3.472023297635602e-05, 0.000124106843142809, 6.239240130683011e-05, -5.6776958221931916e-05, 2.6442946163676035e-05, 8.061637712162243e-05, 7.984659658833128e-05, -8.631953670288963e-05, -3.109860661832375e-05, -8.010308279721204e-05, 9.644944054705551e-05, -6.167060620382563e-06, 2.345482068577406e-05, 0.00012717224511890412, 8.744635789622649e-05, 9.731023761290921e-05, 4.959348993167608e-05, 0.00011306696689258468, 1.1586747057558866e-05, -3.793523426549082e-05, -4.767292836665366e-05, -9.692449489019498e-06, 1.3554966190346022e-05, -7.41549934185045e-05, 8.75621034430174e-06, 0.00011181517480280533, 9.610521118421773e-05, 0.00012236872903688748, 7.80016265827605e-05, 2.088369171239085e-05, 8.708319471303255e-06, -8.045117324288586e-05, -6.127372315728021e-05, -1.4824648330709713e-05, -2.3612599986107655e-05, 9.588486426542196e-05, -6.714521761694867e-05, -4.863032425059927e-06, -8.101967748048904e-05, 4.237126779588643e-05, -9.88390305128628e-05, -2.2899734914073227e-05, 0.00012122022029626247, 7.517853471120056e-05, -0.00010520724713840261, -6.585757353624064e-05, 0.0001127353019364389, 1.5795647304767818e-06, -9.625090205730027e-05, -8.947514723596972e-05, -4.6359344165268036e-05, -3.369288449629083e-05, -7.257618020168768e-05, -3.9153924171689476e-05, 0.00012151190688785665, -7.810293115669695e-05, -2.838113154364527e-05, -3.9789459120690435e-05, 2.2590986242155738e-05, -0.00010670553986591688, 0.00010026729433920596, -3.3666915140065736e-05, 3.7007979656723073e-06, -2.25505195650831e-05], [0.00011830248019518245, -0.00011839452274239439, 4.924786900265335e-06, -2.8733249054567284e-05, 0.00012599043851220325, -7.68467178036343e-05, -4.213524166054497e-05, -8.614967436223041e-05, -0.00012722250705939853, -2.3459814941433455e-05, -5.882390887720209e-05, -7.0889726827684e-05, -1.0341173336559902e-05, -1.3912693457215257e-05, -5.550348245937741e-05, -2.0053302055924302e-05, 5.450907385874614e-05, 8.688367831047363e-05, 1.6798453244189932e-05, -3.381990185361972e-05, -3.196184477796115e-05, -9.24217900513926e-05, -4.0715677422437094e-05, 7.719571087409714e-05, 9.721240577399415e-05, 6.63623217923648e-05, 8.713215547757143e-05, 0.00010381295525769853, 5.280006172055766e-05, -2.7105777792624414e-05, -8.494764209001681e-05, 4.7221849886256946e-05, 7.190688833883282e-05, 2.448143951815972e-05, 9.78340633846909e-05, 1.8433479495428942e-05, 2.206498581268496e-05, -6.575342599759968e-05, 9.394253369946367e-05, 0.00010897877111578218, 2.8202594012736547e-05, 0.0001164173863883048, -6.219206462359207e-05, 6.83101670961479e-05, 0.00012715768082822057, 7.4753708630835e-05, 9.803020345528193e-05, 0.00010491129182192842, 6.61156922267969e-05, 2.3475304709698982e-05, 8.815125820079929e-05, -7.199778066466599e-05, -5.7413427013783695e-05, -3.0249288557674802e-05, 1.2817211887753863e-05, -1.9134096572621875e-05, 8.315010460037571e-05, 4.25825626171734e-05, -1.479246554408674e-05, -8.968078181627323e-05, 9.7596631961602e-05, -0.00012152478537741948, 2.318735216797498e-05, -0.00011532036684171292, -3.531107939395651e-05, 1.5714898164479276e-05, -2.2475063576665644e-05, -3.4718656224271566e-05, 9.50839764153304e-05, 2.4668091463674045e-05, -0.00012468267052869532, -8.442810648671976e-05, -4.3926553920156534e-05, 7.879506922381663e-05, -5.144822274132648e-05, -1.874847122875893e-05, -1.0470305359212752e-05, 5.535975208393325e-05, -3.96010183937346e-05, 1.3081540268709618e-05, 4.218918266621131e-05, 0.00010191293102221283, 5.471213531146697e-05, -0.00012461805141888535, 1.339575434973492e-05, -4.25373969759326e-05, -1.7496016997632624e-05, -2.8387725341325554e-05, -4.5805679272740106e-05, -4.869126739979768e-05, -7.133053949631932e-05, -2.1643849803382837e-05, -0.00012491596329574346, 2.6157656128950915e-05, 0.00012725622751024823, -0.00010578212896309015, 9.426598821166484e-05, -0.00012021895352641959, 4.2574907361729564e-05, 0.0001176837970070676, -9.540156169939654e-05, -8.884986659716895e-05, -0.0001177832103237163, 8.763702460162059e-05, 6.147098914544374e-05, -6.218246962560367e-05, -0.00010230212805432868, 1.5483577815051266e-05, -2.3897206119886677e-05, 6.13253331572461e-05, -9.290849183389899e-05, 4.3384452971648475e-05, -0.00012491701650381255, -7.601024410081396e-05, -0.00010926964267047982, 7.889859730016238e-05, -9.424384573918497e-05, 5.482888236173497e-05, -7.503235304818617e-05, 5.521121455382822e-05, -7.325360697412177e-05, 0.00010164419282778396, -4.511596881188436e-05, -6.97121867463429e-05, 5.355043186181388e-05, 0.00010547862959796345, 1.2412462367678056e-06, -6.575992318953336e-05, -6.4545477550682e-05, 0.00012430485723838297, -0.00010816933572997339, -1.9933033380046747e-05, 7.690678626544347e-05, -8.72037990887117e-05, 2.310378003738088e-05, 0.00010060634139089722, -5.606254175211496e-05, -9.969724220850425e-05, -2.1285593149557673e-05, -3.197149079774363e-05, 6.370222134794213e-05, -0.00011576396423790625, 5.6281684635518476e-05, 7.051196796277655e-05, -5.516069339273397e-05, 0.00011130584357770081, 1.6925152572663804e-05, 0.00012404621209515036, 9.093192106189436e-05, 0.00010188919015348206, -6.891518208361548e-05, 4.75408949458956e-06, -6.083566858880735e-05, 2.1461104150384633e-05, -8.673297380189831e-05, 0.00012243010860976558, 4.40026200718785e-05, -0.00010954730316828524, -9.691153554425533e-05, 3.232951693947807e-05, 0.0001011475303711792, 8.086022256531243e-05, 0.00011122345221638581, -6.555740225416528e-05, 4.177945648338838e-05, 5.1806307337220504e-05, 9.155843069403337e-05, 1.5148105879840492e-05, 7.885005608401405e-06, 0.00010849025584247307, -1.9796124987501975e-05, -8.164982201883777e-05, -9.984288632049958e-05, -0.00010535978369434835, -2.794357615715677e-05, -3.3386621393977976e-05, -6.913629727053159e-05, -0.00011436954337243124, 9.897395141287848e-05, 3.156826595101352e-05, 3.197797231116841e-05, -8.186277329820895e-05, -1.3416618448051985e-05, -1.600818056891771e-05, 1.1415283941193684e-05, -6.543011971445667e-06, 6.836864390315099e-05, 3.312371756972504e-05, -0.0001252516801935888, 8.277408345361188e-05, 8.904927731037472e-05, -9.412801882023808e-05, 7.163971552446156e-05, -7.990625153672231e-05, -3.094262496000528e-05, -2.1142890997464928e-05, 3.0589597491126414e-05, 4.426113035697315e-05, 0.00012690248303557128, 6.753082988872389e-05, 0.00012256804540510194, -0.00012204876687045567, 9.764488464319738e-05, 8.45965574737577e-05, -6.391719186892855e-05, 7.418334117421913e-05, -7.897216832493377e-05, -9.320038249580946e-05, 0.00010911099552770142, 1.7133525294890844e-05, -0.00011379774189004742, -4.5173668981080644e-05, -5.1827238022243303e-05, -9.073174526096933e-05, 7.676287441249023e-05, -0.00011802282101621339, 5.618976066320766e-05, 9.794104031171882e-05, 9.087890202593094e-05, 7.903386632226525e-05, 0.00010734271468264159, -4.376858353422443e-06, -0.00012604142302484797, 5.916434713443732e-05, 8.139777970029643e-05, -6.0933644033305826e-05, 4.9026573274991146e-05, -0.00012724773079790888, -9.381518291982955e-05, 1.8950004065663733e-05, -5.5202752462873895e-05, 3.79148455301407e-06, -9.888305556832511e-05, -9.47264095565511e-05, -5.113227794131821e-05, -2.157916857524606e-05, 0.0001001424237224106, 8.598265139505518e-05, 5.7214932987065214e-05, -6.851760971189697e-05, -8.085053371442868e-05, 3.520292388144684e-05, -2.7690228426911962e-05, 7.992189120887263e-05, 9.07132977963448e-05, 8.711539912564898e-05, 1.3967384827965169e-05, -8.806052575956839e-05, -1.191920698383152e-05, -9.43377545578627e-05, -3.37388716758747e-05, -4.436193846384882e-05, 8.323975707061644e-05, 6.897072275061219e-07, 0.00012132119965260026, -3.424452086002056e-05, 0.00011915517638188286, -3.390464389716718e-05, -8.047913535731265e-06, -0.000110765123345772, -8.3884197017191e-05, -7.273120491783128e-05, 5.2565048914657686e-05, 8.709255314424582e-05, -7.989726244989008e-05, 5.116962417339374e-05, 3.973680667477316e-05, 0.00011444523108290153, -5.178437751666596e-06, 3.604152505311503e-05, -1.001428779294298e-05, -5.094557426916063e-05, -8.529851314073965e-05, -2.3068917419064765e-05, -8.16537132166611e-05, 3.6253845251977114e-05, -6.645202468479237e-05, 0.00012499499328430056, 6.336652004440225e-05, 5.52474994197039e-05, -0.00011004370551772785, -0.00011595863342975243, 2.842585811524494e-05, 8.619987958662326e-05, 1.381258711779217e-05, -0.00011802686563767357, 8.219671831762853e-05, 5.275545741772571e-05, -1.810587764355064e-05, -0.00011829928387902268, -2.6611740345788923e-05, 7.765118835945277e-05, -7.869949062647936e-05, 6.514849655003052e-05, 3.732869916730562e-05, 9.23443009801955e-05, -6.136824799523778e-05, 3.4650070173073605e-05, -0.00010140322234109336, 5.0014866550627437e-05, -0.00011727928438434432, 0.00010545523859968127, -5.903925413694265e-05, -7.553919060599018e-05, 9.215102856080559e-07, 0.0001124678669689466, -6.481989228603776e-05, -0.0001089213936546954, 0.00011857554443967285, 0.00011723010388092067, 0.00011332470851460155, 0.00011841631117787364, 9.538382823513303e-05, 0.00012736525828793832, -8.267190624842497e-05, -6.367097684572522e-05, 6.131518106177985e-05, -7.112749752221468e-05, 4.7289706945707975e-05, 9.668271500786935e-05, -1.4068896172300671e-05, 6.080763615603139e-05, 4.411383329599426e-05, -0.00012549269564515817, 0.00011036151000872804, 6.447422446130319e-05, -9.937536470522247e-05, -8.708760221805829e-05, 9.435837805591067e-05, -5.81886752541143e-05, 2.9583322097340895e-06, 0.0001054991247362352, 7.254606048867258e-05, -5.0837837119007564e-05, 5.622908671607306e-05, -0.00010580276964239567, 8.384770216277356e-05, -9.647126254008924e-05, -3.9566686567708725e-05, 5.5222470201459685e-05, 1.17091804673638e-05, 9.635151224848778e-05, -7.251191344021055e-05, -8.16968365173071e-05, -4.5952739635207535e-05, -6.828124832191002e-05, -6.672202536532178e-06, -0.00011452214571504623, 9.168462679303508e-06, 0.00012532501522826632, 4.697104656506499e-05, -3.311051553689526e-05, 4.1058332486518615e-05, 7.734290974478377e-05, 1.4643339520875424e-05, 7.301036449442868e-05, -1.8051955614657938e-05, 2.7516392425663578e-05, 1.830676324642553e-06, 9.884873310327678e-06, -0.0001240878928132032, 7.992172179065562e-07, 0.00011131995690848039, -7.944041981369509e-05, 4.789624150836333e-05, -2.568616922079012e-05, 0.00010765713655294521, 9.828472236979005e-05, -9.426468377661185e-05, 9.445977555359185e-05, 1.4730345936256762e-05, -9.297746401964621e-05, -9.449524304467794e-05, 9.427690511765962e-05, 5.451792201577384e-05, -7.924297173967656e-05, 3.216446295863486e-06, 2.9795606862837626e-05, -0.00011703349221972805, -8.48808717338336e-05, 5.532384029249746e-05, -9.745360344881283e-05, 1.5091296308413784e-05, 7.112189263360138e-05, -4.212442227912534e-05, 7.200157550890424e-05, -1.5235337876624193e-05, 8.492020224208019e-05, 0.00011155507288753647, -3.9780241846118295e-05, -9.845542189837982e-05, -8.37042996795127e-05, -6.932448323374836e-05, 0.00012396752327824666, -8.172444276667424e-05, 5.96791776153723e-05, 9.237958970895164e-05, 3.182763475119042e-05, 4.273215449968248e-05, 4.354371815064298e-05, -0.00010021346496636745, 8.334294679906699e-05, 1.0039523328755732e-05, 1.8780110120361234e-05, -0.00010019279598452807, -9.194328764310544e-05, 4.230144031047566e-05, -6.403042644416224e-05, -6.282659275364284e-05, 5.821452822466094e-05, -0.00010404500513137537, 9.520389612222935e-05, 3.053498622563511e-05, -0.00012738268418042075, -7.422369654404836e-05, 6.736113231822966e-06, 1.989252145541216e-05, 5.968074724690736e-05, 2.493220090713398e-05, 0.00012666690714912152, 3.45421145537481e-05, -4.061851526404413e-05, 0.00011356718149946241, 3.3839109391485195e-05, -0.00012011701416754252, 6.41973093455105e-05, -8.99716551921708e-05, -6.829846547539521e-05, -5.417332771767798e-05, 5.0165648529548266e-05, 3.130028396321348e-05, 8.55467719806343e-06, 7.842689435830092e-05, -2.7582354886501802e-05, 0.00010233846443694209, -2.0115919137652097e-05, -9.770433145077817e-06, 9.176668032045332e-05, 0.00010214478041135029, -4.252732000203949e-05, -6.728664395211324e-05, -0.00011241315350416128, -0.00011288765203246986, 1.3483985765136256e-05, 7.593558479752525e-05, 1.4340868586000337e-05, 1.7171081941269486e-05, -7.023829643366181e-05, 6.165330062947569e-05, 9.786903650079655e-05, -3.5833417438034444e-05, -5.9420226578809734e-05, 7.871274455469957e-05, -3.207165358001659e-05, -0.00011782975466972743, -4.18537583455394e-05, -1.8888522771210435e-05, 2.7680320812870107e-05, 3.084284644840542e-05, 9.553657273297301e-05, -0.00011581712020059468, -0.00012715440966509745, -8.336931690823355e-05, -8.541296218492222e-05, -1.54431194628879e-05, 2.5857665561912708e-05, -7.769954714945772e-05, -5.252080580908735e-05, -0.00010310908572969959, -9.064696887240617e-05, -9.1282619134292e-05, 0.00011393772051570158, -6.582736782565362e-05, 3.8216580676813194e-05, 1.698790113473052e-05, 7.864431774077914e-05, 6.011116393767975e-05, 2.6754808445599282e-05, 0.00011321571752288446, -3.3553079929001625e-05, 2.5461895752139928e-05, -0.0001010152595553101, 7.4477582275823574e-06, -5.941566776670745e-05, -2.655825960054701e-05, 5.896513790658576e-05, -7.500084361613483e-05, -8.459800883774044e-05, 2.2065760258016934e-05, 1.893645900339137e-05, 6.66071013589112e-05, -9.05767704831797e-05, 6.733683503149529e-05, -6.892050647537578e-05, -0.00010542143370932623, 9.172403474806082e-07, -0.00012061633714036218, 1.3551105811400714e-05, -4.243302271281753e-05, 0.00011962585822712617, -2.6657493415933615e-05, -0.00010983537582684804, -0.00010180995514943612, 4.787666182118158e-05, 5.2256122620138485e-05, 8.085395494698033e-05, -5.740484162372089e-05, 6.724963027070162e-05, -7.130579802723999e-05, -2.387561955043999e-05, 3.231380321170752e-05, 7.382973381103196e-05, -0.00012128638188766455, 6.775797683042745e-05, 8.505495579064565e-05, 6.314835281127686e-05, -0.00011943147938976023, 9.883565766089719e-05, 3.634227724769571e-05, 7.660630147380929e-05, 3.5686871599512904e-05, -8.541203899108361e-05, -0.0001250991060824759, 1.9802977878854187e-05, -8.908148352862369e-05, 4.118005321068477e-05, 0.00011079278561303968, 8.874305211016198e-05, -0.00012609388065317956, -4.612967672737334e-05, 2.0576301067867764e-05, -0.00012544762320705228, 0.0001161301697789749, -0.00011070942888784607, 1.5346937875037074e-05, 1.7752687282479648e-05, 1.9805458380496575e-05, -5.034003632004738e-05, -9.043862064874027e-06, -6.059912229978721e-06, -2.305393966632544e-05, -4.065456349368862e-05, 3.8149405679745564e-05, -3.215100898839887e-05, 1.0149716837204622e-05, -0.00010852283891228911, -9.429352160708867e-05, 7.864022923808708e-05, 6.800804997252414e-05, -0.00010550941343538942, 7.002811834833325e-05, 2.124936420116585e-06, -0.0001232538657319547, 0.0001215399686472804, -1.5736265437666577e-05, 4.035782416345153e-05, 0.0001017694254122497, 4.268918193132169e-05, -5.9406302444367246e-05, 7.841860577934323e-05, 0.00010690796812295909, 5.3593384270347184e-05, 8.10416863879675e-05, -9.957855041613987e-05, 5.5565497841194654e-05, -8.809165050355712e-05, 0.00010690865858894958, 6.028659360754866e-05, 9.916890780350188e-05, -8.91288147440202e-05, 4.9494422053234366e-05, 0.00010723772048497947, 0.00011740118259535523, 0.00012444122178344822, 3.421862328717628e-05, 1.6882148906435127e-05, 4.5777163267123425e-05, -6.735014651158976e-05, -9.39796167934413e-05, -8.853424363727294e-05, -0.00010849708144917294, 3.0502971314785897e-05, -1.459111060104351e-07, -5.880903472941191e-05, 0.00012073880227045556, -0.00010484179976728551, 5.3214324876083564e-05, -0.00011985640721036441, 3.161436915762935e-05, 4.719292771532739e-05, -9.927183560628537e-05, -4.4634404678897556e-05, -5.247222038265158e-05, -4.5802923921990014e-05, 2.163879426314399e-05, -0.00011168161052364461, 0.0001267878041372011, -0.0001235439334707746, -5.158899142982839e-05, 3.996922541011341e-05, 0.00010149634366569302, 4.5701475074596255e-05, -0.00010713077018359097, -4.648291463176679e-05, -0.00012117738272113886, 9.440941563160416e-06, -6.943853683883804e-05, 2.107049353010954e-05, 0.00010336090183084774, -4.534314485424536e-05, -6.748540927013174e-05, -8.496109740523084e-05, 5.067932711089189e-05, -3.516187136074586e-05, 8.802813364971959e-05, -0.00011183948521425019, -6.006607137614252e-06, -3.146994011091322e-05, 3.004245336038372e-05, 5.4588087241408596e-05, 4.388769287074535e-05, -5.0351857788101095e-05, -0.00011708988704593827, 1.1465187155844858e-05, 0.0001147513589192868, -0.00011877391106122331, 7.463748202923899e-05, 5.481672961826001e-05, -6.672425269908108e-05, -2.0240879689668758e-05, -7.111277037171295e-06, 0.0001235220821136975, -5.371366961568431e-05, 1.9943914159945183e-05, 0.00010779325658427008, 0.00010598687966050593, 3.255862284589298e-05, 0.00010675815917035411, 2.8964953846927037e-05, -0.00011785743219105702, 9.251777849398656e-05, 7.70786827548329e-05, 0.00010500410973740082, 3.312179143768743e-05, 0.00010861564703864761, -2.5697785757574158e-05, -9.890361517809324e-05, -3.496222762493259e-05, -1.9548537687649684e-05, -6.016364505347773e-05, -5.319235839114797e-05, 5.233217951261654e-05, 2.9076650778726776e-05, -3.662879425120088e-05, 0.00011903978960894283, -0.00011541743683272931, -8.121107185802743e-06, 3.183495650081092e-05, -1.9827967445424483e-05, 5.4230994606673376e-05, 0.00011764651803906768, -5.941964709009031e-05, -1.2465760110685745e-05, -3.4748810829041184e-05, -0.00012533364017170253, 8.761320825931043e-05, -2.7560038150392652e-05, 1.9626853136211326e-05, 0.00010947707542528437, -7.375109005998912e-05, -8.470821562623555e-05, 6.311451788760761e-05, -2.407284059802255e-05, 1.2456627204068534e-05, -6.272418910984638e-06, -0.00011923752315462301, 0.00011936330641511975, 5.672550100740228e-05, -7.382430452757685e-05, 4.770489522338437e-05, -9.133032671822246e-05, 5.3841515225055506e-05, -4.910530316212493e-05, -1.4816330156060438e-05, 5.947620853887228e-05, 5.247224289333338e-05, -2.822839604544199e-05, 0.0001233517406437267, -4.7540127993225457e-05, 4.4285124947845065e-06, 0.00010815458160579187, 7.605008340291648e-05, 4.8759425595774895e-05, 1.78462563089641e-05, -4.778366226997848e-05, 2.941891063959524e-05, 4.9746651327655216e-05, -0.00011352121734338352, 4.4208386014124386e-05, -7.362003802669195e-05, 3.961087659061066e-05, 8.523867458917883e-05, -0.00011695419890426898, -6.133383266433576e-05, -9.637166179886133e-05, -0.00011289995158226525, 1.1674010617823715e-05, -9.157392196145698e-05, -8.040529138045706e-05, 6.97614012400534e-05, 5.306088651115834e-05, -3.395695523365925e-05, -2.528985808738875e-05, -2.627984125803675e-05, -9.21879541792265e-05, -0.00011951592276713302, 7.381710807803798e-05, -2.271870949176885e-05, 8.64344241301374e-05, -0.00012521902952855807, 9.165474231189895e-05, 9.604615475215476e-05, -0.00011820396049506267, 9.436501086599572e-06, -0.00010642629799664249, 9.855569997595144e-05, -3.955331830254157e-05, -8.499652503394049e-05, -0.00012128060690918384, 5.4580591812146593e-05, 5.161894022468591e-05, 9.228283144081275e-05, 0.00011882982552736292, -1.494995138376584e-05, -6.577121260353504e-05, 2.2808893918025633e-05, 0.00010706082722330396, 5.259422327851537e-05, 8.422368350997405e-05, -9.455964670477407e-07, -6.791119556877231e-05, -9.804319386857151e-06, 0.00012730305302913983, 0.00012740711988160715, -7.440738801130244e-05, -0.00012307146791747534, 3.243802903785868e-05, -1.2392823721848936e-05, -0.00010164226756121629, 6.720363288772225e-05, -7.728590008371249e-06, 1.0078710938422972e-05, 3.947595947156467e-05, -6.440276242318586e-06, -0.0001108089595914102, 8.395312032006359e-05, 0.00012253860414554988, -7.848418156638061e-06, 9.291618209472887e-05, -0.00011739390657432294, 0.0001031760032113922, 0.00011462297045244536, 1.6151038653189192e-05, 2.8078192156857918e-05, 9.983111376312395e-05, 9.036676456170768e-05, 1.4477970885304227e-05, 1.836930359643866e-05, -8.988100774533206e-05, 0.00010819823314468307, -4.700458691572281e-05, -6.057521821261375e-05, -1.0282941664671326e-05, -9.719293942270852e-05, 0.00010692280021676264, -5.82561587517212e-06, 1.7777857816429525e-05, -1.3991271736313293e-05, -9.319047933938472e-05, -0.00011765917396899819, 0.00012303107775160228, -4.4996772775294806e-05, -3.6230577837919254e-05, -1.9138016664549286e-05], [-4.1725924841050705e-05, -8.615323040992607e-05, 8.643698910390347e-05, 0.00012015432174086307, -9.534765152424077e-05, 9.043611963837309e-05, -3.9760091961918887e-05, -0.00011067766039592642, -9.403763827251163e-05, -9.515312597069118e-05, 7.415787889325065e-05, 0.0001057207301964236, 3.384087510103161e-06, -9.852288474598496e-05, -0.00011809050760472472, -3.854601756905153e-05, 7.981148487783118e-06, 4.211581785594802e-07, 4.310594141688068e-05, 4.088137580260517e-05, -1.7124383668314676e-05, -8.43757511433351e-05, 1.9259591676364204e-05, 7.726292408523504e-05, 0.00011329159936490101, 0.00010371338514840792, 0.00011735224096071694, 8.542806797593252e-05, 5.5444550950541116e-05, 1.8028375883097228e-06, -0.0001220292284899569, 2.8114051499909984e-05, 5.596638725292341e-05, -2.0603772049729946e-05, 2.4237922807609493e-05, -8.649758843357782e-05, -4.040067343210024e-05, -6.926803786983997e-05, -8.590218598448552e-05, 0.00012045396775832317, 2.492713474501365e-06, 3.494075899968651e-05, -7.571324142787402e-05, 9.313480351428093e-05, -3.3417181073149397e-05, 9.386271971918898e-05, 4.180586263162042e-05, -3.064675200113655e-05, 1.1039583132179754e-05, -0.00010786846088767232, 0.00010268896287598656, -1.2210785030764134e-05, -5.7006827482846224e-05, 0.00012070113775253172, 0.00011411076205967874, -2.1591237513823707e-05, 9.282374497013945e-05, 8.388407839314794e-05, 9.727519057542947e-05, -5.228398262707394e-05, 3.91874334881478e-05, 1.76509073594344e-05, 1.716286181963002e-05, 1.2129596350766427e-05, -7.523218891349563e-05, 3.606539526282125e-05, 0.00010853735618585145, 8.480394801221606e-05, -0.00011532354138922624, -0.00010527763240668639, 4.170821351407784e-05, 4.476508651206387e-05, -7.475680175764746e-05, -3.392245715926729e-06, -0.00010000342278488265, -0.00010556581443083917, 4.219343118226446e-05, 5.395773202397868e-05, -2.4935855931583203e-05, -4.4098921959054996e-05, -0.00010908338190465537, 6.0294297150336105e-05, -9.821655193733362e-05, -5.060212311902828e-05, 6.61445109843521e-05, 6.893301261948522e-05, 5.52334120247498e-05, -0.00010072865491508732, 4.8614934276828006e-05, 2.2074350122648765e-05, 4.8187189314365045e-05, -2.0745484672357487e-05, -1.2832161582420504e-05, -0.0001239729241903871, -7.406885467761302e-06, -6.49056437748828e-05, 7.968168841255604e-05, 3.194197224039197e-05, -9.39712035591382e-05, -0.00011688177645286879, 7.576354118191554e-05, 6.913344196717453e-06, 6.926616535700428e-05, 2.9535115852990525e-05, 4.5177329780222164e-05, -6.310208237230342e-05, 4.9326786478458654e-05, -0.00010371497870925428, 4.5734339102104435e-05, -9.791591921254418e-05, 0.00011542372473224122, 6.066689779271107e-05, 2.8882958225217204e-05, -3.345047241886831e-05, 4.3475218575030755e-05, 1.6440622504321038e-06, 9.905083545349846e-05, -0.00011506983716121265, -6.304223878012647e-05, -7.921903586863714e-05, -1.5578091011305167e-05, -2.1811492094402216e-05, -0.00012115860226904218, 1.843157770451318e-05, 4.354915639699418e-05, 9.668684283869737e-05, 9.472884278447036e-05, 6.54100493488008e-05, 7.795412802355593e-05, -3.598270379667778e-06, 3.270464093636616e-05, -0.00011368885257657545, -8.993449954300971e-05, 6.765300671013825e-05, 8.273561686938378e-05, -6.137880082312465e-05, -8.807384349643802e-05, -0.00011992245553116244, -4.329647238518213e-05, -7.042343673117104e-05, 2.95215243781012e-05, -9.27684185528344e-05, 1.9169698485639206e-06, 6.272380214443702e-06, 9.42186626168836e-05, 0.0001145143641970192, 0.0001228317160192397, 5.061382287256196e-05, -9.687561383177169e-05, -4.448144479643623e-05, -6.83061134876602e-05, -5.45160364951467e-05, -7.777993163938214e-05, 6.695140959038994e-05, -4.5633897609899476e-05, -0.00012065451263545621, 8.771290190016091e-05, 9.091353095128502e-05, -6.9576785818438325e-06, -7.996465157337161e-05, -4.377991929165827e-05, 6.990579934374787e-05, 0.00011840580554526488, -4.502062459820146e-05, 0.00011900478763539896, 4.2886659018674886e-05, 3.898092018981237e-05, -3.119951624119215e-05, -4.0598720261386496e-05, -9.296919329733301e-05, 5.693637576680473e-05, -2.2456501014507893e-05, -6.0605558571043924e-05, 0.0001254762117228004, -8.034429120551108e-06, 0.00012657379532040835, 0.00010163322195712502, -8.817546354387742e-05, -5.1282765585735454e-05, -3.949023356707199e-05, 0.00010902405590196877, 1.0018467630626155e-05, 3.7380197570102346e-05, 0.00010644293305642484, -7.204501997662735e-05, 5.095999434565849e-05, 5.432846588392664e-05, -9.472456137206667e-05, 7.860794126285939e-06, 3.939808245655347e-06, 5.420638904900027e-06, -6.246720346944467e-05, -1.704730949607749e-06, -7.129142409549743e-05, 0.00010943961224569615, 9.366035375126287e-05, 8.358959564840496e-06, -0.00011501108820475698, 8.974060514183081e-05, -8.289347339332494e-05, -8.942451416343961e-05, -9.660435489344007e-05, 7.68565457414051e-05, 8.67713783803403e-05, -4.437234955178457e-05, 8.422306188633581e-05, -1.1200298225200558e-05, 0.00010147355915400794, -2.5051309556142375e-05, 4.48437309500279e-05, 1.574118849718576e-05, 9.494840786807948e-05, -0.00010291361390636522, 7.755386386677639e-05, -5.903083383237613e-05, 4.291778760158599e-05, 9.498626224257922e-05, -4.989621614520472e-05, -3.973520444319559e-05, -3.428379740328716e-05, -0.00010176393259605299, 9.747629436082712e-05, -0.00010074311029092993, 7.66962155117511e-05, 7.06962344467775e-05, 0.00011336947672161392, -4.210670616418611e-05, -7.109865238719258e-05, 8.68147686379277e-05, -9.860381771524865e-05, -6.800128488991385e-05, 5.287042652334414e-05, 0.00010384045795333856, -5.412902160850983e-05, 6.688804068702278e-05, -0.00011763610866934045, 4.64500315516813e-05, 6.881858649221576e-05, -5.904349660046554e-05, -9.013178582076218e-05, 0.00010712816041664197, 2.686545187282009e-05, 3.2869339155550257e-06, 0.00011026140213174658, -5.377481023895759e-05, 2.66220144444928e-05, -1.2518520777516977e-05, 9.550142406818827e-05, 1.2369532636541304e-05, 3.2093891574481485e-05, 1.0634633847207763e-05, 5.101951266787701e-05, 6.45492909874378e-05, 3.4859735593463785e-05, -2.090168144844393e-06, -0.00011347570629998525, 8.391149073579405e-05, 8.866595884639836e-05, -2.6215948239169157e-05, -3.891240728278045e-05, -8.699623426179808e-05, 6.303982804330498e-05, -9.441905078211711e-05, 7.627570601481277e-05, -8.842043127418426e-05, 9.93329842997078e-05, -8.397732629975486e-05, 9.31132688934144e-06, -5.716762227703546e-05, -6.285819562202029e-05, 0.00011315967706059312, 0.0001265431635385196, -9.735636819579276e-05, 4.1521060392723684e-05, 5.163396172835986e-06, -4.8662423520225085e-05, -0.00011164196328149695, 1.5588220752660157e-05, 6.335461157383786e-06, -2.8777284505031763e-05, 6.910901640533386e-05, -4.887152422134495e-05, 0.00012093699551907735, -1.5117266312978739e-05, 4.998397458144917e-05, 9.498014003692079e-06, 2.8856297680847355e-05, -0.00010167609760528505, 0.00010497421861974446, 6.388735893061667e-05, -6.808817827320596e-05, -0.00012337869561828332, -2.394711938488723e-05, -0.0001240763419609792, 2.2489589301956013e-05, 5.062568557882121e-05, -0.00011506361418290793, 9.078109670409152e-05, -0.00012260439208588671, 0.00010039018697620778, -6.651991640852707e-05, -8.55027208910305e-05, 0.0001034304098344582, 9.257728745213176e-05, 7.373804236347154e-05, 1.2646497461407408e-05, -0.00011791238925962114, 0.00011560652271265608, 5.9650740125331966e-05, 6.439044531718485e-05, -2.447378580641461e-05, -9.138404665442632e-06, 0.00011870146802981021, 5.223333794590426e-05, 3.971641312914885e-05, -7.801845597114228e-05, 7.183871855239459e-05, 0.00011462103235510888, -0.00010035089032332063, -4.039336565570938e-05, -0.00011543273238676277, 1.7845426346599836e-05, 0.00011920685465174931, -0.00012471152444406685, 3.636611738249871e-05, 5.060762953293515e-07, 0.00011204472263186677, 7.074543220887042e-05, 2.6697746741291268e-05, 6.240924741013495e-06, 1.786345089604105e-05, 6.347739332745424e-05, 0.00010727828644148529, -2.2799069220604983e-05, -2.266579539233278e-06, 0.00010587868692589384, 1.9683586776372287e-05, -9.317614303119986e-05, -2.440032614640208e-05, 0.0001156813116029795, 4.511816247691285e-05, 7.952755196744159e-05, -2.3030083932108562e-05, -4.926681709501932e-06, -7.83719495771578e-05, -1.2992000874809985e-05, 6.99310233160416e-05, -7.236843104559227e-05, 1.9274832332726574e-05, -6.294366301336929e-05, -7.3671970080558e-05, 0.00010372509199064199, 9.039354478762154e-05, -0.00011854566284015928, -0.00011305263256169282, -0.00010818614387618315, -6.349854704635904e-05, -5.762472037640653e-05, 6.559933801316392e-05, 9.339553374584466e-05, 7.212896559091571e-05, -9.991002580601256e-05, 7.784334980639772e-05, 7.194192211028236e-05, -4.05286946035901e-06, -2.517058913894894e-05, 7.064402204323145e-05, -0.00012108761046412393, 0.00010067129361257231, -7.40605410853987e-05, 0.00012153866341775208, -9.695836282684784e-06, -0.00012156675230329662, -1.273994784142141e-05, 0.00011527882603078047, 5.9705662025836906e-05, -5.744502737201999e-05, 0.00012150897454878027, -8.302024433674389e-05, 0.00010281879184486467, 9.916883476806883e-05, -9.969910464939142e-05, 2.221510572965892e-05, 0.000120096797378835, -4.6195831600647537e-05, -1.3777867457719019e-05, 2.8226789425337067e-06, -0.00010876882117918311, 8.92624479157819e-05, -6.5457314857088205e-06, -2.163379728334226e-05, -2.8488763397768823e-05, -4.257114804012161e-05, -0.00012277284915968573, 1.4061183481719965e-05, 9.445712034763623e-05, 8.53396865348231e-05, -7.827956420406524e-05, 6.620037648120665e-06, -0.00012673685291788355, 4.184957495047561e-05, -9.558077138163245e-06, 0.00010284886051525191, 4.729656667630515e-05, -3.1194767723180547e-05, -0.00012102798506067958, 6.958297991086499e-05, 3.4145599031556725e-05, 0.0001174757365898914, -2.2218286089819433e-06, -8.614658193532398e-06, -7.310288709009911e-05, -8.293850609586783e-05, 6.612713963201038e-05, -1.801115581754572e-05, 2.4201900898988264e-05, 9.463879267193667e-05, 0.00011900757785297071, 5.312543079391684e-05, -3.105880224237014e-05, -9.042329800544326e-05, -5.735887085359469e-05, -9.580539106595301e-05, 0.00011045789287960448, 8.731860631880191e-05, 9.225776790067841e-05, -8.852189862992559e-05, 6.251677277459918e-05, -2.2546595939356697e-05, 6.345438236487946e-06, 0.00012471010999795548, 0.00010668293628048585, 3.53851388442404e-05, -0.00011650799673317313, -9.454811214858162e-05, 1.9932005005088945e-05, -2.012797105694472e-05, -0.00011509129451429786, -4.7975099567698515e-05, 0.0001234423069652064, -4.347803649468682e-05, 0.00011213915563385841, -0.0001247755188549576, -0.00012226124530842543, -4.313017861782485e-05, 9.264354760208075e-06, 9.582494205392008e-05, -9.654753184451797e-05, 4.6376851977306946e-05, -0.00012044115339296022, -6.550616837349799e-06, 8.790931889946613e-05, 1.6988421102791316e-05, 8.543342616192599e-05, -6.120880477686287e-05, -8.737467839584125e-05, -1.2315825733991538e-05, 9.802876586638536e-05, -1.6388660620623194e-05, 2.598680957857907e-06, 6.42132612885384e-05, -8.772447525148407e-05, 2.5031106871350712e-05, 8.859012890333827e-05, -3.378147310162439e-05, -5.905315048933706e-05, 8.785435346320757e-05, 5.736267515330008e-05, 6.523074869105305e-05, 8.158358500987082e-05, -0.00011362440484217342, -4.606793888031302e-06, -0.00011587954757548324, -0.00010368009729786198, -5.894285536936505e-05, -0.00012057326726003616, 0.00011535529837697277, -1.4960094287161775e-05, 0.00011941127375408284, 5.332065335077532e-05, 0.0001212380450537691, -0.00012065250672101554, -9.470193002897492e-05, -0.0001105968427711754, -3.92091787426717e-05, 6.14131111016374e-05, 5.638896272805486e-05, -5.328240224730475e-05, -9.083319849789617e-05, 0.00010737577792630856, -0.00012256021220545315, 2.205295434802978e-05, -3.5377820931811235e-05, -1.891399328352852e-05, -3.4755026801777894e-05, 7.815085327034495e-05, -7.620779855340679e-06, 0.00010271412955061533, 4.73598224099665e-05, 1.2796982370502815e-05, -0.00011272280430818099, 0.00010663545833858028, -9.380782102253317e-05, 4.392290005609516e-05, -7.826565307871997e-05, 0.00011923623132000062, 0.0001194337090516977, -2.3693432521807908e-05, 8.936876397191687e-05, 8.444245088809718e-05, -3.1596737612954454e-05, 5.4640961507332506e-05, -0.00012198590372555413, 2.4577904763659347e-05, -1.1830476440554154e-05, 0.00011743929674427257, 6.149614657469582e-06, 6.393279289965629e-05, -9.083061999550589e-05, -3.0116702603790063e-05, -7.164789059344305e-05, -0.00011928084084313047, -0.00011101117888128454, -6.951067738271619e-05, 5.3798164963834844e-05, -0.00010219377728244163, -2.7246039773490748e-05, -9.439405776103327e-05, 1.2797091825591796e-05, -3.4232968836349234e-05, 7.514855620761888e-05, -9.558688216706748e-05, -0.00011132398219154285, -2.0265798527655908e-05, 7.619994266279016e-06, -6.158229486976329e-07, 0.0001222072166151866, -3.82756409801484e-05, -8.388845198953827e-05, -6.201804018006201e-05, 4.749582772423404e-06, -9.573905362291028e-05, -5.028590954509402e-05, 0.00011750705456371384, -0.00011651428382147356, -0.00010600909488476856, -0.00011626252938555305, 6.994109780135694e-05, -0.00010436185114991329, 2.6539427542913065e-05, 3.784941903622867e-05, -0.00011687545509852871, 0.00010742935491889376, -8.672840158468639e-05, 3.7738571144894275e-05, -3.031519526433416e-05, 0.00010429984178928427, 0.00011838859772082477, -0.00010394728575052777, -6.773893815738841e-05, -0.00010525867090401847, -6.78588167286416e-06, -0.00010825187677191179, 6.938392059441816e-05, 7.305957350770586e-05, 6.110135952801246e-05, 3.7152298088543106e-05, 7.66385578321546e-05, 5.9616552005703876e-05, 7.323170426689845e-05, 5.907559945914941e-05, -4.656226567947082e-06, 3.7055764025752675e-05, -0.00010803514126640917, 5.5316559943700846e-05, 0.00010438058277687344, 2.2698353954223385e-05, 7.550166387851125e-05, 6.925054048622224e-05, -1.4884394693716026e-05, -2.2202477707561102e-05, -4.316266826065504e-05, 0.00011356462483437396, -0.00010656009938523418, 9.175580610463263e-05, -3.2014318245175664e-05, 7.874190005945634e-05, 7.600159854482443e-05, 3.5681075080542904e-05, 3.312510396177382e-06, -0.00011339638496065673, 7.754138384478301e-05, -0.00011862287345459487, -2.9128241219321024e-05, 2.8567235985112964e-05, 8.067055597662657e-05, 6.824837781958866e-05, -0.00010508806830023852, -6.976644743206015e-05, 5.352415577984226e-05, -9.141669842676876e-05, 4.8514018642751144e-05, 4.916458163308853e-05, 0.0001207908310060652, 9.613042543150632e-05, -3.43867327126823e-05, -2.847025673329885e-05, 3.661656843192153e-05, 2.2656754953444247e-05, -8.78121507979359e-05, -0.00011207156334317626, 5.808799629524568e-05, 0.00010314887209136699, -5.421448484015897e-05, 1.3672840098085943e-05, 0.00011649756777834801, 2.145469684257421e-05, -2.196539608410363e-05, 3.038247033562971e-05, -3.57168184012063e-05, 0.00011785827333567822, -0.00010869662573130548, -5.431912980900402e-05, -4.986253952993352e-05, 3.691740298401654e-05, 7.72010171646839e-05, -3.255900493716837e-05, 3.476632763440668e-06, 8.359015259492314e-05, -0.00011998138304731223, -0.00011659138667545492, 4.081481695512876e-05, 6.48902593055496e-05, 5.3004350049977987e-05, 2.9200749427729026e-05, -0.00011265999347857101, 1.7279251876731855e-05, 0.00011856316941916943, 4.344945253725884e-05, -2.224941436919697e-05, 0.00011208165840569586, -3.375788057722626e-05, 4.777983373926422e-06, -1.2099679915890696e-05, 5.327051105209614e-05, 9.465121012038376e-05, -4.2882249881707144e-05, 1.0145791169395936e-05, 3.867252547739277e-05, -3.143521522118305e-05, -3.3774369610532676e-05, 2.8028976538093914e-06, -0.00011452787067130657, 1.7489124330166803e-05, 6.954621890810665e-05, 2.087597341310183e-05, -4.307311925912651e-05, -2.396193682481563e-05, -1.8582363858816272e-05, 5.737085720507289e-05, -0.000126857105762656, -0.00012231326682972298, 9.208097590704711e-05, -0.00010992421994432988, 1.8827557205694272e-05, 6.345844483886828e-05, 0.0001214950564532986, 6.920142918295877e-06, -2.7995967076935517e-06, 2.2284086014141097e-05, 0.00011958847654384003, 5.278969906736023e-05, -7.912213586030481e-05, 6.759945291307551e-05, -4.0535789494375187e-05, -4.3995156789091694e-05, -1.962337560042042e-06, 8.135251117674769e-05, 6.673918655819612e-05, 0.00010307145286419115, -3.508979873617581e-05, -5.8021576319577137e-05, -3.725832789344478e-05, 4.882514960052402e-05, -9.8598648476559e-05, -9.626578509491889e-05, 6.857610343096361e-05, -0.00012040669482907227, 6.212041413277436e-05, -4.3484092335125744e-05, -1.2964772039056522e-05, 1.959970227587615e-05, 0.00012694609457902052, 8.587940891441788e-05, -7.864060959715913e-05, -3.637773489626512e-05, -4.109995076574702e-05, 0.00011762854128593168, 0.00012270741647741468, -1.3828789444294653e-05, 2.8738563701619828e-05, -6.819197227078036e-05, -6.535828943230663e-06, -9.7079050790958e-05, 8.559799000856501e-05, 8.782463483685274e-05, 4.8960301850018e-05, 4.510611771446175e-05, -1.1669375399821344e-05, -2.7389568360094247e-05, 8.676750077391796e-06, 6.3852526472100815e-06, -6.58821019364677e-05, -6.546245648573405e-06, 3.9001861745667346e-05, -6.733630574115427e-06, -4.552005026364769e-05, 0.00011103895072774592, -8.948405768428529e-05, 3.108431709248976e-05, 0.00011399668536741451, 7.14816161311906e-05, 4.8942936057778205e-05, 6.259701463034876e-05, -6.428892147216574e-06, 7.436868430368323e-05, 7.235564229744545e-05, -7.954826076048482e-05, -3.0306670384213037e-05, 1.3269903313694198e-05, 5.0576476909867336e-05, -0.00010671741172955, -5.4981222367595374e-05, -3.183396992611254e-05, 7.133911616313859e-05, -4.944869952628042e-05, 0.00010469387640979312, -8.618307767217887e-05, -1.0237716861166138e-05, 1.3539420263039256e-05, 6.489593717906526e-05, 9.63017868554041e-05, -0.0001254061914564859, -8.315448172543062e-05, 9.589801790061087e-05, 0.00011150269460453099, 3.1216520214435366e-05, 5.795418667650393e-06, 1.4429081710070896e-05, -4.965858103247937e-05, 0.00010670046729906251, -6.897173735272322e-05, -8.724474541723662e-06, 3.092032329221684e-05, 3.940610675752033e-05, 7.924708985144311e-05, -3.396784483347151e-05, -0.00010542223407965263, 5.7202121607680684e-05, 0.00011379840862340933, 8.861961045508267e-05, 8.310242085966831e-05, -7.645579430862735e-06, 1.438563040644014e-05, 0.00011632367163363891, 9.983225841768723e-05, -4.133825996547409e-05, -9.437876765713276e-05, 9.94371070105573e-05, -1.596578867227201e-05, -1.2143893427846186e-05, -0.00012612739672678743, 3.200625999653095e-05, -8.368286491395375e-05, 0.00010157525584018757, -9.960497272781144e-05, -1.81359036711747e-05, 0.0001083934886705562, -3.134883431131593e-05, -9.073958263126454e-05, 9.793019921194455e-05, 9.291083457962839e-05, -8.81738663124001e-05, -7.842724844197451e-06], [8.837740863131508e-05, 6.230909119318258e-05, -7.26792453694839e-05, -5.5438063966882606e-05, -6.384751848316191e-05, 7.040849411184055e-05, 7.790440551349733e-05, -3.2069970536641235e-05, 2.1737986434255475e-05, -3.5078461001838325e-05, 0.00010521031145989347, -9.817294975284224e-06, -9.20650970567125e-05, 0.0001050042815969626, -3.8448918339478296e-05, -7.082683236705914e-06, 6.95292131022444e-05, -8.988671140253482e-05, -6.552370634750015e-05, -6.155750807251086e-05, 2.6783959567558263e-05, -5.360343399263321e-05, -5.011855214102257e-05, 3.4240370012692e-05, -5.9926306873333516e-05, 2.613417544264523e-05, -0.00011938716726779647, 3.5674928792157284e-05, -0.00011898275512372465, -7.860538230753793e-05, -0.00012735990041564988, -6.595676451192908e-05, -2.2344785960689877e-05, 5.0547269373700824e-05, 6.395647465820676e-05, -0.00011398652939686931, 0.00010646091332534829, 9.914894353174481e-05, 1.3933044504050337e-05, -4.7041346951257565e-05, 4.717167833612416e-05, -0.00010606670402391649, 4.9192127608214305e-05, -3.7798155879279577e-05, 4.0800249002619124e-05, -9.48984393135973e-05, 2.5077735010296808e-05, 5.4052209625668564e-06, -9.506961748029128e-05, -7.732341710796947e-05, -0.00010247644373262616, 0.00011757290952937669, -9.189015351555556e-05, -6.400381196977099e-05, 2.925923406593375e-05, -9.062095179059841e-05, -0.00010531958112070189, -2.50936834843671e-06, 3.679561657311003e-05, -1.7698578249366117e-05, -2.2524310159566697e-05, -0.00011834581385787701, -5.635137878603443e-05, -5.848672621029767e-05, -2.041720621599214e-05, 3.330180520856791e-05, -0.00011914824025114292, -6.0038264201579414e-05, 0.00010896077379188849, 0.0001155568003521502, 8.598113826554829e-05, -1.8383936945288244e-05, -2.4452113499276017e-05, 0.00010421361857912375, -5.655040824332522e-05, -0.00011424716540433055, 2.6200968671897736e-05, -0.00011444224566691358, 7.288166533229331e-05, -0.00010933017841154697, 0.00010986518983117754, -0.0001210444384408621, -8.037885298821448e-05, 6.0303001853858066e-05, -3.61702194507658e-05, -5.104816486669132e-05, 6.999565554318763e-05, 4.806680910973556e-05, 5.016571532438637e-05, 9.334586070562512e-05, 3.133852332429807e-06, 2.3572109441275186e-05, 8.976422657420333e-05, -8.717725300526986e-07, 2.117274906789611e-06, 5.085586007751255e-05, -3.8121200374968404e-05, 6.12174293168827e-05, -9.749490768104575e-05, -0.00010022222741428153, 4.8886565094651674e-05, 7.426756089357288e-05, -1.7481205712929402e-05, 0.00012513687980801721, 9.971468701663701e-05, 2.5408305736664072e-05, 5.4300840165895004e-05, 9.93172319824604e-06, -8.455196219979353e-05, -0.00010968537925840156, 8.57414980234974e-05, 0.00011686171894234548, -0.00011698232399418514, 2.698256141473441e-06, -2.3769929521020185e-05, 0.00010514885149960791, -3.128659170492206e-05, 7.564988261542707e-05, -8.52476148614743e-05, 1.4742731655678847e-06, -0.00010447110370484321, -8.210212628205547e-06, -2.1662657857345493e-05, 8.29994469765417e-05, -0.00012626588392468093, -3.248194174538719e-06, -7.41723202451688e-05, -7.382656305489216e-05, -0.00012274637911905654, 0.0001037199675363719, 6.199033189626453e-05, -6.291119084919109e-05, 8.872867403449263e-05, -2.1153287964418037e-05, 2.4444276953645027e-05, -0.0001045199485458514, 2.427159575204682e-05, -6.822747083472065e-05, -7.0965943468386e-05, 7.551436554724346e-05, 5.743528163804116e-05, 7.372535523826405e-05, -6.545230500233754e-06, 8.77807950932354e-05, -5.345034691170535e-05, -0.00012078030593591928, -1.7262397889429116e-05, -7.97853523865269e-05, -1.519670678342825e-05, 0.00010964551732029791, -9.228068048193576e-05, 7.328057186209067e-06, -6.207980302233227e-06, 4.867944902498997e-05, 4.973589719176834e-07, 0.00010775520519530973, 1.5179668114322433e-05, 0.00011071852325737788, -4.690659870544289e-05, 2.579456347053626e-05, 7.785190412457658e-05, 2.13254894438688e-05, -5.436645968279457e-05, 4.2985286797608566e-05, -9.157483996098536e-05, -2.5150272020057607e-05, 7.859682039317118e-05, -3.369777540430138e-05, 2.336565694166315e-05, 5.158280813009424e-05, 7.31510881104603e-05, -6.64078331746845e-05, 8.35581822627085e-05, -5.391021573899465e-05, -1.5254028523280856e-05, 4.479394259718887e-05, 7.134209453699594e-05, -0.0001148496244698236, -6.679342111044535e-05, 0.00011198124941934256, 1.9764138386944918e-05, -0.0001222852789302716, -0.00012349333787429613, 8.148779939357397e-05, 5.93198760055771e-05, 8.3229560396317e-06, 0.00011623314971429, -8.066234692823542e-05, -0.00010417358316482388, -4.9423424174353036e-05, 6.529364997288683e-05, 9.569754862599362e-05, 3.2627757306250395e-05, 2.8219236259016808e-05, 0.00010902640165403423, -2.3968404356713685e-05, -0.00012532828957687159, -5.508065593980211e-05, -9.777799228603292e-06, -9.871093524536825e-06, -0.00010173860756427766, 5.780544305696252e-05, 4.3254327218734763e-05, 9.278519075198315e-05, -2.3788912427502412e-05, 7.721098162120639e-05, 1.2629139622284853e-05, 8.816932639223015e-05, -1.346721419035195e-06, -6.213622033965902e-06, -9.481587485011258e-05, 8.14684214040202e-05, -0.00012296809135334074, -0.00010769161590057545, -9.319868028153696e-05, 4.952766240024398e-05, -1.933818879114636e-05, 8.452089025221446e-05, 8.694650822363129e-05, 9.076667021620098e-05, 5.644743814536475e-05, 8.762624229439198e-05, 4.195903214730466e-05, -5.046945189864394e-05, -0.00010259373172755921, 7.920360817967266e-05, -9.988715523735483e-05, -2.8490360687207406e-05, 3.1706857179717815e-05, 4.122182167781859e-06, 4.627269589776394e-05, 0.00010110018204158185, 6.275034014137384e-05, -9.282839817748983e-05, 1.0572353877729498e-05, 1.1368822641563756e-05, -4.862497906529542e-05, 4.070840654612281e-05, 7.014674274075222e-05, 8.558424161958145e-05, 2.8415926414071166e-05, -7.077790889157174e-05, 8.098035185148598e-05, -0.0001256835197522192, -6.642175941040761e-05, -4.961926096797425e-05, -3.787220394687004e-05, -3.862928419347805e-05, -0.00010146609046140958, 0.00010427417490140492, 5.6388462321337995e-05, -5.249084951449768e-05, -6.235340282586953e-05, -2.349288748203643e-05, -0.00012653878018826944, 5.374785288629644e-05, -3.430919825536136e-05, -0.00012453635773757775, 3.046094823094174e-05, -0.00011829633749199941, -5.776572829762229e-07, 2.3836927712295954e-05, -7.052910252569816e-06, 2.630239972118602e-06, 4.9027396051495775e-05, 8.59108989055167e-05, 4.7490295088945996e-05, -6.564202284864383e-05, -0.00010315133400507386, -8.573740240478804e-05, -5.4422078320522676e-05, -7.291960849638911e-05, 0.00011836546216883609, -8.401348855381037e-05, -0.00011981994236471743, 8.086260489690901e-05, -0.00010469636349076718, -6.870740091393282e-05, 3.575832334551641e-05, -0.00010760650273492289, 1.9945800833573815e-05, -2.0556393313454313e-05, -3.1335665656211295e-05, -5.732109347872968e-06, -0.00011571861078729995, -9.971891149586796e-05, -0.00010619720411646748, 7.182964702896371e-05, 5.8279502714931676e-05, 7.63502029735107e-05, 3.413016403157885e-05, 0.00010700487583581821, -0.00010833054133616085, 0.00012346610998967449, 5.2276502309777817e-05, 0.0001222569527475493, -0.00011838711610024958, -0.0001101260340572367, -0.00010752574710952481, 8.194705285474184e-05, 2.7663748561867368e-05, 3.0344938937132827e-05, 2.54031729985574e-05, -6.133768132321972e-05, 5.6426861647557644e-05, 7.353061317504829e-05, -1.0356807232429137e-05, -9.46679031393802e-05, -9.804880632789134e-05, 0.00012080278779357832, -0.00011774487554499129, 0.00012130315563420207, 1.2726830532305964e-05, -0.00011221454882850222, -9.380866551533348e-05, -0.00010548842214315331, 1.7582903902468752e-05, -0.00011036592521801488, 7.699132434411868e-05, -0.00010286867542104157, 9.674411851813738e-05, -3.961156304437115e-05, -7.11533004578777e-05, -5.875765956048563e-05, 9.548039308685705e-05, 7.58564072752544e-05, 0.00011915798880084516, 0.00011457677275742799, -2.7357039902098758e-05, 0.00011423941297793808, 3.414065408861224e-05, -1.7924680848237293e-05, 0.00010799530744042346, -2.91794960683614e-05, -2.95014369664128e-05, 0.00011398645961915403, -1.7518721217943705e-05, 0.0001077612172574628, 9.290470871015742e-05, 2.72368548490381e-05, 1.2919647345574753e-05, -1.0670390281089645e-05, 0.00010332066000811964, 5.511593940302492e-05, 1.2432709478415733e-05, 7.374437254230568e-05, -9.926930174261345e-06, -8.866655644242586e-05, 9.7182054636718e-05, -3.754086391687751e-05, 1.5247612032505258e-05, 9.298588929289523e-05, 6.274014346557486e-07, -6.264578591298293e-05, 2.264665871557236e-05, -0.00011192932261434165, -9.655415587095267e-05, -9.321702083157377e-05, -1.029388861522745e-05, -0.00012551921527087403, -5.253269931782763e-05, 9.775689473846353e-05, 0.00011478210427097494, 6.797507734439621e-05, -0.0001110422539355426, 0.0001220318862785909, 5.4853782586187976e-05, -3.7735682574451595e-05, 6.844490069860631e-05, -2.881761527685912e-05, -1.3234972204009366e-05, -2.6850907566078895e-05, -0.00011516275503972067, -2.0659928660212704e-05, -6.853241373465691e-05, 2.1337022606557366e-05, 0.00010361353659213677, 8.568937541726651e-05, -3.809662099556434e-05, -8.464672892085234e-05, -0.00010023304432363804, 7.228990822882498e-05, 1.697849456958481e-05, -5.927365716288336e-05, -2.4136432868790133e-05, -9.227407234803307e-05, -9.517292165428523e-05, -5.3881176414957784e-05, -7.953394365164985e-05, -8.869802882740282e-06, 4.7233315663897514e-05, -5.383491929984828e-05, 1.2738024038831566e-05, -6.423040749788739e-05, 3.614276995633722e-05, -6.097501259837904e-05, 1.9538547100201946e-05, 6.2591161584393e-05, -1.8010164380880468e-05, 2.3271808499176497e-05, -1.4265777236542707e-05, -4.746727652078491e-05, 6.312804958956672e-05, 7.457198093784424e-07, -9.068720517709121e-05, 0.00010616287375614668, -3.7179235825695246e-05, -1.565116202713844e-05, 0.00011069699158866517, -5.876085500027635e-05, -9.233645671601347e-06, -1.1832398517996628e-06, -0.00010581812510724673, -1.8253229341757648e-05, -8.573134426876445e-05, -4.803509523623662e-05, -2.211435864273082e-05, -4.569936458428839e-05, -2.3154985302878145e-05, 9.112369582745222e-05, -0.00010893731810686187, 2.1559807681622614e-05, 0.00010666245545354, 4.016099403791468e-05, -3.47948733188951e-05, 5.250884469400626e-05, 9.913942559611362e-05, -0.000105992909221936, 0.00010011804576784885, -9.235277289106219e-05, 2.9501703723458352e-05, -8.61859812026173e-05, -1.5085476464778212e-05, 6.426305211689975e-05, 9.326485201231027e-05, 5.3929959883034146e-05, -9.234148435046e-05, 6.234761500351462e-06, -0.00012744341471054786, 7.74317948970668e-05, 1.5618251628540695e-05, 7.488431651168654e-06, -9.691449873493334e-05, 8.871534600735926e-05, -0.00011012323073568969, 6.648670261262268e-05, 0.00012668964670310468, -2.6804566736301246e-05, -4.1500025769751675e-05, 0.0001251762567981922, -9.273529632343095e-05, -1.6867241984065997e-05, 6.744008032333127e-05, 3.274775041366708e-05, -9.308926418866022e-05, 1.1660730204456202e-05, -8.339956241467414e-05, -0.00012747804026265772, 5.104490503574665e-05, 6.193435698094614e-06, 7.698924156979549e-05, 3.162540212095803e-05, -0.000113167963514858, 0.00012149627222552423, 4.705921455618815e-05, -8.633441184378514e-05, -0.00012587709949629075, 0.00010530714736358088, -3.353086939009e-05, -9.881668479286251e-05, 6.840152071749367e-05, -6.209899538089372e-05, 9.763486926589609e-05, -2.6269180046405897e-05, -1.7125414214918827e-05, -6.94977966981418e-05, 3.010179481144062e-05, -9.663878850305326e-05, -0.00010332920379343581, 7.753880410857823e-05, 4.748085951110305e-05, -8.612535056935601e-05, -8.454262717996666e-05, 6.49920352051466e-05, 7.595351164787192e-05, 2.510182080557111e-06, -2.273318330436979e-05, -0.00011263551183728512, -9.623117847428617e-05, -8.265100832953691e-05, -1.1335545758984785e-06, -6.812944758973669e-05, 0.00011679473541990079, -7.086453011469936e-05, -5.5674498265525325e-05, -2.549274156314423e-06, 2.7660668596999e-05, -9.831733280255169e-05, 1.7119837300923853e-05, 2.7857572863701237e-05, 9.267513440191708e-07, -5.359989598999666e-05, 2.8092436540402745e-05, 4.5211552626318484e-05, -2.0806423047186878e-05, -4.3001008456914955e-05, -1.7350129358206596e-05, -5.316311277088891e-05, 0.0001233854376835105, -9.927246870074973e-05, 1.587538840542896e-05, 9.06832679193186e-05, -0.00012059886190600002, 8.951589083679306e-05, -0.00012339764923040454, 4.951994854672126e-05, 2.346046202708783e-05, -7.480240414597518e-05, -9.491275998528295e-05, 1.8214967085453028e-05, -7.762155190205457e-05, -8.681227892479699e-05, 0.00011912940647197595, 8.453198247753996e-06, -6.56188360818365e-06, -0.00012259256920369715, -0.00012037354642336215, 0.00011278933008763796, 8.100614442090937e-05, 7.465141098978175e-05, 0.00011715789756426554, 7.107314092466371e-06, -4.96873878227001e-05, -3.8243196630325425e-05, 5.1777255454727476e-05, 7.332813449496204e-05, -7.17318604248676e-05, -0.00011024823941888757, 1.7186294111800325e-05, -4.2363330487246437e-05, -5.703168620126173e-05, -4.624186980440692e-06, -4.034878727501964e-06, 0.00011552153792783141, -0.00011493883925252752, 0.00012452871612163315, -0.00012365038338133484, 7.093455348370479e-05, 2.9491747778512266e-06, 9.82919083056186e-05, 9.337108882152858e-05, 1.874733089331725e-05, -0.00010716505285364797, 5.650704308933529e-05, 6.309222470562181e-05, -5.47356089542144e-05, 6.548715932905027e-05, 8.443370786162858e-05, 4.211440377083985e-05, -3.157914093856025e-05, -0.00012070610082080408, 3.263294690465704e-05, -5.782046113297866e-05, -4.863774815087338e-05, -6.396586365392786e-05, -0.00011158621090065161, 8.919018887910385e-05, -1.7901246683918935e-05, -0.00011080415373343813, -7.826242587245848e-05, -0.0001056995121704575, -7.969211766180136e-05, -2.2302129093206825e-05, -3.5795856494349394e-05, 7.063992911227429e-05, 3.7819055467580925e-05, -8.231402574648745e-05, 1.6377949029024477e-05, 2.1461178511303748e-05, -5.343927098998033e-05, -6.74512472803345e-05, 9.556685869573855e-05, 6.904870438288613e-05, 5.156791955506709e-05, -1.033287290395468e-05, 0.00012281079642458074, -0.00010845869391976769, 0.0001238485665531214, 0.00012346381267584094, -3.4497170016359586e-06, -1.4398012709390738e-05, 0.00012076382635899842, -0.00011044584431375323, 7.049183099777027e-05, 2.404908831566885e-05, -6.867489941824836e-05, -3.066743987119469e-05, -8.548947868533931e-05, 3.51944048496893e-05, 2.9543327738780144e-05, -4.1039381374699275e-05, 5.771854553640913e-05, 6.17558855464585e-05, -2.2093459808709906e-05, 4.24752337567028e-05, -0.00012444484576643484, -5.284878029335737e-05, -8.249508450725103e-05, 0.00012101688357028272, 0.00012582472840498706, 8.703797181933864e-06, -2.140402207469231e-05, -3.2004934554352934e-06, -5.406307509175445e-06, -3.9872125665718344e-05, -4.805820155740965e-05, 1.9594923850786707e-05, 7.298280856555463e-05, 6.278441729826792e-05, 0.00012139741796127884, 7.291188917620923e-05, -0.00011445093852307819, -9.911304569080277e-07, -3.845700111076235e-05, 8.814962222740416e-05, 0.00012555081978798583, -9.372464707995014e-05, 4.278042438715973e-05, 0.0001249614594423894, 8.724667367575026e-05, -8.105454041810694e-05, -4.709737292429028e-05, -5.50494869492604e-05, 6.573753271463694e-05, -8.464314757290947e-05, -3.2578640332242666e-05, -3.8343056768794115e-05, -4.527509253481785e-05, 0.00011953505852905146, 4.972577826728416e-05, -4.24032226064438e-06, -6.835524844701136e-05, -7.689685527805117e-05, -2.054207233133684e-05, 0.00011385389933594974, -4.689067897194663e-05, 7.996306430447793e-06, 0.00011278719593985984, 8.20770629812932e-06, -2.3365750178480097e-05, 0.00012363224285162416, 8.646252501881828e-05, 0.0001013302315021429, 4.9403454980545116e-05, -3.47011793975508e-05, 5.0005756467166265e-05, 9.537971904231311e-05, -8.815081117544634e-05, 5.882415180234926e-05, 5.307820172494356e-05, -9.2417087055271e-05, -1.7612161447308505e-05, 0.00012297494833138752, 0.00011761779637416813, 7.903356310832998e-06, 9.782433369052098e-05, -2.2218604760492637e-05, -2.661594405235076e-05, -8.713687824106639e-05, -9.966738772214812e-05, 2.6838644830782794e-05, 0.00012329243795264545, -2.057477311132206e-05, -2.088077425110202e-05, 1.1446650151035812e-05, -9.731266642399004e-05, 9.283231345751004e-05, 6.738070602175436e-05, -4.401743428579672e-05, -0.00010947679971780601, -2.1341867718382784e-05, 7.959431031043091e-05, 2.631145323782522e-05, 8.30870939090111e-05, 8.65632607401816e-05, 8.919352031830821e-05, 0.00010263644099422463, -6.0870404178639415e-05, -4.25290606697053e-05, -1.60374207494715e-06, 2.5699042386519004e-05, -9.442977170038903e-05, 4.585642105922236e-05, -8.90384885463201e-05, -3.6507172294051064e-06, -5.4306216319930194e-05, 9.442628004128048e-05, -1.6374862081392047e-05, -1.8850359745369525e-05, 0.00011681445200854115, -7.87215229310996e-05, 6.210566126277715e-05, -4.7719664866568466e-05, 5.404662783209044e-05, -2.8804770060519498e-05, 4.2560025453051206e-06, -3.1010944982205716e-05, 2.7818556706522858e-05, 0.00010370439007978727, -0.00011220355281980948, -9.867233567145894e-05, 5.9712418388920975e-05, 2.877234959843722e-05, -1.1138516886279862e-05, 2.086253469998321e-05, -7.490073532886844e-05, 0.00011159514560968068, 6.478000469546959e-05, -0.00010054623087362361, 0.00011781429271841835, -0.0001062054478828529, 3.5993427140102245e-05, 5.235419228446707e-05, -2.5377586718766146e-05, -0.00012079985915513414, 7.67699894153244e-05, 0.00011346993701955631, 8.202463617954204e-05, -2.550348681269834e-05, -5.077650597751149e-05, -2.976222938954002e-05, 6.835455711215138e-05, 3.4949132147859956e-05, 0.0001238077354858295, -9.541135237248453e-05, 9.791547940944812e-05, 2.3408587678288303e-05, 0.00011638383763377423, 7.004755099346441e-05, -6.79190157634722e-05, -0.00011261088305322354, -4.891597527110367e-05, 0.00010616561124781549, 7.767415867234137e-05, 3.631710201568942e-05, 6.64540302818634e-05, -1.1768026534661511e-06, -1.0888551808687026e-05, 8.5379378012321e-05, 6.760079976262294e-05, 2.9930236344993204e-05, 7.4116370129560405e-06, 6.902498593101047e-05, 9.642525695705685e-05, -0.00011023066973105465, -4.910548935148984e-05, -0.00010972570052968334, -0.00010261754177700241, -3.7944478777693532e-06, 3.4716348336340435e-05, -3.066808227742367e-05, -4.533979647558463e-06, 6.98125875946209e-05, -6.101044577242028e-05, -8.837595577785343e-05, 1.1061858999908501e-05, 1.4232554079475923e-05, -9.000606723035004e-05, 0.00011699440167493973, 2.395416253580206e-05, 2.7697577396388283e-05, 9.079371455464802e-05, -2.6334315569461745e-05, -4.2980848005780984e-05, -2.7372648948369984e-05, -5.664789885602983e-05, -6.270105042768074e-05, 8.979819051409359e-05, 0.00011648248383107475, 0.0001034726764075358, 8.345072877341925e-05, 7.754283630626458e-06, -4.258169576598752e-05, 7.76482870038837e-05], [7.950877087356917e-05, 0.00011795969247738118, 7.474203370355146e-05, 0.00012467356698492806, -5.347124920031525e-05, -9.405792256494676e-05, 5.15990876181232e-05, 2.59419963772296e-05, -0.00011972767318655258, 3.0434715493134613e-05, 0.00010228810026130365, -0.0001261415089387709, 2.5839367474845e-05, -0.00010628138566498768, 7.439774092430089e-05, -0.00011438296500806355, -7.82168279320721e-05, 1.1222337019153308e-05, 1.8095656765606355e-05, 2.5810784831605764e-06, -9.771741829002081e-05, -6.04098047373193e-06, -0.00010596011871368338, -0.00011489456871040104, -6.672962679415541e-05, -0.00010528908432800633, -6.976698938861297e-05, -0.00012576227541213789, 0.00010371497617035305, -3.787406573395451e-05, -3.950739735515123e-05, 7.97325405370988e-05, 2.2263874269099424e-05, -8.79833365125669e-05, 4.484616672071572e-05, 0.00010268230165938966, 1.791103164137677e-05, -1.799501071699525e-05, -4.7736924307097845e-05, 8.02539091843016e-06, -4.5492648375496634e-05, -2.0803568971419015e-05, 6.797195186948469e-05, -2.5137717622129374e-05, -7.792490578067274e-08, 8.632373392875529e-05, -3.641641594859418e-05, 0.00011693018684366351, 7.643952389409888e-06, 5.553914080597263e-05, 0.00012616444895752627, 9.014498654522695e-05, -4.736249954240196e-05, 9.12268279567509e-05, 9.500087672183945e-05, -5.9282548740262816e-05, 9.883477689653652e-05, 3.646968738440883e-05, -2.434849770033894e-05, -9.698646322517105e-05, -9.731479478888414e-05, -8.326430249629111e-05, -9.050130270727923e-05, 2.7303460572620586e-05, 3.1765342483460474e-05, 1.4633839983731277e-05, 9.400151346046278e-05, 3.32591860569421e-05, -2.6539630429445314e-06, -0.00011413379712775547, 9.593864806367606e-05, 0.00010319069733183653, -7.47555754567324e-05, -2.678680740556556e-05, 9.48438101730516e-05, -2.728821201766606e-05, -1.6752229888297503e-06, 0.0001052722600358686, -1.2757045086964178e-05, -1.1122310540238965e-05, -4.1300535416740066e-05, 7.487535370511464e-05, 8.383959888583228e-05, 3.7067582303301935e-06, -0.00012233072536555075, 3.531945945182309e-05, 6.450304531528499e-06, 1.3908985639709539e-05, 9.181619894658143e-06, 4.6298036445422265e-05, -4.0820864758560426e-05, 0.00010107234137704494, 0.00012380186784714705, 4.015283076102628e-06, 9.197091333964042e-05, 6.644961001259407e-05, 6.967918908179038e-06, 4.496794089157616e-05, -4.945445069164748e-05, -0.00010717300538421002, 1.0929807781824367e-05, 4.031955346922782e-05, 6.369162767559384e-06, 6.6691957819392395e-06, -3.67676445094816e-05, -8.597056761178068e-05, 5.5971696746132574e-05, 3.9411599038909256e-05, -5.5782409360502516e-05, 9.199111052443592e-05, 1.9181597689009845e-05, 8.084857552794809e-05, 4.907189024093237e-05, 8.105796074724429e-05, -6.011468430248692e-05, -9.07836133731585e-05, 3.3060323912658494e-05, -7.317757085045982e-05, -3.996383930480493e-05, -5.621960789984841e-05, 3.0705946885768285e-05, 5.749603190544137e-06, 2.8195221889729765e-05, -4.382845300826016e-05, -9.013240578337073e-05, -8.531413613367447e-05, -0.00012679350339190871, 0.00012442912242364987, -9.994796271308804e-06, -7.755305384729564e-05, -8.644305853349054e-05, 0.00010989133432076596, -0.00011510140596416069, 5.771673258876285e-06, -6.877322202684437e-05, 4.175553255134018e-05, -0.00011746674852381901, 0.00012476462690571172, -1.383801906935714e-05, 8.216887851544483e-05, -7.418944225247728e-05, 4.3954396987238675e-05, -9.545918987053162e-05, -7.600178514372944e-05, -2.376839122986314e-06, -3.1356254515558154e-05, -5.057621551639186e-05, -1.1337949875750127e-05, -0.00011931539655783466, 6.408649087248877e-05, 7.96664672660914e-05, 5.700036993781393e-05, -2.6711936783662607e-05, -2.821138274853555e-06, -5.216814808841296e-05, 7.018228940729526e-05, 7.84829040766037e-05, 5.863073617994772e-05, 4.454674185468935e-06, 9.379504044280068e-05, -7.64639174841891e-05, 2.392485512985605e-05, -3.8814033083742626e-05, 8.123683946719355e-05, -2.9715221536690722e-06, -7.276921757531537e-05, 0.00010630830493316334, -1.6156615934507352e-05, 4.2203076871487876e-05, -0.000113531903258529, -3.1343750911813424e-05, 3.497876280615499e-05, -0.00010570893775625066, 3.6487471162837585e-05, 3.7050732522037425e-05, 5.236342002490375e-05, -6.597449254173905e-05, 0.00010550115400640768, -0.00012739850423450121, -6.253465053232715e-05, -2.932294375991096e-05, -6.584935602004337e-05, 0.00010977360947543424, 0.00012052787276170317, 9.370646190988947e-05, 0.00011499256706363335, -3.973247748143313e-05, -2.0338088248177402e-05, -6.303008323400728e-05, -5.649151433431178e-06, -6.858033546985002e-05, -6.818291775309737e-05, 4.409768367457931e-05, -9.293250095905928e-05, 2.8181546663150375e-05, 7.360142447575197e-05, -0.00012720296792313198, 7.3254734915525815e-06, 2.4876789563875954e-05, 0.00012364671609885305, -7.56766628556796e-05, 7.890279377604657e-05, -2.364477932511101e-05, 6.269982288215268e-05, 4.3238512514433327e-05, -0.00010010775503316778, 9.325210541215754e-05, 0.00010345657275821565, 3.6733676554488555e-05, 2.761843557930533e-05, 5.2403718338562176e-05, 4.7073706902085385e-05, 1.5809654804532066e-05, 4.950994605487202e-05, -2.522945200479419e-05, 1.1786084479999841e-05, -2.69555370782937e-05, -0.00011190564051165976, 1.6021384590456447e-05, -0.00011123437014333715, 0.0001262646461655447, -0.00011599816957429579, 2.6314674224669326e-05, 7.03825426561675e-05, 0.00012372058331883363, 0.00012360274572991635, -1.6287697716807796e-05, -0.00011437505360999589, -7.410435672262692e-05, 6.002229234292596e-05, -3.888294879904612e-06, -9.81840209312011e-05, 1.6709761526021708e-05, 0.00012510195744118267, -4.6732419730792195e-05, 3.731464262318048e-05, 7.569660800321265e-05, -2.682316244226892e-05, 6.361111985348365e-05, -9.593665167073973e-05, 6.484368655272921e-05, -4.347081591465343e-05, 2.2679605124010918e-05, -5.061808953103113e-06, 4.984030108815419e-05, 3.900720078193153e-05, -9.630987126039024e-05, -0.00011984954713461264, 4.4454500124772106e-05, -8.028662463440458e-05, -1.1855860147764195e-05, -3.7971749522426796e-05, -3.363573733012949e-05, -5.806542591159644e-05, 0.00011647875077038956, -6.636914857563271e-05, -7.943445000960044e-05, -4.6100185249198484e-05, 5.510613548522876e-05, 8.799292961406541e-05, -6.055979804897582e-05, -0.00011096053354669262, -9.293509964757508e-05, -8.041925618516574e-05, -2.6948378179643905e-05, 1.2559185520867579e-05, 4.626765932574271e-05, 0.00010980793779860086, -9.66485914273924e-05, -8.068404342391453e-05, -0.00011309815544629453, -2.2425930473005702e-05, 8.612934089291615e-05, 3.229495771399952e-05, 9.608194567894661e-05, 9.698942961400213e-05, -0.00011291792106523369, 6.481369391417967e-05, 