weights
"[[-0.17894022471523466, -0.17900711070089262, -0.1791095496469479, -0.1791030035850892, -0.17890614526388396, -0.17900517458211276, -0.17901009471077114, -0.17889454959542114, -0.17891769717813757, -0.17896215975834698, -0.17909292178599542, -0.17902787298947911, -0.17747385724425938, -0.175745817492544, -0.1787462125429207, -0.17906943171707243, -0.17897425934189734, -0.17896520070962194, -0.17901482000343386, -0.17890258873321072, -0.17905373035625957, -0.17910644279277435, -0.1789284674328719, -0.1788870557189117, -0.17902476131510967, -0.179072370267873, -0.17887328676262806, -0.17898612626507074, -0.17892101931445334, -0.1790063898481349, -0.17908917201568694, -0.1790616747764698, -0.17887330108225583, -0.17884500244013238, -0.17385398120887727, -0.16673974521592547, -0.16510844552851658, -0.16418136265408614, -0.16272067018784278, -0.15322715483854243, -0.13370877190565203, -0.15259376586584286, -0.1699599246932391, -0.16886979669984795, -0.15803285533326072, -0.1627961543549515, -0.1674895157216034, -0.16828529460611238, -0.17083012851912738, -0.1723701099162719, -0.17591131812292835, -0.17857754766681197, -0.17903410505560688, -0.17890587570733732, -0.17892295022274765, -0.1791121200241579, -0.17905761950603535, -0.17900454516380673, -0.17897556802158707, -0.17877594868589922, -0.17883532904945051, -0.17873963119343814, -0.17190722483873525, -0.1518387512050137, -0.12938378127781688, -0.10751525391018507, -0.07624167414722165, -0.04780312047822231, -0.013497431993388225, -0.026716653271065864, -0.024673275826074575, -0.045226467117326155, -0.05981913065531405, -0.06195174948484635, -0.0657683883694225, -0.10191196452699243, -0.12343595864852666, -0.14279945159982316, -0.16430433599182545, -0.17349768416795378, -0.17706748590725677, -0.17901204831986614, -0.17903286403226912, -0.17908257511916884, -0.17886593051448216, -0.1789079099729707, -0.179066773885911, -0.17749856255239024, -0.17656935118556005, -0.174036513437146, -0.1603054056284545, -0.12784869264139107, -0.05314515602886344, 0.023011776449810607, 0.1004819594767706, 0.17076826803689957, 0.20717324161648498, 0.2376069024375673, 0.23340298131010254, 0.21306739679082928, 0.16458394945421928, 0.16921879128272532, 0.14545778786946595, 0.06836947883371594, -0.0056824984977754634, -0.06193037042848578, -0.09887581293550622, -0.12030103496918361, -0.13924156518555356, -0.17474067701639512, -0.17690773765786133, -0.17899422809358276, -0.1790987038866166, -0.17893045221022555, -0.17910568748295472, -0.17800816142491624, -0.17916072172220873, -0.1675565753696292, -0.13409896916381683, -0.04994893749927465, 0.10213456522526515, 0.2680495134761285, 0.3876286570079301, 0.4978006022984614, 0.6144265676346926, 0.6167178142892319, 0.6515326215008206, 0.6237561134497323, 0.5918989465505584, 0.5196342651560509, 0.35440418379818717, 0.1015419850959124, -0.07657610516911752, -0.1964255191142618, -0.20749832559068102, -0.1987108931886265, -0.1738952098795457, -0.16514294201789423, -0.1761454468224743, -0.17769954432435195, -0.17900539605333296, -0.17897014453926688, -0.17892211504376168, -0.17748731876499363, -0.17751369936103203, -0.20279167014410482, -0.14081464186213583, 0.03938137558413857, 0.2628050459215022, 0.4885318637126356, 0.6811095720403753, 0.8754554679315313, 1.0961421262399587, 1.1742828435616746, 1.2557995003445204, 1.2827888869910407, 1.332968100566551, 1.2721272729308073, 0.876442969915837, 0.4718250308664797, 0.13450091033065534, -0.09726952836911931, -0.2132258242517167, -0.23837334896954715, -0.21825759062457625, -0.16112248547587502, -0.17084965079930597, -0.1776648909046273, -0.17892914038076604, -0.1790664995418226, -0.17980160184090427, -0.18985189577110714, -0.18532262239345992, -0.19478645945263065, -0.1596476447536976, 0.04180633247087289, 0.22360879904896414, 0.3933409223282911, 0.46165347224502834, 0.5673355763095654, 0.7362730355363815, 0.7588485184302033, 0.7613660609109206, 0.8901349683851884, 0.859122155614205, 0.753629714534017, 0.5344031958783741, 0.2380969834622095, 0.010086782228418478, -0.08086700238070896, -0.1306965356639194, -0.1683390271555591, -0.16806952081829227, -0.15393785748724562, -0.17601013092970347, -0.173431407422531, -0.17888094359057125, -0.1794764399736305, -0.18101262689350567, -0.20712838277386897, -0.18617669150282826, -0.19867952229208055, -0.16237293028764552, -0.0703376609150958, 0.03912301506007844, 0.08902572389155167, 0.06646339444582157, 0.11473611718864936, 0.05211711803944131, -0.026904284452341193, 0.008534908069034142, -0.011340390550139632, -0.09805425672368502, -0.11222862341249552, -0.1370498423255139, -0.21445535952681852, -0.24030657690354837, -0.14692969716045542, -0.13036116418941812, -0.1294791539358417, -0.09791829725060988, -0.15348508526526322, -0.17250444744834018, -0.17552411782194954, -0.17823480573311357, -0.1876200749757858, -0.19698765753075703, -0.239324302339135, -0.2514567660730571, -0.24748551558505053, -0.16381090156830114, -0.08335161302236002, -0.03789953221437722, 0.07115317860081312, 0.16956556891800575, 0.010448620390898446, -0.13141223845057318, -0.22199254638010288, -0.4021419375366835, -0.6888647055047877, -0.7598967161599017, -0.701544105991138, -0.5498537275067312, -0.2991331586699883, -0.19170216985181324, -0.11770837720445576, -0.13810841475205787, -0.061892574380999155, -0.08175260152814448, -0.1244080540465589, -0.16469281323148885, -0.17564887942074123, -0.17923335962832257, -0.19363739953753703, -0.21534901936272005, -0.28204717770687615, -0.2985094326269555, -0.2851249782872629, -0.11692230030163879, 0.011342647500488093, 0.03856474086276471, 0.16626241900640926, 0.17689238301116064, -0.0701765881927595, -0.2276177232844391, -0.34898607022176087, -0.7207754546318021, -1.2610412153275259, -1.360934890480419, -1.0844464777578073, -0.7166816543819559, -0.30031949217715215, -0.0953167958417739, -0.08143388009596082, -0.022486686899628808, 0.05657105578775145, -0.014976525135968248, -0.12505263075017253, -0.17134744232843713, -0.19281449915979107, -0.17914714585969413, -0.19342716772021257, -0.23043051501461898, -0.29125460125709324, -0.3177123785481677, -0.33755314382368046, -0.14353728374189512, -0.012575230876541464, 0.09689111954462552, 0.17835120343782127, 0.12832426670982416, 0.030725765477178753, -0.0842487161186193, -0.28577321024083285, -0.7706568106437456, -1.5190307992401095, -1.6252092461377277, -1.0391874742642029, -0.5506344882744232, -0.2671986714096272, -0.11171359723922303, -0.08273093609284114, -0.009077068753495541, 0.14770038831410914, 0.02182357133129536, -0.14022135513561926, -0.17524473212789277, -0.17930685413782674, -0.17902363722856116, -0.19754480313070455, -0.24979746748759457, -0.3051371849189181, -0.3625850617396677, -0.3439826542353895, -0.16887408548419983, -0.07330780341483464, 0.06817272904282097, 0.11322126220379632, 0.054144317658916086, 0.0853594374272601, 0.22048196204941647, 0.06010202736957118, -0.7157677168216386, -1.4704306155906324, -1.3571181794308829, -0.8101903583201395, -0.41285400188227706, -0.08870735001744401, -0.12169081155528798, -0.06604880593493516, 0.05869938621754385, 0.23620612596709611, 0.08982905842302943, -0.10662389647382227, -0.1574317831023667, -0.17990325297673831, -0.1790183469286781, -0.18932332156386683, -0.22590899266698763, -0.3081752874501557, -0.42465043919464435, -0.3995396241483234, -0.24660581631287995, -0.15475023000052443, -0.04741237827345108, 0.15979552631568825, 0.31748445636748857, 0.6008103225700033, 0.9637201537725855, 0.696585786659299, -0.24769659618486745, -0.8917420424878835, -0.756530714097221, -0.40101465607096204, -0.205209067744977, -0.024256498632794315, -0.0071610294888818675, 0.03934028179760962, 0.1135920735155768, 0.22985267018170483, 0.09436508992659855, -0.1168184901848542, -0.1681686237767693, -0.1837402379190191, -0.17910354376054646, -0.1827141668510565, -0.1982948144320122, -0.274586590991384, -0.43118927027869125, -0.41027265082417214, -0.2820916329174205, -0.18752613765529885, 0.00695654123310739, 0.26242485478563427, 0.6832327253857602, 1.3312775997453292, 1.6103250030904537, 1.199942703594461, 0.33303190589100284, -0.1261415586035303, -0.18411441350100183, -0.09057369569115065, -0.10681303215257887, -0.1413068747273426, -0.1944847014859882, -0.0572997717220196, 0.05630105949789171, 0.15813405130768862, 0.044024918473297224, -0.1228777081224485, -0.15661469456611754, -0.17294948133641708, -0.17880112516600496, -0.18109154778998512, -0.1890389030980592, -0.24779606586883476, -0.40761434163180654, -0.3861279254500778, -0.27100665692141335, -0.16088066986985775, -0.032494311177256964, 0.27679808465868755, 0.9800225028292809, 1.6460120523784088, 1.7038145416546582, 1.2862758422723677, 0.621458693116675, 0.17800945826854211, 0.07622268487186111, -0.10022544915678164, -0.34307849612600244, -0.47401001548563626, -0.38200503058851354, -0.21281825509634728, -0.10844068814200106, 0.026945779522265647, 0.04535187436089933, -0.1080888831008792, -0.1567489589712037, -0.1784849832724434, -0.17896374726342393, -0.1788041705507111, -0.18417808542269248, -0.21629994045062717, -0.3288252645433132, -0.30707794481338624, -0.22284664179546299, -0.10854389894769317, -0.07258492096578924, 0.25715076881312715, 0.7868351412156596, 1.180681631867765, 1.2443300032839335, 0.914143793441575, 0.35073122287635766, 0.0020693430969884958, -0.10555946113671107, -0.4025013108542286, -0.5988640386900614, -0.49792313388507903, -0.37050886518676623, -0.2181427782725127, -0.13029163195735743, 0.022734783778098244, 0.06539884471925819, -0.059701469295680265, -0.15066406279453667, -0.1770621113982603, -0.179059742200424, -0.17843005182104618, -0.1775419643186464, -0.17722928187541906, -0.2669422133654784, -0.22292224783128248, -0.16079333666723045, -0.13538117124640411, -0.16153838400906892, 0.11782554989482596, 0.4732570139106508, 0.7636427492640413, 0.6279794376763191, 0.13133543234239756, -0.33426911990752595, -0.33655540684849, -0.25134829339389325, -0.31004457409832714, -0.31747437856990035, -0.20430927678495867, -0.11464248121105276, -0.014236939353555252, 0.06668417854957019, 0.16217393816966963, 0.11086407476726437, -0.01685009242359838, -0.13875950564087244, -0.17613352990685263, -0.17898535652678063, -0.1789762188010011, -0.17039111958053466, -0.15171164758503564, -0.1595265496010342, -0.11660166009998482, -0.023199158185050854, 0.07351965132969418, 0.12985789812229157, 0.2468768400749683, 0.4856028874429918, 0.5462716583729215, 0.05131395770020924, -0.5281301932962995, -0.8564192955159278, -0.575111573101497, -0.1245065374968393, 0.13139461417631884, 0.16785337594753105, 0.24416491619966277, 0.22138190765437954, 0.3015547759717226, 0.3242338132105689, 0.25434775217205124, 0.10856290613552862, -0.02739501544312921, -0.160349447542715, -0.17730044435387465, -0.17977963025526092, -0.17914615875945414, -0.1737265775128558, -0.13372109566605023, -0.06245949024208078, 0.06588206064819184, 0.25286449344652323, 0.440169783691735, 0.502327414284151, 0.5558676170018636, 0.6883202398661344, 0.5081459538753192, 0.02195047528990484, -0.5881451346401358, -0.8156393949895728, -0.3299868665975619, 0.32680204288175596, 0.6175153387900395, 0.7003284460398448, 0.6454082833838098, 0.5283194199920874, 0.5737580888654128, 0.5366466142360554, 0.3751070990601427, 0.13638469823214078, -0.05655687766116659, -0.17714537821490575, -0.18045475719848406, -0.17896517669624365, -0.1815249911286234, -0.17473586242149633, -0.1268757766389224, 0.007273770794362934, 0.19718538054864268, 0.3964992406484219, 0.6581175705860635, 0.7658991052776475, 0.8109218850966224, 0.8693767677317186, 0.6210638541362198, 0.28612821996282456, -0.21680038272964647, -0.29192479530912663, 0.26980064648844937, 0.7223280979926159, 0.9310200921462817, 1.0127670565571887, 0.8280957433890426, 0.7484377694629173, 0.7320739992483362, 0.6067543833980116, 0.34013092684708085, 0.03524331009689021, -0.10877319733692489, -0.16844940237102607, -0.1796158638104914, -0.1790629494357339, -0.17825519680110452, -0.16928280170111812, -0.1044376131851563, 0.04635089163711852, 0.21281623528917168, 0.4050296655221266, 0.6832045619189402, 0.7371357504405223, 0.8067088698853635, 0.876778612758916, 0.7251916325384011, 0.5820368611014216, 0.33940298563170673, 0.3764997817150776, 0.724868771061388, 0.8785076844389998, 1.0251181438488959, 1.1134778410474375, 0.9485697357834545, 0.8344574196335889, 0.6993588971119478, 0.4842689296822041, 0.2105998573570432, -0.036065133975341, -0.1408206930791553, -0.17068714655554043, -0.17895351685566332, -0.17904377767101928, -0.17878265265036417, -0.16654309153650274, -0.11626517607850351, -0.0312991683557351, 0.05325091690686306, 0.23536270688944969, 0.4247251767302441, 0.48202320282399225, 0.6381081048388405, 0.7045249962786125, 0.8144976111567057, 0.90604216458972, 0.9774275654975901, 0.9208405552712331, 0.8457582402351268, 0.783630422432631, 0.9670289441092285, 0.9906416684513413, 0.882538005507847, 0.6674885517065592, 0.4564260948488289, 0.30619363335635774, 0.07784255920955492, -0.10675504772362551, -0.1590056668153872, -0.17502565275655058, -0.17907733772983467, -0.17911099018309498, -0.17887077394419784, -0.16758801432313578, -0.13385184218356697, -0.10979771656128579, -0.13583711328891665, -0.0019886168343244337, 0.05926647417272599, 0.1482215114478018, 0.33008077971833943, 0.510580071982407, 0.8597300687380037, 1.0868183692728, 1.2349280576451982, 0.9457961603717272, 0.6919204736179941, 0.5907417055038403, 0.6575133596609587, 0.7358482800328338, 0.6514641050602751, 0.4801768457306847, 0.276287423551186, 0.1169831324928411, -0.05943872524480641, -0.14765761421323054, -0.17364749955194617, -0.17945228209411407, -0.17889866289308862, -0.17893527761606007, -0.1789141381337395, -0.176098040514669, -0.16111923956488644, -0.19894811619978794, -0.28173074790457614, -0.3103629251754856, -0.3120486060274403, -0.11710029913751835, 0.01609869972926581, 0.22903397768251843, 0.5038062001829872, 0.7880928353468385, 0.9206205362897278, 0.6496847352681303, 0.4305044171139375, 0.30986475411542824, 0.3056519894599265, 0.37875386697528235, 0.29898642364080913, 0.14636232319383213, 0.04627055363609036, -0.03967406043561792, -0.1173864164014085, -0.17756987828032847, -0.17210520437312551, -0.18131305152877067, -0.17901919453692886, -0.17897979411759948, -0.17887082497500342, -0.18072510213114365, -0.17973557792630815, -0.23194625897468013, -0.37514114275064075, -0.45343388083524844, -0.45214300519894457, -0.35583666036024514, -0.26709502362787835, -0.17237020840059564, 0.029111073198316132, 0.19278640201471084, 0.16289138110861476, 0.03579149429370976, -0.03801677672164913, -0.04987465803338159, -0.17538611504247467, -0.0692064025352814, -0.1372777695664546, -0.18803921673290877, -0.1851816096837574, -0.17444786639383597, -0.16919206418676996, -0.16540218313880978, -0.1711221696415665, -0.17736355506557516, -0.1790406644056385, -0.17899330062917898, -0.17909857931275427, -0.1788483215568685, -0.18403784501737794, -0.2369999217355383, -0.31401038880881893, -0.3716903576884669, -0.4297771121238423, -0.5094538277317537, -0.5723464719778074, -0.5468558263153951, -0.5822797047882712, -0.5892169004996729, -0.6325332559904291, -0.6572099586919765, -0.572724452480048, -0.5238379221802297, -0.48535933152032185, -0.3571869113046448, -0.29803086354250446, -0.24976966201248602, -0.2224809430396421, -0.19241065061333631, -0.18290461433540336, -0.17979728916623297, -0.17742884730741643, -0.17707201111866094, -0.17908845264406018, -0.17901417275229495, -0.17896800704325191, -0.1789996459133296, -0.17927175259621145, -0.18563044751202376, -0.2031931221976442, -0.22041019198562778, -0.2386298922620575, -0.2661933308945695, -0.31944867914099173, -0.3455821490551933, -0.35871847090568654, -0.3800287089652551, -0.44197131763867564, -0.47057189513588676, -0.45796313528696314, -0.4321205833257154, -0.34912549662152126, -0.2807484109409235, -0.2334274155395489, -0.19996857766861997, -0.19445160513846613, -0.18701740186754212, -0.17998905620415617, -0.17936084650737463, -0.17893888361558521, -0.17898649057603253, -0.17891206266886187, -0.17910028139305814, -0.1789022980609272, -0.17905764901463814, -0.17890965915792031, -0.17925875364446034, -0.17933587048006358, -0.1802447802028836, -0.1814463025058575, -0.18231051683957866, -0.18464436709474782, -0.19683792809664882, -0.19202390381800044, -0.19705603137189392, -0.21465320241720395, -0.2194594064071976, -0.2141447403784895, -0.2164576488549445, -0.2064822367031387, -0.20463599874904717, -0.18871356643076317, -0.18075742208360127, -0.18380548686083228, -0.1841456129819101, -0.17954313757115994, -0.17894357154992233, -0.179004430284762, -0.17893726668614232, -0.17902175526432942], [0.016082405497171357, 0.015983747908520706, 0.015846084052985838, 0.01588313383335997, 0.01585197989805121, 0.01606437325609689, 0.015901058278427225, 0.015932587849047674, 0.01598824995374371, 0.016077600246934495, 0.016053523840546684, 0.015947430535212543, 0.0163101569880038, 0.01679619917829916, 0.01602396471243932, 0.015856771459251715, 0.015861949825169735, 0.01609149084222108, 0.0160121729941928, 0.015927813342805863, 0.015937169252788052, 0.015893867432844547, 0.016009755634532854, 0.015860296297128502, 0.01586974909471824, 0.016080634279789226, 0.015977731490712476, 0.016023250786442112, 0.016018414372519125, 0.016011378660572614, 0.015870212153040995, 0.01593430727935594, 0.01597818298793664, 0.01586571699209464, 0.01708733518319577, 0.0186050937617603, 0.017896918563339026, 0.018412649214345607, 0.021704758581939147, 0.020967065357687324, 0.024132964137595168, 0.022133744725540146, 0.024484241353672324, 0.026119490215785846, 0.02744745852819433, 0.021474595912383047, 0.01795136771902583, 0.01727644531557044, 0.01767302746991835, 0.017354459071003844, 0.016968912489534825, 0.015989547532398674, 0.016050271174104538, 0.015896369984784112, 0.015986983822081958, 0.015955396624635017, 0.015944796445186867, 0.015989728982328314, 0.015929219706696935, 0.01587948887056762, 0.01587306059764236, 0.015956465297547056, 0.017821975486469837, 0.023479654314697836, 0.0288111656022591, 0.04092710549268509, 0.054504494518732155, 0.06548102555899232, 0.09078310949556338, 0.11336453649817188, 0.1254532050683302, 0.13375545549876602, 0.11251772760789544, 0.07546450495321876, 0.05072435292251494, 0.04230614785838995, 0.036885579698552155, 0.028768930899146936, 0.020063504296342217, 0.017714545109955397, 0.019438376045349096, 0.017948874865423233, 0.015845723564898235, 0.015941954852390795, 0.016080954161159237, 0.016096782912085283, 0.015928764129477465, 0.01633769182571365, 0.01590340714323314, 0.022528290743019975, 0.029163340454124217, 0.0492598122662817, 0.07566371064624425, 0.13143854613880435, 0.1597572320836983, 0.20101411460499397, 0.2561209910450654, 0.29810231728963577, 0.33793415110725383, 0.34714986105774237, 0.3078284765929438, 0.23400152664082802, 0.17226628324108276, 0.14374659806062834, 0.10200386770202152, 0.05249469102458342, 0.021802921305249943, 0.0174852719272426, 0.01914451373500172, 0.01655512527210647, 0.01646545886626105, 0.01588075964386557, 0.016001733351164383, 0.01607745418944415, 0.016248361797302522, 0.016949818182846074, 0.022394080901910297, 0.05083622073599775, 0.08194148569301797, 0.12898563538059676, 0.21836892490674942, 0.3026940549574384, 0.3762265957116026, 0.413302744701705, 0.44951389474523784, 0.44933129174364567, 0.4122197507128916, 0.33450858521280047, 0.3166043380350153, 0.26133981948799434, 0.23129578159880812, 0.22535574636533492, 0.19604538431743856, 0.11401533401429269, 0.04611121716531172, -0.0013861853857229174, -0.016528625146185142, 0.00535310255299409, 0.015233455839195725, 0.016202024571317246, 0.016074665052813544, 0.015849967620808137, 0.016624825870420804, 0.020417057186502673, 0.0435207493762556, 0.10036418788417209, 0.17056750425318462, 0.2690913371477611, 0.3719695055315557, 0.4478076483707027, 0.4382240036917547, 0.30768526755284187, 0.20693287656539935, 0.16781889963500196, 0.16154225448402965, 0.20513770318246166, 0.2506404532283333, 0.2166799391214825, 0.2779364260091699, 0.31706433797657946, 0.24949456057929337, 0.18415557721940903, 0.08392600282967977, -0.013745968451637646, -0.03114382307128627, -0.01761407889262512, 0.013772523350550245, 0.016216221897529224, 0.016033017917083895, 0.015968981682152304, 0.017550148687761002, 0.028013394377635253, 0.07937217645332204, 0.14721149145463627, 0.255497646576185, 0.3540435450516565, 0.38227618709973155, 0.3096763108402411, 0.15978434983636308, -0.0573491300738106, -0.23867190966319887, -0.3633279403172419, -0.43852340778530685, -0.3954666021946931, -0.28273390982201496, -0.11306782602768065, 0.07710556830100768, 0.1962799178008074, 0.21428927664907355, 0.11571175799162306, 0.0022138584949955506, -0.11012617521569072, -0.08687156888399758, -0.035942836295965896, 0.011529051491899615, 0.015392366501769457, 0.015993103825841178, 0.016288082330602503, 0.021251260137603933, 0.03793466256118539, 0.12172115375575152, 0.2023801964479002, 0.27507643029469214, 0.29696633707710485, 0.16390673605576966, -0.02448031236071259, -0.2304021501392116, -0.3817152872082561, -0.5471786596389987, -0.6724192447930283, -0.7268878323629454, -0.7105434847037839, -0.5402799119658233, -0.2019686917624991, -0.03811283938981579, 0.07868534669876315, 0.04650447223473645, -0.013090830784056503, -0.09257313768803176, -0.249079989427727, -0.20070866522570324, -0.07507089224257076, 0.0052467460233098645, 0.0153313151874293, 0.01537923240042313, 0.01709980587658778, 0.022806440526913597, 0.044858635898567686, 0.13047596914399687, 0.18788747564173325, 0.1692232776463323, 0.09211615980104196, -0.1269512524648394, -0.2884639673249457, -0.42250487181822366, -0.5149771260855607, -0.6651278366404672, -0.7280815947545843, -0.6213993930630733, -0.40656659144090507, -0.2278965710003146, 0.03561639983620461, 0.014762761447898924, -0.0387948477867309, -0.13371467171240567, -0.20761765026086715, -0.28393729757981623, -0.39333764497150897, -0.3172117882600373, -0.11860405278951772, -0.004418458492913523, 0.014386556916795456, 0.016031774765984257, 0.01621171866886982, 0.022566452341827394, 0.03698963989300616, 0.10162937876966016, 0.10600797396328915, -0.02998283864607605, -0.17192355056296724, -0.3665735790582878, -0.4983736750379191, -0.6223171547681159, -0.7406102235561269, -0.8447402580828478, -0.6876635263704413, -0.30141604567668495, 0.10042895991921148, 0.25467980702973086, 0.16212039188919988, -0.03702880536780799, -0.24233163618073414, -0.33748933464538616, -0.40135447888067266, -0.4339918061099995, -0.47012174488524905, -0.33760914670984943, -0.12316148452334137, -0.00954596464320891, 0.013780406566926178, 0.016003886285400244, 0.01627030197001003, 0.02103686972911684, 0.035806906365396164, 0.028125003325274255, -0.05686024976246543, -0.2395035235421901, -0.4036617387207891, -0.5663184949524901, -0.690797264235927, -0.7889681670665544, -0.9344424340675676, -0.9288726100416663, -0.5639082880543739, -0.04925386830668518, 0.3560728528074851, 0.38418443119569456, 0.1608347189339926, -0.13363505529960135, -0.353169813966646, -0.4663855737942055, -0.4806801540234328, -0.4621973163582477, -0.4103662279256667, -0.2510431792108695, -0.08247968182336156, -0.0068778426843046645, 0.014007660815518116, 0.0159826287267691, 0.017063516133060827, 0.02179314288037721, 0.018175866357848815, -0.03994118217813064, -0.21292886252969895, -0.4361116572492655, -0.5807092389681289, -0.6770812074982958, -0.7247790678350137, -0.8259901113977132, -0.8897233271481888, -0.7942072239307912, -0.42750528236961743, 0.07011100962900466, 0.4019252484279414, 0.3432323303153391, 0.012971810972640604, -0.2412707158022742, -0.3739332844223735, -0.48708449075307475, -0.41404684013469656, -0.37157220766922217, -0.2655787610018473, -0.1343791565627249, -0.026931588566327342, 0.005569097949643545, 0.0156580067547203, 0.01586247128610543, 0.016601522053059235, 0.019695503532255423, -0.0007138950887533862, -0.09536727039369708, -0.3184226942776846, -0.527336137216524, -0.5961358521606722, -0.5657918246067866, -0.5748887450471785, -0.6349875942474958, -0.605591812190088, -0.44916096238804903, -0.20255726287453357, 0.25117512205272086, 0.35574258764810796, 0.17664116398071678, -0.1553819220145529, -0.34086365263590857, -0.4162908301110077, -0.3771726695656921, -0.28179419155066354, -0.2625479426234945, -0.178427058282853, -0.03358158902008058, 0.035773255288844376, 0.023621840712551512, 0.016979839366283302, 0.016012805435535443, 0.016057338276138842, 0.017580838734907147, -0.006193832066366153, -0.11916710780960026, -0.34256528181476303, -0.462160075615411, -0.4740115789916143, -0.3713744233808518, -0.34457044994535896, -0.3482357009629042, -0.24047893800488926, -0.09104285204420258, 0.13260259317765175, 0.3646128837613227, 0.312159146488622, 0.037575137175962274, -0.25714291827219815, -0.39275944525433665, -0.3174485817988958, -0.2129437613821571, -0.14635800833614943, -0.15009452905336781, -0.07325302612268043, 0.02421357351526367, 0.06074258213190015, 0.04131921556148148, 0.021009875328888886, 0.01589515811403867, 0.016284367436282157, 0.016731774996571053, -0.00021446454695142934, -0.09117824663099416, -0.27248676880554146, -0.31097346947677024, -0.23175141275611197, -0.1132510976587917, -0.0910955097366929, -0.09271042903469291, 0.050852480398350754, 0.20652298185885518, 0.3763070363338048, 0.5414696362793522, 0.3327067624155236, -0.07123878523202816, -0.3277037154107175, -0.2323905151648406, -0.0594391450873069, -0.01629120550404503, 0.0009212575619067015, -0.013162565258344352, -0.0009049227306256182, 0.053886931513841635, 0.07426530157905645, 0.04594142634481528, 0.01656015183485921, 0.015881393389721363, 0.016245828860901063, 0.018940824251881188, 0.02449432698048116, -0.02117426374220392, -0.10345050734809304, -0.07086688779198504, -0.016321106964179072, 0.03465460409176941, 0.004870162886284907, 0.05170771926833486, 0.257907879504742, 0.37634392151890517, 0.657856168779176, 0.7996722220126089, 0.3348157301667075, -0.14659570789870224, -0.2619306076455042, -0.0798959618045733, 0.10414701883376905, 0.0887471674920421, 0.14087280891778983, 0.06860923835938312, 0.057460364505993636, 0.10997889948731027, 0.10940948540131115, 0.05331709342090645, 0.02022860005723799, 0.01597184137712113, 0.016432601068115157, 0.024372188671437627, 0.06395154052159328, 0.07527082743330366, 0.042104528350466984, 0.07456643990444771, 0.058617982172205256, 0.007138484465602247, 0.0462223344195992, 0.18035071312623904, 0.3713686404690341, 0.4871249445405493, 0.7768194686874146, 0.8191169506510501, 0.2561459993658487, -0.0979739045148624, -0.13644161222041712, 0.06705716439089049, 0.17458598953112273, 0.14542505144043746, 0.25808494474277294, 0.17709796925376264, 0.14147575852710306, 0.1688271514398098, 0.15831129652279283, 0.07127786838536145, 0.023414558102252663, 0.01601146503040578, 0.015984761428111154, 0.030111582221889636, 0.1008100727837913, 0.16401397128463352, 0.13321791752326417, 0.055932834561902414, 0.003762850030387655, -0.03337821361644146, -0.028559977081822216, 0.1647783728422652, 0.3093275080186253, 0.4431011161152778, 0.681681894227964, 0.5947183329482835, 0.20824826841579477, -0.026371736220645942, -0.03424046493450048, 0.09473310744426039, 0.15697621814357604, 0.1462522094996701, 0.26695080142316147, 0.2319707906387075, 0.20812691715443254, 0.19942506826937995, 0.17272617772957363, 0.053551099551180356, 0.017861388520807275, 0.01606253982625702, 0.015999452882008294, 0.026395600926746064, 0.13032205383372344, 0.2247232299337429, 0.183703059264055, 0.0025178729844157065, -0.04897687181589286, -0.044305452743285886, -0.006902555608628441, 0.1000325356165874, 0.23325547286518183, 0.3809169140106068, 0.4761740256527171, 0.2939406657752425, 0.13938436376058064, 0.12252157452772391, 0.14564753298325694, 0.17401113353278713, 0.13216562448316443, 0.1429267329976456, 0.2708480518045886, 0.25316422487594054, 0.2537756824712894, 0.2156497224177921, 0.14171544968181646, 0.02939828355881439, 0.020995969914234216, 0.015937776784765708, 0.015011971426358975, 0.022830717281594016, 0.12092230616027785, 0.24416735480869356, 0.17888109627449333, 0.04308512713366147, 0.003010723352701335, -0.023819036590146038, 0.0756818157606823, 0.14574211913131566, 0.2483775892543355, 0.26182823558500085, 0.33422031873629393, 0.22431363636051174, 0.2701814397281259, 0.33576144127399504, 0.322477137879068, 0.23485971633345643, 0.1496298904733813, 0.15981746623328727, 0.24576948869671073, 0.24136568957616256, 0.22468992629344392, 0.1830555385488992, 0.10951689624279393, 0.03429051534370693, 0.018657530277637908, 0.015971131859626158, 0.012918199545780397, 0.02225691157479495, 0.11178393120161943, 0.2254180616670889, 0.17233813924058058, 0.14699712705838053, 0.14038220302172624, 0.14051862755471975, 0.16220423340500745, 0.15778667771594979, 0.21877985033637024, 0.2182276038177708, 0.1949050679716392, 0.2736253495392558, 0.3721578722389698, 0.4012237874263765, 0.4066864839665255, 0.37154512746507584, 0.2371816785131644, 0.21683244107122407, 0.21929702755699285, 0.20478571976139895, 0.20629965185926505, 0.14785118220590165, 0.06553884444575757, 0.02801176393337187, 0.016019943261517105, 0.01604686618266511, 0.016094531207048544, 0.026422785153817463, 0.08783169145979237, 0.18397785716271015, 0.2294068537693602, 0.24136922740697905, 0.21191992139873775, 0.2311188709863996, 0.17922235158679464, 0.11768895822758602, 0.02573539630831993, 0.0003657424812376046, 0.013414282918329341, 0.13532586451128467, 0.247614488170264, 0.29541252202620255, 0.35670295513303935, 0.3284507337833475, 0.2609022662307575, 0.15366478140832726, 0.13038946851403815, 0.12674686365701293, 0.13451501601174215, 0.09022332124103655, 0.045887787199897154, 0.020692991531484257, 0.016092307201515565, 0.015994084880563305, 0.015882696607572955, 0.022688774615448614, 0.05421008479020196, 0.14082867973812666, 0.22266551900832537, 0.23798403081466202, 0.21947965403371758, 0.17163166809981442, 0.07287284975209175, -0.05835423897782121, -0.2579002311019987, -0.42726062299905393, -0.4025225309300695, -0.24535576087757008, -0.057408877744160494, 0.005801854543139547, 0.10204107918149044, 0.1357913892610706, 0.09742359488285098, 0.05376183913813912, 0.036045815315824244, 0.032708705195978294, 0.02812882331805174, 0.02912872405261273, 0.021929923963060725, 0.014655801618046258, 0.016036942008965962, 0.016078897969300943, 0.016033730346064503, 0.018101704221145484, 0.029670377340618424, 0.08008849990764459, 0.1449625719252405, 0.1589277344733755, 0.11436745313827545, -0.0035008989017029615, -0.08552888074795371, -0.21767966591826376, -0.3746367695526163, -0.515436518411383, -0.4881351836148858, -0.37025824479771785, -0.1977483823089616, -0.1488616705101909, -0.11016219457232566, -0.06551006003949511, -0.09215751009872687, -0.10397018063193116, -0.07054164560788068, -0.039995666098807975, -0.024502484367259658, 0.0020127891783104676, 0.018008110168530767, 0.016749177137337274, 0.01597567186625341, 0.015926779725376313, 0.016016539647646388, 0.016913780993579798, 0.021884062236196412, 0.02777812372875805, 0.031989287931933535, 0.024168602618946464, -0.03769972618896985, -0.12468460514571102, -0.17845050367199972, -0.24636241382593171, -0.24233910213343238, -0.26082697802784127, -0.2211812553043594, -0.15099646520066534, -0.16614639003873258, -0.19597074605369116, -0.2285495042415673, -0.19954389460603994, -0.2230112460889155, -0.19418477042489576, -0.12390834343942438, -0.06137883113018842, -0.028024236333651992, 0.01429757159925774, 0.021194720084132715, 0.016768558056522397, 0.01596502705973146, 0.01602083390219305, 0.015991093412049785, 0.015989599570625148, 0.015723074253654514, 0.007749913930785638, -0.014146425862009121, -0.03764336429740234, -0.08310096872575651, -0.11224326121597147, -0.12429047417673605, -0.14794274203820676, -0.14917005432412841, -0.15639104742802962, -0.15344167435369796, -0.14445417967724783, -0.15269372674227744, -0.17618429338485783, -0.21536421639730993, -0.2070092228299032, -0.1791513656831373, -0.14565147445164514, -0.10853011384907102, -0.04332221400015531, -0.004708813686385778, 0.012086224128166699, 0.016675409296842112, 0.016793159275467553, 0.015886383787066378, 0.015941604717150896, 0.015892600240972023, 0.01606915276431636, 0.015563158585136615, 0.01150486886054194, 0.007949515801648946, 0.000730992352332216, -0.001956082336790169, -0.010640180535868408, -0.02394833781986182, -0.023027051642856178, -0.032860570859401375, -0.06498259537038369, -0.07879433540226798, -0.08592435402154956, -0.06959672665992589, -0.05278617835604628, -0.04769407040680332, -0.05415837331081626, -0.053848045753503625, -0.042038434904320215, -0.02156819669197006, 0.003564259324354362, 0.013541137889572672, 0.0157129486802437, 0.015957878675438523, 0.01594909072378314, 0.016068588188034718, 0.015905558106152278, 0.015967840291344165, 0.015891683646288752, 0.016015074591565166, 0.015798781798512553, 0.01577747182404082, 0.015645983655447563, 0.01457795545654403, 0.015156948388548145, 0.01651534579676089, 0.01615209704802453, 0.015570297590742577, 0.013150851953362089, 0.01330393116007397, 0.007419162777831437, 0.013173574999057261, 0.014050912998915206, 0.013946189514114346, 0.00956536762841267, 0.011783092934976145, 0.01103213460629905, 0.012132126854626512, 0.013550814526490658, 0.015782686530197765, 0.01607297061810851, 0.015939036408629165, 0.01597640412173493, 0.015950152804204153], [0.00018630703447712794, -5.038996846034041e-05, 7.292934118228446e-05, 3.927130522750053e-05, 0.000193994992794151, -8.842163521575821e-06, 2.586931262155935e-05, -1.8145120080168367e-05, -5.921795277733382e-05, 4.4544739340633494e-05, 9.180645404889638e-06, -2.885172545603634e-06, 0.0008949424255335987, 0.0017106224357598355, -6.318452114456889e-05, 4.461169028891196e-05, 0.00012251362814075828, 0.00015488823259246146, 8.480300752619325e-05, 3.4184652428464854e-05, 3.6042709504115004e-05, -2.441723576929318e-05, 2.728887685965583e-05, 0.00014520026515610303, 0.00016521696005598711, 0.0001343668760743797, 0.00015513670975956026, 0.0001718175095396801, 0.00012080461600257632, 4.089877648943168e-05, -1.6943087807950903e-05, 0.00011522640416828323, 0.00013991144262085674, 0.00014989571961454996, 0.0028649614292727476, 0.005746438295729503, 0.008495121698693082, 0.012845191814258876, 0.013921355290527786, 0.026648065333503793, 0.03588326021809791, 0.020334645673335407, 0.010488048568463384, 0.0043660975724189, 0.003595957193301321, 0.007592583708249011, 0.007524395144811428, 0.00688067845767262, 0.005067935742005007, 0.0054773589666723965, 0.003353517581063597, 0.0008366018710155589, 1.0591127268305582e-05, 3.77552657243916e-05, 8.082176616977024e-05, 4.887045770942558e-05, 0.00015115465888237604, 0.00011058711689920402, 5.3212088737967717e-05, 5.968186631140277e-05, 0.00016700471065849278, 0.0001576094086669428, 0.004360387473684318, 0.020164745016598193, 0.03732618052178917, 0.05224683894398572, 0.09210878036265198, 0.11841968886793638, 0.13519395189333475, 0.1304011983526601, 0.12234659657216906, 0.1050150866892466, 0.08717715637283281, 0.06448942065271783, 0.04632467610113165, 0.050643519262590635, 0.03633562199453615, 0.022726597117222948, 0.01324174712632355, 0.0031672602372844207, 0.00031560571462956396, -0.00011818734197121472, 0.0001227166895934802, -5.6613497136818516e-05, 8.140030863175504e-05, 2.5467157306170272e-05, 5.050853728441657e-05, 0.0010953267431466217, 0.002766752125387293, 0.0034577700164436236, 0.01308921909694673, 0.04550227896643189, 0.0825593341792507, 0.09268396943225907, 0.1363025569522684, 0.16009250923947604, 0.15255890223298313, 0.14358617304726065, 0.11741926197963097, 0.1054968802906647, 0.07914393697213884, 0.0654230234814051, 0.06726110025320207, 0.08380575734991629, 0.05468122477277972, 0.05372367514251389, 0.04747296358741644, 0.028201473827880286, 0.011115408408730092, 0.002360079417238603, 0.0002595270060485531, 0.00011138900725367647, -5.6912462221743146e-05, -1.343254141114148e-05, -3.576496050872897e-05, 0.00019290831217250789, 0.007834243869951303, -0.0011465817346252294, 0.001420781342580006, 0.02846262481211267, 0.05885101482203855, 0.06178661866843885, 0.06941856805656482, 0.024934796441223053, 0.018355016107689952, -0.04357117516386009, -0.13983739551141383, -0.249611393765213, -0.23173657229792088, -0.156508464639331, -0.12070054364624483, -0.024841434933188637, 0.003657167797232679, 0.03147526678124458, 0.06648044297117073, 0.06537758513360115, 0.014677415749231369, -0.0036511602310872384, -0.0018586045866492073, 8.844997473249557e-05, 0.00013170677562996115, -4.775940995584471e-05, 2.4271548190615452e-05, -0.005201012882847297, -0.001139959726642196, -0.01977373486805929, -0.010494253803567721, -0.009751695603818908, 0.016128353291153846, -0.015287744583467442, -0.05213209598855992, -0.18741272069910378, -0.2526952980563958, -0.40445180420943766, -0.5228088508231226, -0.6343297902731517, -0.6249830495233685, -0.5316738220878625, -0.41057162258143365, -0.2547172934577615, -0.18658262455501562, -0.1079633082759945, -0.01941368873626253, 0.024454241580151213, -0.002518924732045324, -0.015750262140378887, -0.0034304396727928574, 8.506017181993346e-05, 7.588955989043545e-05, 0.00016175688718934503, 0.0006064883599832837, -0.004630158841431868, -0.00579445842503948, -0.031201781106260738, -0.02512273441984823, 0.011145884817034102, 0.015937387018792427, -0.008802021918151676, -0.05421055156677097, -0.1695560424680682, -0.3660243229639694, -0.715467062642976, -0.9408089554869016, -1.0152724450007837, -0.9447923197442103, -0.7739691195661307, -0.6448625461750599, -0.5012246518853068, -0.3656131956197833, -0.21705043761481926, -0.15379292428500668, -0.10929337381771032, -0.10651174825042953, -0.06379100734686868, -0.01741534968026976, -0.003165316424948463, 9.895083062474049e-05, -0.00010094401464695657, 0.005596260796428204, 0.015780393156861222, 0.012000912768189386, 0.031645456578805645, 0.06703303241254968, 0.1518623589300848, 0.11194280885595807, 0.13245862496424202, 0.053478026626931345, -0.16520772441139503, -0.45782392248821824, -0.8810301118300049, -1.1528596431703515, -1.2069435229159666, -0.983084608165891, -0.6792961684231987, -0.5089880970675825, -0.36213870008721866, -0.30716438756343367, -0.24340858261587056, -0.19609524080908083, -0.19634584099474392, -0.21597676046032352, -0.1398287945697018, -0.03662086304051134, -0.002276303099394472, 0.00015171766197484104, 0.005305546019978072, 0.028911002004066426, 0.06598993606387703, 0.08403555201985415, 0.10108402377296782, 0.1568300955972668, 0.2588891238216445, 0.3035099434416575, 0.2839356176859775, 0.11038226425976924, -0.10162834289272107, -0.4061461495883383, -0.8057259307306776, -0.9583846320466828, -0.905934676436542, -0.7081803945375277, -0.39514693842664206, -0.22459908584510951, -0.1783634624898138, -0.14546352999726075, -0.18103803152435102, -0.17773318728322282, -0.23230609328690605, -0.2949443464514313, -0.18947072419737704, -0.05788751357684661, -0.008182265434630192, 0.0015156515518839958, 0.011561323842855338, 0.03944917423476939, 0.09795788014493355, 0.15755389896874414, 0.1608271669739526, 0.16696501760255922, 0.3102206307727337, 0.38681975322967677, 0.30645534852695117, 0.18143886829708517, 0.10628887769246513, -0.10386157888687148, -0.4327115109282483, -0.5044707712024477, -0.44434735519790985, -0.20280298443767242, 0.017916380267620286, 0.1417149190041651, 0.14838461999822253, 0.1314061895130462, 0.028298654039003623, -0.14714231638313843, -0.2564885031572976, -0.3278287902665432, -0.22885843734556585, -0.07155008739115985, -0.004664743548990962, 0.0018611689370595283, 0.009516340458126537, 0.05237189179757526, 0.09893462113191832, 0.15136875608131595, 0.1988185804103091, 0.1954657889615301, 0.4514471621540889, 0.5538983481317876, 0.5616790049777275, 0.5978077614997966, 0.4719674475819231, 0.15147590421695145, -0.08821862099096761, -0.3037636818307405, -0.23576005031094296, 0.12325750857190616, 0.42534429664552753, 0.48822662385968696, 0.39437392641291175, 0.40737293844241074, 0.30007528698485814, 0.1191097086677369, -0.12839697461731434, -0.23550463330597, -0.19474815755441816, -0.06661884375789164, -0.005379254493170869, 0.0006019650581154446, 0.01797741320820249, 0.07583091073220381, 0.09391805293237493, 0.12998445013794865, 0.1762233328677932, 0.34632732684996015, 0.6519730306336006, 0.7443821074155469, 0.8974846086990995, 0.9586407957870967, 0.7006663974813406, 0.24693136480249356, -0.1430469315580998, -0.39062562730409667, -0.19786689852064937, 0.3725444313210012, 0.772541979543745, 0.7920998794778982, 0.6139270538236711, 0.5942882945042391, 0.6181775778726696, 0.4685547383550441, 0.21775140156740802, -0.030409567466269296, -0.10547639676455534, -0.037223214887962236, -0.0013609788854502397, 0.00015185225644477151, 0.012646906491264103, 0.05724928807946623, 0.09562578297938225, 0.11645428258520432, 0.2617028288237121, 0.53115949730176, 0.8070813250593553, 0.9095721021843237, 0.9234316384290909, 0.8095054920211329, 0.43134764891695404, -0.1920818525946432, -0.6404282849182598, -0.69850125889342, -0.22282578361841565, 0.5290214257334209, 0.8593939572912488, 0.7413417731209601, 0.46416713285936134, 0.5427041646874973, 0.7385493415000799, 0.7231173863428815, 0.5609378100787752, 0.2039602734096338, -0.03963761407228034, -0.027837449769759614, -0.0023381297482085177, 5.61063830802061e-05, 0.004907435684809694, 0.026662500458188094, 0.06276535437032298, 0.13287504157600016, 0.4110034442005575, 0.6678008636979366, 0.8060665239456448, 0.8226085682300531, 0.7556602624936486, 0.5251559265322093, -0.16489370089002767, -0.8387112533945905, -1.1794062986677436, -1.02321173683244, -0.33531566577288674, 0.3843947693624349, 0.5585648770017729, 0.42826861033954206, 0.2944385125676893, 0.48333852618523065, 0.7656090248075857, 0.8554259625670864, 0.7599577025334618, 0.31987755022323894, -0.038526651802709276, -0.04579002290255353, -0.015453499080484602, -0.0003939124238795969, 0.002624574972370606, 0.015427105037715817, 0.03547263996055115, 0.07894889101884522, 0.4275470708696229, 0.6647496053593019, 0.7704482067955294, 0.7522387816317784, 0.5617171322835776, 0.11770549976678045, -0.5538234793781012, -1.0821076725854155, -1.3678727001706936, -1.111827809102647, -0.3978432139145513, 0.21253680867472063, 0.35646695357009106, 0.2905424196431, 0.4001488885291569, 0.591251699485161, 0.8150876039563221, 0.9387930367704815, 0.7591005541026561, 0.29936248499037793, -0.048574407046427265, -0.04515512190180021, -0.0008994712963009232, -2.1301797126043007e-05, -0.00014752911330798694, 0.008416035629430444, -0.0041638249484431235, -0.02201416635956685, 0.2880323514091333, 0.5665889749516776, 0.6645617378839752, 0.603770859205914, 0.4047656979095857, -0.021659194509405042, -0.6444354553769032, -1.1523875373628925, -1.2793563635703407, -0.8301253895120252, -0.22255253651704382, 0.07720452944647138, 0.22972249847920245, 0.21526731607033894, 0.3690556523474942, 0.6971881699253856, 0.8206155437892279, 0.8342438935421306, 0.5292380240703394, 0.14779091957776408, -0.07282382218019338, -0.054122407051519834, -0.0032549022607699695, 0.0001671121589560093, -0.00019390054548990915, -0.0006479009744107822, -0.05338852238153598, -0.10374500676609619, 0.11830060989609828, 0.42809377407705607, 0.6018659031681453, 0.6008289493106916, 0.3579966841615239, -0.09134516995942094, -0.6800598589521266, -1.1402663134916802, -1.0918574470614433, -0.5205880139971244, 0.022754055030710693, 0.027304209360222296, 0.05455208304596298, 0.1804163994684206, 0.3542160459530065, 0.5489802211023659, 0.5579263120366669, 0.45560270139534287, 0.21813503663871814, 0.034728013151724704, -0.10741286576165353, -0.06464641325946054, -0.005955957296700112, 0.00012811571821969646, -3.915493428755836e-05, -0.0076555482845079076, -0.08596529407902805, -0.19797851255998813, -0.09673785776390914, 0.08577331169985923, 0.30505268606339525, 0.38787765996104523, 0.2064882582610825, -0.10839081414410101, -0.5863217383203905, -0.9491522866247505, -0.7717953730766436, -0.12141843428463032, 0.16125450907776095, 0.07329905269512398, 0.11401623493856357, 0.27141002756373694, 0.3029706714321738, 0.3682887852358705, 0.2744561971077768, 0.13954665702141753, -0.03384726121470245, -0.1540391314472624, -0.12124196102629226, -0.038559502359620815, -0.0033782313974820475, 0.0005057604781895981, 0.00011980616219498507, -0.0041846749554494845, -0.09807975739884013, -0.25351363733210086, -0.34354609594894725, -0.2735202871032533, -0.04124022190134282, 0.14437877942217248, 0.1479482335865264, -0.12460356199559713, -0.48736816538445044, -0.6371228112459971, -0.3945682578410594, 0.12478879020383858, 0.28872537865988185, 0.31977003168099055, 0.3454847372623321, 0.3094678519339746, 0.2813392047194602, 0.19276443805271104, 0.04061915255011658, -0.14107295564114725, -0.2678252368384593, -0.2398985317819089, -0.08279160690029148, -0.006334448222922194, -0.0020771590065588067, 0.0001843066991532807, 0.0028459241009811975, -0.005353199553263056, -0.10044612106679188, -0.25703358938667076, -0.4130511038029328, -0.43516726388998117, -0.37711241068522355, -0.21986887262092525, -0.1500711516194464, -0.20882045041470776, -0.33875315782778664, -0.3406601458860155, -0.04248150478577966, 0.40388776253183895, 0.47287659392836784, 0.5018022053837478, 0.4500571775263639, 0.25415178707494457, 0.19444445728803772, -0.05412020991706059, -0.22727134715065608, -0.38521457349395394, -0.3588168404156859, -0.17594755902404186, -0.05850265951146934, -0.012663627867969256, -0.0005602240369463585, 0.00017491252240493224, 0.0003764456994706351, -0.014155940397394541, -0.09919578585404668, -0.2430779854044348, -0.3999956985686172, -0.5563845023487464, -0.6156703470315573, -0.6237478224734039, -0.5096266943371882, -0.42609372830019654, -0.3143069473696955, -0.0315277330397409, 0.2873808949965072, 0.6259864998188582, 0.7178794518096703, 0.688727632797283, 0.47980131633217027, 0.16335289868195718, -0.10053636329777958, -0.3302858090041729, -0.44681277854058754, -0.481467104501604, -0.3320314665849971, -0.12889671178859685, -0.03452910565856976, -0.006015568073616777, -4.653232840174783e-05, 9.961892343964946e-05, -6.199333906236099e-05, -0.013755052762871915, -0.07424273150130202, -0.1827531135148824, -0.3094220537965882, -0.5124944240158561, -0.649261997652552, -0.7056405000134307, -0.6543074082162952, -0.49529149601981626, -0.2567166887846778, -0.005769274499814664, 0.28300331563846726, 0.5648374572947148, 0.730968787361879, 0.5994600059552929, 0.2857464872222799, -0.07355810102689546, -0.4088187586357685, -0.4785068315694615, -0.4549845141717096, -0.40192374820428634, -0.2578237902928528, -0.09172519591831504, -0.026693503645509663, -0.0014674948928415114, -4.383493093218847e-05, 6.19979471444316e-05, 3.410648837658801e-05, -0.006812741719921534, -0.03890977068035111, -0.1098989624645206, -0.18780070107634872, -0.3495992412653797, -0.5300654362122685, -0.6586258326987605, -0.6961683681056744, -0.5935921164181414, -0.47796648405098324, -0.25905343813491527, -0.06379538639755387, 0.1960671688079691, 0.35599531038158033, 0.12187149128935822, -0.17145778764652356, -0.43943884977438064, -0.5331106602231052, -0.48059211026938997, -0.359535505060905, -0.2842755302337803, -0.1802199860456751, -0.07181344441548862, -0.025481497694424635, -0.00031796163899214345, 0.00010112634571971068, 0.00017662020132061935, 4.230676852449317e-05, -0.002382440832644643, -0.012550604419162104, -0.04177262174044366, -0.0869260130979169, -0.15378527731800876, -0.2717272656784568, -0.4262507553470106, -0.47352791744359746, -0.4482870770779853, -0.43879355904215683, -0.3693715209575539, -0.23616932277607788, 0.025158912581086445, 0.13975966546443236, -0.07521583379351685, -0.18658466837586235, -0.33390408684240774, -0.38577184230581757, -0.3056357020552657, -0.22942517306634705, -0.17259347738622763, -0.11209057382236468, -0.04244165002745633, -0.017847443367643993, -0.0006342184649588852, 0.00013111907216962815, 4.3931713684047125e-05, 8.04611814860949e-05, 0.0005243823855826683, -0.00035289831369374013, 0.0050569205980087, 0.010337836402660233, -0.0049260116747642585, -0.03436397220423197, -0.08780689401489997, -0.12933730378344568, -0.08514296499847163, -0.04690233802693858, -0.03178273794961385, 0.0022981282800586342, 0.157474340909162, 0.20997798558836173, 0.12621235925553012, 0.03185321226761245, -0.11077028469514952, -0.15891689917699062, -0.1468645497555819, -0.11263047499383999, -0.07577751661035902, -0.06512332159833197, -0.030315729314805827, -0.008027577035749467, -0.00019482451963077945, -5.6154837446227295e-06, 0.00010761543087262896, 0.00015324322887117072, -0.00020928498442037774, 0.0005487062194764697, 0.005608085356177588, 0.019572392966852342, 0.03023331957093293, 0.050978514348595044, 0.09468795309155206, 0.13048647152468704, 0.13916245400311378, 0.18828404863046147, 0.21098942723199243, 0.24831123789001047, 0.33729676998288055, 0.3171636842155457, 0.23489505270397382, 0.11461063181092072, 0.004037118419915431, -0.05499849217475745, -0.08856546688249166, -0.0631215599637841, -0.03933062889427159, -0.028932586161129484, -0.007735467175690243, -0.00010671021772459397, -0.0002968823965756945, -1.69919707518797e-05, -5.3276052627132974e-05, 0.00012258514609415783, 0.00011962349450670398, 0.00019996060778637099, 0.0038649891749896795, 0.009635675192094075, 0.019052818332957612, 0.04502820019768674, 0.0863529063449905, 0.12355213792432373, 0.13253014108389657, 0.1356424846966523, 0.11894463876667413, 0.17231029045562257, 0.1876236100055115, 0.17084195459413556, 0.143879326687481, 0.09244332885110028, 0.046497834630774657, 0.0029683486847883827, -0.04112036598263144, -0.021298797500866103, -0.003042478118760551, -0.0033484694299807057, -0.00010072850339580288, 6.15642780397214e-05, -4.2804405309346604e-05, 0.00015195767460205833, 0.00019054315842749703, 6.015613612540839e-05, 0.0001609207363767223, -4.938935229226401e-05, 0.00022881661310194217, 0.0003240681695552531, 0.00045483356067136196, 0.0009354322118177972, 0.005087305110859564, 0.007800243481153246, 0.012464960020524683, 0.00476220567767627, 0.004437520383461117, 0.023853753855118398, 0.029103337895371142, 0.024892270103658, 0.029273803343981414, 0.022799504248269, 0.024442400057804008, 0.008146612069988166, -0.0008220962541008459, 0.004022432195587544, 0.0054836777899549905, 0.0009494304108242518, 0.00019103563203354463, 2.3007781506796592e-05, 3.1773976444168836e-05, 4.88665376175009e-05], [0.1306287634462391, 0.13058433614067025, 0.13075692636018407, 0.13079064369282103, 0.130575141719556, 0.13076092549071847, 0.13063072927911826, 0.1305598117106843, 0.1305764517328077, 0.13057533624510956, 0.1307446472499734, 0.13077621010127663, 0.13108607798149266, 0.1314205715566655, 0.13055192361626536, 0.13063192238363516, 0.13067847051956802, 0.13067091052925875, 0.13071359531249707, 0.13071137074688285, 0.13065336498741184, 0.13058611361993686, 0.13068974896275656, 0.13074775229516536, 0.13078378097044505, 0.13077420275622856, 0.13078784161204085, 0.1307559174390561, 0.13072593392203072, 0.13067229220866852, 0.13054846014259022, 0.13069860342258008, 0.1307264557583331, 0.13065051147087517, 0.1311767748468018, 0.13153832838140148, 0.13322737633671153, 0.13418401039378208, 0.13389027395480443, 0.1355974679787384, 0.13536546084328438, 0.1321518489692832, 0.1315827151087693, 0.12979267120473637, 0.12236363829135083, 0.1254365161829391, 0.1304211436693317, 0.13179245829592856, 0.1323381485258028, 0.132519489792967, 0.13159698851367693, 0.1307050018011764, 0.13061348254359736, 0.13079119050883267, 0.13078460013313983, 0.1306488981335663, 0.13076331311605024, 0.1307543734494733, 0.1307677645616556, 0.13067304705967953, 0.1307047581019131, 0.1306913881619747, 0.13129941312002497, 0.1342847610614623, 0.1324533581784702, 0.12809050258022533, 0.13565466138243173, 0.13177096412218664, 0.12481801245342564, 0.12355660556597779, 0.13605063883321847, 0.157928394653349, 0.1524106977524363, 0.15119099338524852, 0.14899317160425796, 0.1680351213858919, 0.16868919437878255, 0.15834743317610284, 0.14199236379998023, 0.13245898128522895, 0.12931035024483187, 0.12939423328638686, 0.13057227281914294, 0.13061988724796111, 0.1307366338820645, 0.13073942238369965, 0.13072572278310493, 0.13122818617998028, 0.13243022212010305, 0.1371416766545993, 0.13576936599019965, 0.13320996850215042, 0.11966517514285505, 0.08595441397788853, 0.08530444495392991, 0.09636218909302788, 0.12399095230549272, 0.1505318239859699, 0.23134359382187195, 0.30096697994801364, 0.3164656019139911, 0.34504796891871325, 0.3741022716308598, 0.39313858605572594, 0.35409585506284935, 0.27356331920737587, 0.22845965573660443, 0.1825906345419292, 0.15460339534283693, 0.1329264883530009, 0.13226820830851954, 0.13073115626887286, 0.13069937232930537, 0.13064418082935378, 0.13095707150106103, 0.13221669110181905, 0.14392237685046735, 0.16438161600131956, 0.17411131032860555, 0.17623182642524537, 0.18128807740846836, 0.13968884919874022, 0.17420357340531237, 0.12080364163454156, 0.10003065099790305, 0.06262329477392024, 0.019564772348591213, 0.0988998057900858, 0.2003616779993602, 0.26537833487105417, 0.3857961777751118, 0.48519027845998725, 0.48110796051673754, 0.438745086004223, 0.3534596888892714, 0.2789202628603563, 0.19060721286886378, 0.1425525581488025, 0.13111981502763712, 0.131008262567561, 0.13070001089545827, 0.13057772095252737, 0.13099569240048164, 0.1409588041960842, 0.1796656578847349, 0.24209293135723955, 0.25961928006723867, 0.2449073299773017, 0.18171092300168196, 0.13108139950635062, 0.10145361678219969, -0.02810360746433666, -0.1317310492427794, -0.18026515646003965, -0.1722591311182414, -0.07116789302879942, 0.020139952964349936, -0.03430389776197004, 0.19257285072774602, 0.35330605942004717, 0.4304503431582317, 0.3851277326498344, 0.3642514175101754, 0.33247619946530643, 0.23733707733951867, 0.1492004126061603, 0.13570488110292656, 0.13215911607144604, 0.1306298906508188, 0.13060501035262365, 0.13325392892703963, 0.15214562834905357, 0.21464571275364253, 0.2615272931969159, 0.2526195037363709, 0.1462418986970476, 0.04903977926462382, -0.03570666292781977, -0.10434872472367089, -0.19780969000328796, -0.2495989486638981, -0.2296556184737178, -0.2009620559753524, -0.20414296373934757, -0.1709442874604, -0.08985951999775023, 0.0947891797512555, 0.1568822432473838, 0.20392265559376443, 0.16039877875141903, 0.1740962487730829, 0.23342478730058985, 0.24821425935176433, 0.17975469174431133, 0.1481048796443204, 0.1329435910090353, 0.1306784649486948, 0.13252546408999244, 0.12899650248680847, 0.1472378313865186, 0.23570017967355494, 0.23259808547599803, 0.1040273057903845, -0.0648014998704709, -0.2250624489360446, -0.32903026331515944, -0.4405187544661517, -0.501999615358001, -0.4932060437390525, -0.4367643782060791, -0.28161372133659585, -0.24811700991744026, -0.2357717248184639, -0.10323126268164234, -0.1470969993596346, -0.06917952231799336, -0.06644591018416847, -0.08208166830928906, -0.05907201920876901, 0.02768140148217289, 0.17748160556871245, 0.19241111111692244, 0.15344609798488448, 0.13323569504178867, 0.12953646868347063, 0.13027396440249844, 0.12542832260464312, 0.13919761165293248, 0.2102644381808919, 0.12850456792955922, -0.11210688568608974, -0.34109295199695033, -0.46980949544946443, -0.6473932218956777, -0.8243178505126234, -0.8317489602400467, -0.7733199883698589, -0.5428407718790786, -0.26935086680874215, -0.07784133552229734, -0.20806334700319437, -0.2084880338924032, -0.379086935370645, -0.4291562151278979, -0.41456505921345593, -0.39167848358661445, -0.31816099449458324, -0.16931061190462907, 0.10179412566912943, 0.18118921547674177, 0.14080822042161287, 0.1313377456070031, 0.1307200544310432, 0.12917457319078837, 0.12194915198855888, 0.1240080058228648, 0.14258258619310948, -0.008401438513756052, -0.24805254840971688, -0.4194627256573175, -0.5903578881844537, -0.8114621987285114, -1.0034456912574263, -0.9222641324500349, -0.6539782527944094, -0.22875398546546247, 0.2265556642542116, 0.41396756743138613, 0.06246945214218291, -0.36170575069402733, -0.6238291221958968, -0.7239739800036548, -0.6830351520168797, -0.6604366656808942, -0.5850401885784883, -0.31837071782860055, 0.020256069190865294, 0.15032779100107932, 0.12661839037374942, 0.12815105237763103, 0.13071412334990704, 0.12843286634605652, 0.11099105437423071, 0.10766147407126823, 0.06268855217739772, -0.10711017322532917, -0.35057487464939496, -0.47228841228720225, -0.6200714778330318, -0.765889473326004, -0.7978719564969713, -0.5895098546236374, -0.16802039775436267, 0.35835418496977595, 0.7383876302975633, 0.7646972639955097, 0.1465000257595052, -0.41510926336305864, -0.7720908953900972, -0.9097381593380878, -0.9349461721143599, -0.9077336483771874, -0.7807344893648656, -0.4205353138383853, -0.04142540622227534, 0.1281056939169611, 0.12227056923041447, 0.12816980725176635, 0.13072785661318617, 0.12597212579217507, 0.107437748455909, 0.10255590433637872, 0.03983741539460881, -0.12117072951283649, -0.32445610610064013, -0.43651303095667177, -0.4903374942699981, -0.45937118610365973, -0.23697188610432277, 0.1535616331618713, 0.5580738590633376, 0.9005575064704144, 1.1682210302162759, 1.0006573058485617, 0.3215947593307193, -0.2346840337936437, -0.6328468969817688, -0.909288372023019, -0.9722973033296888, -0.9392730263914213, -0.79807290327841, -0.43330411995848345, -0.09990071792752049, 0.10348332647655595, 0.12058018957209048, 0.13099721724267016, 0.1306901729578566, 0.12550491086144272, 0.11005565842926164, 0.09151086949267391, 0.033427081507149896, -0.1093274623331697, -0.18484570571329229, -0.18816263526130025, -0.14466375959785147, 0.061066988571334656, 0.4917544574403694, 0.78072209984423, 0.9840423723013482, 1.1751276395337678, 1.402845831189899, 1.0184698986462597, 0.46023554869648703, 0.009883613628831922, -0.3048586529736875, -0.6531564852191425, -0.7412650786306806, -0.7511250650103644, -0.6315182677192822, -0.36359525176742424, -0.09054018365658142, 0.09464512373214594, 0.11450029497970504, 0.13029408868144057, 0.13074923141404302, 0.12738371420529387, 0.11836085731870401, 0.10428369337985723, 0.06534920071766287, -0.04634390545601682, -0.07044574244417028, -0.06244980273464311, 0.08711140246901122, 0.33110946883721365, 0.6878578639330483, 0.8649317071926085, 0.9871777967926498, 1.0633525826686416, 1.0892480592602487, 0.7680934577442082, 0.41586755796756436, 0.189378825177709, 0.028163973064713285, -0.1328664106014426, -0.28694462896856626, -0.4129480371382454, -0.40315486766611464, -0.2563787697285726, -0.08331139700681794, 0.07360606308836616, 0.10647104516230485, 0.12445578968943626, 0.1306899560836219, 0.12976629128012826, 0.1249217889693222, 0.12756471224033536, 0.08865822672415377, -0.05799579672634607, -0.14482163258109065, -0.1342351974346612, 0.026550076016689052, 0.24533191307773025, 0.3942979703443972, 0.4902801033146969, 0.5704667005078153, 0.5218044000896551, 0.6500545390991597, 0.42298012726398315, 0.15605724718502975, 0.07953824565105137, 0.2509964049492569, 0.3172569512212716, 0.14786770285201298, -0.03935264477718001, -0.15759185675221282, -0.19078041749280944, -0.07037127036722761, 0.05899885583449334, 0.10183957651442922, 0.12964354297785385, 0.13060139587276245, 0.1309516514658507, 0.13380175320386758, 0.13546377521403724, 0.06991790315051782, -0.12263847201855682, -0.2836777386491374, -0.3899625982686903, -0.3503448264281651, -0.298938241452166, -0.2506137691390753, -0.050251404632616875, -0.03479568923459333, 0.06523179962483758, 0.31221277795438823, 0.024139500350437774, -0.1348664033718111, -0.07914152530993743, 0.25775071490023627, 0.40271743142520716, 0.3620491853538602, 0.21497068094095786, 0.037698933282410425, -0.1152142020818794, -0.09409614334653704, 0.02438096971528033, 0.08888218714641073, 0.12597778904124435, 0.1307209799569977, 0.13190580936756402, 0.1426800476125771, 0.1440435812920467, 0.05944446792842508, -0.16203229636939692, -0.42680725937852954, -0.6011442993780536, -0.8035116059255708, -0.9491669716689166, -0.9525501863290989, -0.7536188855675864, -0.7300479221999051, -0.3059783771616851, 0.046761305518354175, -0.21336384175021217, -0.41798089507420494, -0.28517635580685086, 0.17420385489473975, 0.3282252603637097, 0.3390703425124616, 0.26637168524130367, 0.09327183117282764, -0.10036446959219271, -0.11039977122978566, -0.008928252729959634, 0.07391106259526731, 0.12374204392753506, 0.1307858446694571, 0.13128105230367929, 0.14485438759880506, 0.1667998854710759, 0.09304063725236739, -0.15794519011158853, -0.41106130013513925, -0.6098890027543744, -0.939283506370044, -1.2722262050955113, -1.325255491419408, -1.2846624739937047, -1.0577186734720623, -0.5387355349177393, -0.1759158497323228, -0.2807061831559622, -0.328322502781281, -0.19434317508978827, 0.04281891715481274, 0.19008677511929378, 0.19484962943390616, 0.25004097845289985, 0.06720787337749404, -0.08706530578764975, -0.1711264146659021, -0.03599145074542103, 0.09115406782770862, 0.1222953918682808, 0.13038110195237168, 0.13094707272578596, 0.15082062786686204, 0.2314716713577723, 0.1572832307555866, -0.08449622229986158, -0.23952902140252638, -0.49292000829135607, -0.7685256642102445, -1.0307130845515802, -1.1986213712145866, -1.0867816116874993, -0.9257917227661434, -0.4973286012568059, -0.1663980039140039, -0.07350282636064377, 0.0340257742116934, 0.0848037205773387, 0.14138591897404076, 0.13052690507389092, 0.19066406399780697, 0.19276599116428905, -0.04636367859263894, -0.19688125994373376, -0.19232751651076282, 0.00025580802011913737, 0.11453000227313896, 0.12722063074065668, 0.13061346077300032, 0.12858272599897042, 0.15739991160583075, 0.266963561609911, 0.20410167392846437, 0.03541204400717505, -0.07340629520524805, -0.22391294582222493, -0.3895906333733219, -0.5759920434590265, -0.6525118007002758, -0.5568792652308576, -0.5298477589327301, -0.12711407944840206, 0.1272877215045876, 0.3097811189988237, 0.4311297862515579, 0.42849252638907653, 0.32987247520174023, 0.2104741326338064, 0.18495123224787918, 0.043715293365824054, -0.18083954352767387, -0.21160490531066653, -0.1188761044121239, 0.033873372170988, 0.1101866434880532, 0.12761262525473194, 0.13056523070017625, 0.12721870668678342, 0.1551503048369162, 0.24977244377802543, 0.21065791694963978, 0.08598376128529812, 0.043529978445334246, 0.01368535114634221, 0.07901417287265003, 0.03798344373349924, 0.0008642703751975171, 0.020367139453837873, -0.004316341432784643, 0.23682909622506207, 0.5246332667712496, 0.5935012661911667, 0.6075224569924594, 0.517183987001383, 0.340389037030443, 0.11220941334913921, 0.013353029913546921, -0.16011177502602697, -0.24470699735878948, -0.18609035715152986, -0.07293476364176743, 0.07768677527391894, 0.11720516028818397, 0.13085925511921634, 0.13070617044616076, 0.1309118645300272, 0.1531569978767151, 0.20707946132882407, 0.22340202369619483, 0.1783111284224179, 0.14381214016192279, 0.1212572513142628, 0.2784311525282587, 0.2744495903330157, 0.30647635666423023, 0.19971975195639738, 0.14015996115825066, 0.2724113145759754, 0.4849989475724592, 0.5797162025721974, 0.4449557162399923, 0.32101910731351513, 0.16364273159389167, -0.009066041469287446, -0.14528568085355684, -0.2061853851835606, -0.22115990143741424, -0.13225932038188, 0.006646245904531967, 0.09704970788932041, 0.12308202413629467, 0.1307869869388585, 0.13069194406792276, 0.130649378887819, 0.14957759241761026, 0.18663999956814067, 0.24448642221454883, 0.2220786066802273, 0.11955675503832337, 0.07875565337526474, 0.13480613510746317, 0.18234001017481988, 0.10480380622967538, -0.09960012946050428, -0.30929611799516543, -0.22004584608573652, -0.039489330026014756, 0.1175971389076884, 0.11223196473457187, 0.04124465245885568, -0.03977517621734576, -0.11427158968101295, -0.1863518384199818, -0.18883151132046977, -0.11351698239315874, -0.00796291706633914, 0.07888427162437853, 0.11876294344081417, 0.1315154952535612, 0.13065838969116425, 0.13072375988213228, 0.1307651405812005, 0.1380226712054363, 0.1658684866560613, 0.24045595147516788, 0.30155958744814815, 0.2555986071646638, 0.19209446234771727, 0.14464922191744894, 0.12592256552377293, -0.026549163799709983, -0.2699360151626064, -0.4754477746188075, -0.5023672232903695, -0.385545513840325, -0.17035175941944752, -0.10896972345460108, -0.09023061843356704, -0.07990017265330573, -0.1023202899260893, -0.10189859566714965, -0.05853647249876241, -0.00863486227767458, 0.06366842625556572, 0.11250567558012305, 0.12747814143686004, 0.13372169726390476, 0.13072327907014755, 0.13059136723521989, 0.1307380888239932, 0.13466459173812448, 0.1442927515742916, 0.17202915687661205, 0.22192716329212075, 0.2573828187990492, 0.27549240180776957, 0.25042683567796403, 0.2598201459722584, 0.20775593493422634, 0.08314091317771674, -0.08159994549662104, -0.13672982111615886, -0.14685373315476824, -0.16454440409764304, -0.14712898411197786, -0.06177182638278538, -0.03345188804763974, -0.018917371224759623, 0.03566860889633905, 0.08389058933270067, 0.08671965960707902, 0.11531514968125282, 0.12188145483410866, 0.127293057776915, 0.13020739733107264, 0.13065666058163586, 0.1306992279347818, 0.13060229739880938, 0.1310607128836205, 0.13167755777114654, 0.13430718843670533, 0.14245220363740962, 0.15337036400753062, 0.1656069123156824, 0.19883051242201025, 0.21981639300533792, 0.22181803626597602, 0.19720729358209346, 0.1654010076701794, 0.08776864809576836, 0.019816448471684702, -0.023002224674177344, -0.04314801149294338, -0.035139334475163805, 0.02098408207738986, 0.06286006027945043, 0.09627207340999132, 0.12010560392984211, 0.12957528835168303, 0.13413644713012196, 0.131325601031165, 0.13012908690061656, 0.1300097578812416, 0.13059094111031969, 0.13064018270069597, 0.13068375927439388, 0.13072106584799006, 0.1305514989252057, 0.13028712712282678, 0.12943679061591204, 0.12633283986886687, 0.12399408373768708, 0.11708926593232964, 0.11126614783877839, 0.11279333319785666, 0.1019279201774263, 0.08308786154394035, 0.06182972673501879, 0.046287436869355346, 0.06732614236454319, 0.06962671972656122, 0.07682053961679376, 0.08929432613876992, 0.09977140533200478, 0.11977198240310696, 0.1267190889957458, 0.1276251925612425, 0.1298870213783376, 0.1305454657762196, 0.1307014096943724, 0.13070989547783776, 0.1307497364609316, 0.1306365215262467, 0.13056506713700058, 0.13072769149268784, 0.13078428777970355, 0.13075308567332591, 0.130741629210216, 0.13067215797616366, 0.13096718744576968, 0.13039551562457352, 0.13005255659111978, 0.12932945607721952, 0.1306125835288551, 0.1292725980540557, 0.12438409850304125, 0.1242253840260356, 0.12808532367755848, 0.12595371953473483, 0.12574761991603303, 0.12280929995130187, 0.12583209981390164, 0.12942160674690695, 0.12933230797706732, 0.1292309339083184, 0.1304951223810036, 0.1307684195702921, 0.13076340020565977, 0.13058231550476776, 0.13066264664623597], [-0.03369140635823729, -0.033717474675675395, -0.033852463012238064, -0.033835221830835475, -0.03384363128535175, -0.03370937527275673, -0.03370187936135508, -0.0338118537374052, -0.03375804578043432, -0.03381486222787041, -0.0336745734554087, -0.0337896010618439, -0.03296194284652549, -0.03169417915371522, -0.03369984321355648, -0.03378164261611271, -0.033710254553766326, -0.033869670478271156, -0.033845307473216076, -0.03384134127494109, -0.03375299980730103, -0.03383338720086123, -0.033829902319009626, -0.03374554339685592, -0.033839710073741903, -0.03375364959142594, -0.03389917093413646, -0.03374410883807646, -0.033898766521992384, -0.03385838914917614, -0.033907143667284305, -0.0338457405313805, -0.03380212855282929, -0.03369196140516339, -0.03141703226797148, -0.028973973857435352, -0.03079369730647003, -0.028903840323479847, -0.023228553541242276, -0.0215049702083093, -0.013885283400978703, -0.021731657540124846, -0.027067638743234146, -0.02406485453645169, -0.018587628397730465, -0.02322021135380616, -0.02983322291836788, -0.030479398919939227, -0.03135418549166594, -0.03227587190348962, -0.032782707523937235, -0.03354081631804894, -0.033871673920384184, -0.033843787578838345, -0.03375052453280266, -0.03387040471865923, -0.03388510334798934, -0.033782293135217085, -0.03374298815029551, -0.033800973666306015, -0.0338112393410075, -0.03376111691352659, -0.029989368708467225, -0.020388165786673046, -0.012859913676365789, 0.0014572232818653216, 0.028607896310482595, 0.05070114045209569, 0.07625041838681106, 0.08567512692987096, 0.08500707630205852, 0.09644108300298831, 0.08500005556359302, 0.05341030851590791, 0.021625973970071377, -0.0022700901258183377, -0.008805757202575636, -0.017272354544003218, -0.03084877685377492, -0.0321266332087836, -0.029734312940638073, -0.03148543481838185, -0.033860162619856825, -0.03371948076501472, -0.033815953986319335, -0.0338308319317353, -0.03370978811132538, -0.03294147263743675, -0.032373070902681496, -0.017664271610306974, -0.009824550804628593, 0.015260865808663631, 0.048680919786030875, 0.1157627444328081, 0.17474981415526755, 0.2583858380253779, 0.37367121910492285, 0.44114978532366983, 0.4973213616228571, 0.5114618160187738, 0.44293208841804926, 0.35999912385104155, 0.2675984149912636, 0.17199842590306683, 0.09173526010015969, 0.02037783354077164, -0.019487580765197493, -0.02857232638803822, -0.029246104237392347, -0.03350057185602228, -0.03349436481047368, -0.03366292204792625, -0.03389676609086283, -0.03376882571699947, -0.033719551416040015, -0.030781640028490136, -0.017951948466688683, 0.03571907630707514, 0.09769916999992621, 0.16467253136908772, 0.3054112114924046, 0.44151257943799477, 0.6067547661987908, 0.7033803956028579, 0.8062730982164793, 0.8448422138240309, 0.7904013517874524, 0.6879917554651673, 0.6599623884001987, 0.5200651342608675, 0.4368233630099315, 0.270892724679532, 0.12525696233437392, 0.0265316867400891, -0.05495682570463809, -0.1055170244474483, -0.0846565127671702, -0.04317726150839522, -0.03396791189899529, -0.03375268481796085, -0.03372234848523053, -0.03370605841163032, -0.033172710981467096, -0.01698033470851285, 0.03949097032401096, 0.15950930214598724, 0.29690767912052857, 0.4572743539619826, 0.6358503524298393, 0.8114016810072339, 0.8678129281933562, 0.7649782188128296, 0.6972474314360609, 0.6645753332578328, 0.6129502149684635, 0.6684067149766226, 0.6665017818344287, 0.4164021962274403, 0.35372421036721174, 0.30087351534118006, 0.17712239178530925, 0.02031348506788259, -0.10457694834562847, -0.1857557978764791, -0.13740025434744757, -0.07407828795342643, -0.03531429739717694, -0.03388336352381364, -0.033756418109926904, -0.033699720786285116, -0.028677252400354954, 0.01503099085863193, 0.12358815516857277, 0.27434136442521195, 0.47921940760643983, 0.6545287878058706, 0.752105092969861, 0.7706809004585101, 0.6649888972839954, 0.4828695042863964, 0.39961002322755135, 0.3107208401415768, 0.17100125004992142, 0.10921009649966108, -0.04982782174653442, -0.14833520701549316, -0.07640287530308655, -0.021662865917806196, 0.052591334665061114, -0.06672813065144406, -0.2483309304920297, -0.3176207371130756, -0.1853695630236902, -0.09288271815076017, -0.03949030770560315, -0.03401701159822625, -0.033905300594516706, -0.031117959330790597, -0.020284884284970512, 0.04217202957126455, 0.24982358338832508, 0.4144212273138125, 0.5660216562042596, 0.5923494130013186, 0.513405290559218, 0.3594860765777378, 0.1883537328186246, 0.12830555413557554, 0.08112628061489437, -0.09994757231986416, -0.18606546332716947, -0.34335957016886215, -0.5907873323391268, -0.52644477830938, -0.4524801720421113, -0.2606162221872332, -0.18114288115195876, -0.17997119667992084, -0.30222408993176497, -0.4571240001624842, -0.29580058032535056, -0.12006368083153124, -0.040799752751345675, -0.03414494316649413, -0.03439948288987536, -0.029136874734278853, -0.019360290029508863, 0.06820935470379952, 0.2942004734009033, 0.41459719141041734, 0.4193104853212594, 0.2740865620473304, 0.05200122233012433, -0.14624494932229687, -0.19580613629698257, -0.26180782899803073, -0.3305050845287876, -0.30028623118061093, -0.1644797652201887, -0.19363556364154966, -0.4981287681799178, -0.4436855290478149, -0.4844108298766022, -0.3220770661778056, -0.30746900153617235, -0.3151692211831625, -0.39782302359272925, -0.5638724898608717, -0.3867453457038424, -0.14981841404260868, -0.042755233374546064, -0.03316221304188136, -0.033820059583991834, -0.030788822961911766, -0.015890798652877635, 0.06618200543345401, 0.24863425587057247, 0.24459152920568494, 0.05332886414132949, -0.209981348352966, -0.4806151625402436, -0.6703885310650406, -0.7917674394486417, -0.924270063186681, -0.8703019436003647, -0.4571758804796784, 0.10765769640992949, 0.22136310402679601, -0.10031406665463574, -0.4115097776862924, -0.5022172793802278, -0.4620279561145745, -0.4219258838258495, -0.4710239670985607, -0.5288312996140946, -0.5888632889049644, -0.36952512608226606, -0.13206449750449004, -0.045042787978874683, -0.03543881156184607, -0.03372135199477872, -0.03201675518499746, -0.022555214355260634, 0.05823868333805172, 0.09216729700226213, -0.07851246830215797, -0.39115466522296455, -0.7117183477493516, -1.0270044140319183, -1.2425914131319662, -1.3500872465779459, -1.3827373302895651, -1.1089617681829778, -0.30848978793550824, 0.40485314367713393, 0.4261430673685126, 0.06343497308645675, -0.30626160783232537, -0.3987087632849525, -0.4414310002508847, -0.5288775074214979, -0.6182118524496889, -0.6700187996134612, -0.5438155615920783, -0.277505508841326, -0.09290295300277368, -0.03989001047156174, -0.03390522246918698, -0.033938272875387816, -0.031099322309989658, -0.021709223573422153, 0.009767260915947743, -0.05689979146952452, -0.42294881497725195, -0.8435056040248176, -1.131912633261277, -1.3718811351637177, -1.384113584894548, -1.4107125961598916, -1.3194987848746376, -0.9196335882704645, -0.05321230497258408, 0.6270623004921395, 0.5850315639345584, 0.10592592025453697, -0.2092102504696909, -0.28559265053136274, -0.399273000935219, -0.6051694575052599, -0.7044455724060976, -0.7237461695268019, -0.4879679489744406, -0.21462484125457518, -0.046761578391431025, -0.034056549851097566, -0.03252407833179526, -0.033797302488086496, -0.03247870241214675, -0.02707884181969383, -0.04523252660563082, -0.1848849188936604, -0.6655300452166678, -1.0987533457273284, -1.2476113065794, -1.2171243233321114, -1.0808390180882657, -1.0332747423563677, -0.9639706951980919, -0.5268376123803848, 0.21456807679200568, 0.9407332323619951, 0.6787847384762674, 0.20301704773282098, -0.12187629402955906, -0.26874352141505214, -0.4075664275887627, -0.5573570492177166, -0.6615384029120153, -0.6972445782177248, -0.500034496324991, -0.17308829361891026, 0.0013696555382354126, -0.018251339576850264, -0.030622966007478557, -0.033808321409226134, -0.03328621516653003, -0.029358506866374454, -0.057270447942706665, -0.26881797351364844, -0.7713933452806424, -1.0922872284705236, -1.1623343903863455, -0.9436386114976857, -0.7746906877202733, -0.7863687364014107, -0.6128597814461055, -0.07869086844027284, 0.6694842187210213, 1.0549558499211584, 0.6599030271147812, 0.18864333741576286, -0.08107136252786787, -0.1808651498225993, -0.2575696241326159, -0.36139339459142267, -0.5017287904128582, -0.6003248178954292, -0.40511884480829324, -0.12802360816423633, 0.016221709175872265, 0.0019178867141538118, -0.024367022138953833, -0.03398929070061426, -0.03149409366494124, -0.031226228191220503, -0.04841526980744763, -0.24923823353993807, -0.6944889016387162, -0.9239446032030338, -0.9067797465902301, -0.6875853332433641, -0.5403078284375248, -0.5765900797723105, -0.345739102924828, 0.2443013301817441, 0.8805211852333482, 1.1897726019647545, 0.6798807663356606, 0.022740648038106347, -0.2041513980838231, 0.07307493549165424, 0.11767327265880316, -0.011121291983291584, -0.20303308098732972, -0.36925537936625774, -0.31892333917705373, -0.09297218199963823, 0.029090895484266913, 0.009968553775866779, -0.032743285051678644, -0.033968579759889365, -0.032311701834234575, -0.027151763991323994, -0.009519797450300226, -0.13327521899897, -0.41753680709442254, -0.5234663933443662, -0.6031421243884937, -0.5283813546224322, -0.5332786341406777, -0.5211691236459413, -0.1575623597317078, 0.3517974441667097, 1.0456249558174888, 1.1599693699934437, 0.3615295217675258, -0.27412143819850227, -0.227740308607455, 0.170743062352661, 0.39885249206115625, 0.2944234240134296, 0.1699874389908077, -0.05909040817043221, -0.13895857653214033, 0.014378832441218955, 0.08496189306504212, 0.01662366721274398, -0.026754285530549628, -0.03385567678636802, -0.03182624653164179, -0.012169578865981044, 0.06718370521949545, 0.0488159408688526, -0.1428122357193228, -0.226687943887587, -0.3614415919066055, -0.4920210752786996, -0.4973351547436349, -0.40890593109507567, -0.09195063131729209, 0.31756390320693484, 0.8613963950023542, 0.7875792248859181, -0.008275432480961622, -0.339198161422479, -0.14015686173604705, 0.3367297818198429, 0.5666206117484387, 0.5007234771799776, 0.5227392069784036, 0.2981453372485735, 0.12378661589099411, 0.14002993680553585, 0.15824173446995468, 0.04207536649385103, -0.021362495366521832, -0.033749681972057154, -0.032639740915941684, -0.003601162604944898, 0.1406786826248989, 0.22311478129184845, 0.09190295656384387, -0.07108199686755629, -0.2165889769442636, -0.37141690957867085, -0.5574044867917166, -0.46145428744132977, -0.20188155352518028, 0.13775648194835127, 0.45784443352439336, 0.29796896986870214, -0.06481231850738117, -0.08335539715413862, 0.1836318519445831, 0.49547857379215715, 0.6843365695739874, 0.6268280226166663, 0.7265340756149111, 0.5591128082668338, 0.3367991888040129, 0.22313300547219125, 0.1832729589964924, 0.014644847401073998, -0.03073287250743297, -0.033820224790061006, -0.03359452018915906, -0.0029622372474812286, 0.2189338466986513, 0.4086615261961289, 0.31589702897757244, 0.09932889263514097, -0.05857654954614611, -0.16539824888184465, -0.3016904106756607, -0.30079405433229905, -0.13696860236579203, 0.0687241855531211, 0.20842379357558363, 0.0608608041652892, 0.09980122631132589, 0.3838982393405742, 0.5938716584863721, 0.7629745689961973, 0.7540656731558509, 0.7114908503528892, 0.8282441747640599, 0.6399767095675039, 0.4023805243381703, 0.26332796606988756, 0.1384923491766237, -0.018615886464436873, -0.02820073472664076, -0.03382364330701366, -0.035257221192885484, 0.008536417154267973, 0.2459992477203597, 0.5098849014180448, 0.4408817306459551, 0.3144055238714146, 0.26378258529461707, 0.16383238753455567, 0.17441466371098038, 0.1243512952132805, 0.17250867340726478, 0.21093323573516765, 0.34170262460788214, 0.30628595523096896, 0.5234228487086953, 0.7216591815475549, 0.8712866469098279, 0.8201075968394974, 0.6978736223826282, 0.7038206394825566, 0.725643151652325, 0.5432906102824502, 0.32676837701399875, 0.1926007148910466, 0.08325955293538767, -0.014145437589189734, -0.031637903857255754, -0.03390048986768946, -0.03847831298473314, 0.006946812678045551, 0.23693645542774452, 0.5057464737431746, 0.49064176587583225, 0.532249011640611, 0.5846696622360873, 0.5492266722288058, 0.5097360175313657, 0.362819812604879, 0.36715395721571714, 0.4129335369886502, 0.45022356206699166, 0.6248774141938784, 0.7389241054421565, 0.7800415543045217, 0.7939225786378274, 0.8405325094422118, 0.6535840572939094, 0.5954655919363442, 0.4954048296597012, 0.3343231398936215, 0.236332997521912, 0.10773874428000153, 0.023194875831234044, -0.023886836272921357, -0.03364924159393253, -0.03365631995419275, -0.03337706942558471, 0.0025392306255460273, 0.16843598113942837, 0.4043107713814892, 0.5092694335926883, 0.6011227963918683, 0.6033971787664608, 0.6179993832270627, 0.47138745998839116, 0.32577703432788685, 0.18157081941381867, 0.22675660456616514, 0.33852101542036295, 0.4877990012543406, 0.5920110448946831, 0.6164527108605062, 0.6826297183196999, 0.6327387442198874, 0.511704544977068, 0.3326391336869768, 0.23132987746527206, 0.16165639792844227, 0.11377450644937626, 0.03723727832057092, 0.001758196085839737, -0.029094091621566356, -0.03382784196842601, -0.03376018884301781, -0.0337022054396599, -0.009663327674083606, 0.09703227467127735, 0.30730507739227364, 0.42003195156097684, 0.5003875668062348, 0.4680124273944007, 0.338492916386205, 0.22337727126352203, 0.04170129306373904, -0.16311987912835887, -0.35778929868359816, -0.2806200564118152, -0.10432669434413377, 0.09976646028656475, 0.18274981821268574, 0.2658896548036823, 0.2719107062908864, 0.18397731021092875, 0.09253120391924198, 0.00560109459312006, 0.013510366656193559, 0.0034588403507824785, -0.011581473351163862, -0.02346057533360576, -0.03434881360969259, -0.03380032583919992, -0.033665929867532675, -0.03382667444584054, -0.025114338005549477, 0.02652766945860425, 0.16727548024647412, 0.29326463265408703, 0.3719205844779517, 0.3135216398487549, 0.11569096892979212, -0.022944027907373342, -0.23833337316840517, -0.470186061618244, -0.6093727147338835, -0.5464712497921763, -0.42418430296659854, -0.18516519777988635, -0.12088535495618022, -0.11139557232083172, -0.05693503920615666, -0.12407109485200689, -0.20358483658059215, -0.16645773632450417, -0.09565042101214156, -0.06708370481504415, -0.04051512314459199, -0.027115669163200698, -0.0318700061407053, -0.03365649132891594, -0.033800358539979904, -0.03380066454111969, -0.029527861624398702, -0.010739928603333731, 0.01581221549663456, 0.044426675602177765, 0.09071159814637203, 0.06654531774725293, -0.030881070598318676, -0.09803150331911925, -0.22819712434208067, -0.23951735058464133, -0.27258059457430833, -0.2205211334926735, -0.1495163662114779, -0.18117152975144657, -0.2409036394835049, -0.32393311675929704, -0.34849510392217925, -0.4012395812767445, -0.36034681065608515, -0.24222585665681387, -0.14092002565997103, -0.08668542195149932, -0.02526179741138093, -0.022673199854848565, -0.03222962026182194, -0.03366296931486005, -0.0338585052897997, -0.033717678105605796, -0.03332683248505434, -0.034271825235317105, -0.043809902077457295, -0.07099950871108054, -0.09424411948624133, -0.1511962441535817, -0.17160397562875962, -0.16660872578391972, -0.17820241543893298, -0.14937379798675152, -0.12116477154491063, -0.15957725155479333, -0.16479488346887364, -0.21265883782815725, -0.24775377536016577, -0.2988400641380661, -0.296939123715397, -0.26711134584870344, -0.23523690213897494, -0.18014980413741338, -0.10771338488498845, -0.06230328531931652, -0.03681901983521735, -0.03243985342237986, -0.032162497688154976, -0.033697759130689016, -0.03380528725368131, -0.03383056027284611, -0.03380954599625811, -0.034242053700338636, -0.04109681264299329, -0.04710290637184231, -0.06259381975047036, -0.064317614633401, -0.07548823690631885, -0.09172906270838727, -0.10440502034161911, -0.10058445961401317, -0.12152387989881731, -0.1440066037416799, -0.1518737506106245, -0.12204615827294685, -0.09564349020734408, -0.09690028301195669, -0.10110929480827419, -0.10175300797573955, -0.09390008618099598, -0.07487904575893709, -0.04864260917351399, -0.0370547420009491, -0.03383025475088969, -0.03368335850991153, -0.033890014436599704, -0.03382888925622008, -0.03388950946739835, -0.033882401308645636, -0.03378357821474642, -0.033745067418532275, -0.033926672714120386, -0.03405601066851242, -0.03402702954919707, -0.03436201984051153, -0.03438945589355647, -0.03367111137985189, -0.033159594371147405, -0.034267737140983155, -0.037450201165436965, -0.03724861986778326, -0.0413115725945395, -0.0375139789692726, -0.03688359999145083, -0.03539793875916772, -0.03928199396734511, -0.03807693768189227, -0.04101007024852673, -0.039784288687717564, -0.03721714952007121, -0.03377864714780655, -0.033696333038095154, -0.03377202948323798, -0.033822365462634583, -0.03370213547986469], [0.08364830633141317, 0.08368675725301698, 0.08364353959424313, 0.0836934711275245, 0.08351532631133941, 0.08347473963797468, 0.08362039664815783, 0.08359473955691692, 0.08344906988735303, 0.08359923227603284, 0.0836710856608009, 0.08344265605160082, 0.08445042334784454, 0.08520887350046359, 0.08362502393722547, 0.08345361279965495, 0.08349058073260758, 0.0835800198975588, 0.0835868932173053, 0.0835713786390228, 0.08347108014224956, 0.08356275658006591, 0.08346283744182591, 0.08345390299182921, 0.08350206793374552, 0.08346350847621158, 0.08349903057115103, 0.08344303528512746, 0.08367251253670997, 0.08353092349480577, 0.08352929016318457, 0.08364853010107672, 0.08359106143480878, 0.08349902193136395, 0.0862467685422006, 0.08952184274039832, 0.08927147458069415, 0.08906472368653214, 0.09422427909351165, 0.0942177872776367, 0.0996209879832604, 0.0949324697522594, 0.09167230606760514, 0.08922340762775213, 0.08221781769159624, 0.08547314835620341, 0.08807019621333133, 0.09052027081924563, 0.08851175986152296, 0.0868419324020146, 0.08536465866588352, 0.08396344734700799, 0.08352143506099734, 0.08366002438849642, 0.08366379843726147, 0.08350951501179944, 0.08366763233743614, 0.08360526724792412, 0.08354444906283938, 0.08354081469286416, 0.08346299114524722, 0.08355274097416583, 0.08704853968047713, 0.09671666348744007, 0.0964428247842874, 0.0840449037809527, 0.10669129971159959, 0.11326323169694218, 0.11469499489455966, 0.12765456570527198, 0.14975842796163277, 0.16745468145588943, 0.16745284780037872, 0.17306116393843962, 0.16814034600126304, 0.17010111683890228, 0.1588658980417448, 0.13923875039101824, 0.10718300144571143, 0.08901636744211117, 0.08246558557968654, 0.08198977535818393, 0.08365263715942546, 0.08357250431876996, 0.08344646683517405, 0.08360411701999153, 0.08357524786507113, 0.08510895972807309, 0.08563081908692859, 0.08759377035888005, 0.09065162146913767, 0.09460977834115267, 0.07210952228866, 0.03490129182041166, 0.03967326754668353, 0.026167151662894822, 0.036077003713510886, 0.08186442017498102, 0.16812529596596495, 0.2530987116039588, 0.32926914836108545, 0.4266448992474383, 0.4858468237361968, 0.4848427060761743, 0.3951834292146311, 0.28815282049751617, 0.21813704344441157, 0.15879653434099855, 0.11915148185014547, 0.08559829194149511, 0.08548876012410878, 0.08364964613606755, 0.08361786945078063, 0.0836498470822543, 0.08374477656765168, 0.08503172458818797, 0.09053964022823886, 0.09781069127065009, 0.09163728951389413, 0.07233496836540618, 0.03519291274075707, -0.03806071767144009, -0.05927728109346371, -0.14616131801272303, -0.16025264350358692, -0.1393894203623075, -0.12809425941176256, -0.027042558010060978, 0.14317950089145065, 0.29309446273162226, 0.4032155932956394, 0.44710548213713347, 0.39495257861766764, 0.34198531148117756, 0.2906761784835254, 0.22607824229203066, 0.1327123910630212, 0.09347196157075091, 0.08364443495386586, 0.08404671439834517, 0.08349460811828717, 0.08361275195752692, 0.08388168372382564, 0.08669152895131646, 0.1001247072579047, 0.11145979727329935, 0.07996257299082495, 0.02105336801112557, -0.06924727038916619, -0.16998329934119055, -0.2548445662110964, -0.3683585972002696, -0.38637886759462525, -0.37121798330606603, -0.28255032593451346, -0.1586488506506108, -0.08355309393005977, -0.06833900523638228, 0.06257667663303962, 0.12504053365282736, 0.10082268976227968, 0.09607627028163905, 0.15364701539902237, 0.19655108936371543, 0.1311459186054029, 0.08040769085356622, 0.08388169810699098, 0.08425582472163484, 0.08361100063741118, 0.08345810001287458, 0.08381507770148393, 0.08601738153459845, 0.10001990447229844, 0.0793584178855309, 0.014336587256115916, -0.08980896191007125, -0.19990172397105707, -0.3242941182278114, -0.4009852009542137, -0.4309858875791281, -0.3617403489991952, -0.20361784861213203, 0.04756415328961226, 0.1498243892949033, 0.08226553826888021, -0.030211942860296093, -0.11672596714677254, -0.23945367221003933, -0.23245002985066682, -0.18869474238786332, -0.0485230990814333, 0.04996578793229965, 0.09198792915034268, 0.07709170801011803, 0.08659691882932775, 0.08420239093777718, 0.08344214492386172, 0.08405058460662933, 0.08195047957223156, 0.08322402298315972, 0.09169113568224592, 0.029565330459226494, -0.0957455933508071, -0.2307684404825751, -0.3753324079212191, -0.4695780442751703, -0.49339685053112214, -0.4092178654162448, -0.2037305584627757, 0.10051871469654694, 0.5094458564574934, 0.5334180674472069, 0.24542568504722853, -0.037271371891943836, -0.41762523037350324, -0.5077760666152438, -0.45437347683783175, -0.37319675862304047, -0.22748403562155337, -0.1105438793579432, 0.02552419634025009, 0.06520707306092254, 0.082887632268428, 0.0843414607345216, 0.08285590569355815, 0.08310098011620143, 0.08187161395868743, 0.0822507496390136, 0.07634350420819865, -0.04230150563063624, -0.23638959580323968, -0.3957229795856134, -0.470234809686053, -0.5905758930405782, -0.6122277858898493, -0.38924609069363825, -0.1167054769121171, 0.2384826568949534, 0.5715933361114653, 0.5178419384560207, 0.017456028073419262, -0.41757639262113316, -0.8086954253268992, -0.8451018540190564, -0.6955102656799337, -0.5509223113279563, -0.40768259095564474, -0.2501934401641791, -0.05228606765687231, 0.047987416088351366, 0.07190249153289117, 0.08065699615209737, 0.0834175096696032, 0.08301297748752506, 0.07919320558605128, 0.0718382200849483, 0.04104926908306039, -0.12218743584873416, -0.3105096961364721, -0.40199391757290154, -0.49902007424938566, -0.594150637013788, -0.544476163764597, -0.24327728695378956, 0.10950360755964064, 0.46413574438461286, 0.6827836914190824, 0.38112461523649616, -0.30304925878988925, -0.8639046439488776, -1.0658147550066308, -1.014954254079132, -0.8232213486779898, -0.6973835845347744, -0.5717741255406362, -0.3580613405830147, -0.11495353263975884, 0.026065622377778392, 0.06569327756782045, 0.08210982782967323, 0.08343358453148715, 0.08282990119497297, 0.07254254998871573, 0.06381534114582413, 0.0037536044300102065, -0.16254167336979938, -0.3356166488474598, -0.37543135886401713, -0.41893097771283433, -0.4384217733116771, -0.2334777636016696, 0.08594958312270029, 0.37330474348690035, 0.6900302231908007, 0.6367813897356386, 0.14313540605287117, -0.5090225801149459, -0.8912619424733409, -1.0129389004138722, -0.9682717829447203, -0.8569631828728342, -0.7461665870730722, -0.6095663364515762, -0.36868172364426455, -0.12513185879326677, 0.022373676430687908, 0.06309455363912855, 0.07931617103739742, 0.08363023407089308, 0.08154469173429693, 0.07682860925938653, 0.06658610070481373, 0.015474979841355384, -0.1127532242965848, -0.24813507023583514, -0.2506614463914667, -0.2390762900143178, -0.15005408244447876, 0.19012588784592296, 0.4898346594090928, 0.7184372315482175, 0.8322621084414064, 0.57330975170279, 0.10611281839244963, -0.2688046305597487, -0.4986875261085271, -0.6543099675218781, -0.7241028610581922, -0.6645136045761669, -0.60121847389338, -0.5075620105872597, -0.2919793238764219, -0.10996376031463519, 0.017385062855811602, 0.06113236403327857, 0.08173519116992924, 0.08362290593987683, 0.08175104935017206, 0.0773724155759818, 0.06257369176364642, 0.025621218665487028, -0.06835670541748297, -0.09656323146818778, -0.05438714910600134, 0.00943637305862039, 0.19863466012857733, 0.5486109558368298, 0.736763234300598, 0.8066359387916328, 0.7283673146226598, 0.5485776567510301, 0.2970753225371179, 0.16645588009478557, -0.003910554549845227, -0.18368167341603397, -0.38949608153861387, -0.4013757480168577, -0.4046377779599599, -0.3206597767597947, -0.1568215499388895, -0.0447748814339156, 0.0317945308039949, 0.05406971509267297, 0.0807682428579741, 0.08367171195126956, 0.08261740074178686, 0.07929534737389761, 0.06566994935500833, 0.05362179549373414, 0.011029723099329215, -0.0018758343354402375, 0.01276197456344394, 0.1564940047741511, 0.3738688367567978, 0.6247461878662931, 0.6117895478940952, 0.5645158774951571, 0.4146054603941923, 0.3995999739567157, 0.46500622075568615, 0.4963500462804754, 0.3717723781415051, 0.1810619901359749, 0.02243431022336485, -0.10111477235048184, -0.16194010254869506, -0.15785797983535418, -0.074805084187657, -0.036566996305443494, 0.011109504602400828, 0.042361092137233096, 0.0706403066941171, 0.08364501973478662, 0.08347248300293628, 0.0818058162305608, 0.0779292093410608, 0.056223702038211046, -0.003601063971046391, -0.04770999720538908, -0.045529406080269175, 0.10257884776442928, 0.33201601726130947, 0.48342476127334616, 0.4146403736372433, 0.2106521014850085, -0.06223950169783183, 0.08758369511614107, 0.2874414883621688, 0.4258545750379499, 0.37006499977555835, 0.37246967573835515, 0.3472716517109467, 0.1658271148294976, 0.033060438585976674, -0.013787807452628613, -0.07498274272213362, -0.06539056438802571, -0.0023299629126101317, 0.046183011075044196, 0.08230377922578766, 0.08364390528543668, 0.08372911661304142, 0.08425700672946491, 0.07040868304312667, 0.0059790169249397665, -0.09599427354396442, -0.19366334325155377, -0.24047297588089767, -0.08906099161489928, 0.10510975770130683, 0.27520602266387073, 0.2230400561114933, -0.18395026524656125, -0.41573644733656206, -0.15260857192971322, 0.0012316437853727219, 0.16351454424730752, 0.22337546174381134, 0.35495261329001837, 0.375183076455113, 0.25802205300021963, 0.12877203485341657, 0.0032892385209851564, -0.1159400972376267, -0.11735936218516219, -0.0417471295958335, 0.03105101434684378, 0.0766380010706288, 0.08358500765648179, 0.08386390276192876, 0.08449609113265304, 0.05666972089661992, -0.04576700612237372, -0.19839341142535905, -0.3510221175908695, -0.37470544259798827, -0.29022641684000894, -0.16861261931153734, -0.021289485060756404, -0.0888108449148606, -0.6161823497544482, -0.6423859716904989, -0.26319287293698157, -0.1374051311845473, -0.12869998399482052, -0.06516436350611182, 0.2091490298779799, 0.2820183537836722, 0.17824221809906962, 0.01679726324835277, -0.10601253982470814, -0.20626572211672908, -0.16612140087663138, -0.0725944760150774, 0.013432571981677445, 0.07342630597559698, 0.0835628241055041, 0.08368940940543924, 0.08287126186470146, 0.04862074285057697, -0.08605037280022385, -0.2709801932437361, -0.4303951923834979, -0.4508047739459529, -0.42783340489687494, -0.4353939321428269, -0.332607422447564, -0.4939105226185314, -0.7931833351531989, -0.6231687305280698, -0.19542218141244913, -0.11773264395266561, -0.1765863369439721, -0.03788525860604458, 0.14662347032346384, 0.15490409773489408, 0.019866938213484574, -0.0934689860378146, -0.21812741413842235, -0.2421259887972406, -0.2193369885557644, -0.08563910307858257, 0.0317578514288829, 0.07525504110789205, 0.08356417285038763, 0.0835052011664368, 0.08667060142186185, 0.06161058269052861, -0.08696320897688249, -0.30535219752832, -0.43264524740224125, -0.4565460648030754, -0.47379694667553207, -0.506024310142268, -0.5813204304735724, -0.6011674102379158, -0.663859219280387, -0.4433324912761286, -0.02457638630581169, 0.07564502980687919, 0.12355073606671764, 0.1903168009139957, 0.20014964451377376, 0.06461726274172806, -0.05233244585819527, -0.14712751063398527, -0.29148948346607634, -0.3069972122959554, -0.21680391405044788, -0.03685786433743538, 0.06445401150962922, 0.0782955710616852, 0.08354509718077192, 0.08244673301724134, 0.08828656362739461, 0.07514442136098602, -0.06510599067507154, -0.269192963548797, -0.38128082858817675, -0.4108472844261868, -0.4254402394742455, -0.5113931175899595, -0.51100112864289, -0.41697728663635736, -0.4006786135994782, -0.10801014659073732, 0.24213093889822213, 0.36792108873245283, 0.4319047751407569, 0.34565076445054926, 0.22804844315763978, 0.028580900284230902, -0.1156479926382608, -0.2441818376184982, -0.34490095388851016, -0.27899141592951604, -0.13143357665118455, -0.000432850443638386, 0.06437766299344318, 0.07983707434833152, 0.08345505706509705, 0.08146922035899598, 0.08658830550386461, 0.0798400875682122, -0.04542216943146209, -0.22174895268092137, -0.34772397777487535, -0.36046661382275597, -0.3184988875929871, -0.3066670986884857, -0.27230986090908954, -0.152468930017849, -0.008104397888154702, 0.3224586541764205, 0.627704461935836, 0.6105542472510361, 0.551872505101748, 0.3784431388075128, 0.1394385368302456, -0.1072539761568877, -0.24795326222313183, -0.349235493435667, -0.34915957608776427, -0.21139767177794117, -0.07120627394934431, 0.04116655113987712, 0.07535829344458606, 0.08357436010402612, 0.0836846264101639, 0.08355703045291675, 0.08795808835516729, 0.0820973517564877, 0.010819525253760084, -0.12376364407371854, -0.2778124197979874, -0.3425173550731814, -0.2519011778596171, -0.18599886842421018, -0.06254131877623456, 0.099296794305488, 0.32810469069525683, 0.5433354961747887, 0.6591961952115578, 0.5877012346439386, 0.4128573952918058, 0.22073419553517115, -0.02106340325272111, -0.21061151847810394, -0.28899667740066187, -0.28230387159782744, -0.22751239343347093, -0.10955208689604855, 0.007672396205541095, 0.05973970926258429, 0.07818202510341754, 0.08356601239909377, 0.08352270639277092, 0.08353572375621891, 0.087510055081116, 0.08918462816107685, 0.07222235343327903, -0.02477268879916121, -0.21181415416213262, -0.32347490434889, -0.3236695305323908, -0.2700530187009195, -0.19109691314119645, -0.13291040521806116, 0.02252537649189651, 0.1485049149966862, 0.18986201487871254, 0.15753903676625786, 0.06238352953319879, -0.05198106789820885, -0.18957898135720008, -0.23873148613977196, -0.23945980534178107, -0.19997822835565485, -0.12227734709403959, -0.025493667651988672, 0.043479909462598706, 0.07278787900967608, 0.08353238907393337, 0.08357936933417019, 0.08359478616324094, 0.08353719521386259, 0.08477456668284315, 0.09149399177650555, 0.10462323551313323, 0.08074983702908639, -0.013552963320796294, -0.139617131814598, -0.2251962116918751, -0.27644899968494807, -0.30915867510823464, -0.3573954043917127, -0.3914126762759002, -0.32933553191601833, -0.2772422026997303, -0.19591138874930528, -0.15211755964766377, -0.14076015184992624, -0.1634445254880123, -0.1585732190470081, -0.11861339599703492, -0.06944760991694393, -0.027295577930202857, 0.02946711998900867, 0.062209505877026665, 0.07650984630282709, 0.08499961215919316, 0.08367865302091156, 0.08346118626976175, 0.0836259057562987, 0.0844820333581936, 0.08746815349892766, 0.09885520300781896, 0.11638352734196825, 0.11209055585732246, 0.10346145669258358, 0.07828956691803172, 0.07606732210879598, 0.09327889038492147, 0.057238901152617656, -0.009105213206024454, -0.04072987208531491, -0.07864234367446232, -0.09321012346354252, -0.07414483167285442, 0.001573253668739609, -0.00951921443915856, 0.004496945394443943, 0.048663105929171474, 0.06716098120376178, 0.059251745477124494, 0.07300117111180329, 0.072390439162011, 0.07928458660368883, 0.08310201020648275, 0.08364580626778985, 0.08364165026782207, 0.08357934126404958, 0.08374079900258634, 0.08412778184982522, 0.08963866940942172, 0.10248143700661348, 0.11432874154914502, 0.1410632808192947, 0.19040873452772927, 0.23656466762018674, 0.27532680890520783, 0.27463546178337445, 0.2851088399392797, 0.2432610027840047, 0.18875355356703843, 0.13871836988687616, 0.11948148138387539, 0.11662699505157692, 0.1206898411312423, 0.10977990761365021, 0.10838965552456051, 0.10195847807112068, 0.09015631142189458, 0.08627218488900185, 0.08355512143579504, 0.08289022255291291, 0.08295178737811984, 0.0836455412250967, 0.08356206721267377, 0.08357778795543548, 0.08353063104813564, 0.0836524040769804, 0.08536716280424997, 0.09086094674673499, 0.09493809004338256, 0.09988860041202462, 0.11116361248539322, 0.13113091856560302, 0.1453969715906336, 0.14469401832884665, 0.15231802378035783, 0.15797586135223032, 0.1540513108828114, 0.14064355687264796, 0.12820982926201632, 0.1202463154853909, 0.11379801822028385, 0.10313762784339446, 0.09993118999097023, 0.09107146118049991, 0.0840773183693601, 0.08398441503857206, 0.08362195669177043, 0.08366683729129466, 0.08353504060374771, 0.08347753768818143, 0.08364906690628422, 0.08354680438287472, 0.08361421916493912, 0.08369393055715725, 0.08351623567726747, 0.08361522222816205, 0.08375560197679803, 0.08465810814730938, 0.0847636656643732, 0.08455665999078625, 0.08532284565348737, 0.0860596256218969, 0.08739680406369407, 0.08607357585401014, 0.08933124183968848, 